digraph Tree {
node [shape=box, style="filled, rounded", color="black", fontname="helvetica"] ;
edge [fontname="helvetica"] ;
0 [label=<danceability_% &le; 61.5<br/>squared_error = 3.209892725217015e+17<br/>samples = 952<br/>value = 514137424.939>, fillcolor="#fbeee4"] ;
1 [label=<speechiness_% &le; 2.5<br/>squared_error = 4.0930120038978214e+17<br/>samples = 328<br/>value = 604612460.777>, fillcolor="#fbeadf"] ;
0 -> 1 [labeldistance=2.5, labelangle=45, headlabel="True"] ;
2 [label=<energy_% &le; 44.5<br/>squared_error = 2.2627372759382886e+17<br/>samples = 2<br/>value = 2083846693.0>, fillcolor="#f0b890"] ;
1 -> 2 ;
3 [label=<squared_error = 0.0<br/>samples = 1<br/>value = 1608164312.0>, fillcolor="#f4c8a9"] ;
2 -> 3 ;
4 [label=<squared_error = -1024.0<br/>samples = 1<br/>value = 2559529074.0>, fillcolor="#eda876"] ;
2 -> 4 ;
5 [label=<speechiness_% &le; 7.5<br/>squared_error = 3.96917577227675e+17<br/>samples = 326<br/>value = 595537404.138>, fillcolor="#fbebdf"] ;
1 -> 5 ;
6 [label=<speechiness_% &le; 6.5<br/>squared_error = 4.335667683550661e+17<br/>samples = 235<br/>value = 654005178.528>, fillcolor="#fae9dc"] ;
5 -> 6 ;
7 [label=<danceability_% &le; 60.5<br/>squared_error = 3.93374987684555e+17<br/>samples = 224<br/>value = 635373428.156>, fillcolor="#fbe9dd"] ;
6 -> 7 ;
8 [label=<liveness_% &le; 35.5<br/>squared_error = 3.7080864354153395e+17<br/>samples = 211<br/>value = 613863234.896>, fillcolor="#fbeade"] ;
7 -> 8 ;
9 [label=<danceability_% &le; 45.5<br/>squared_error = 3.8477496007169395e+17<br/>samples = 191<br/>value = 640448423.309>, fillcolor="#fbe9dd"] ;
8 -> 9 ;
10 [label=<energy_% &le; 25.5<br/>squared_error = 3.9927775337401664e+17<br/>samples = 57<br/>value = 776195070.965>, fillcolor="#fae5d6"] ;
9 -> 10 ;
11 [label=<liveness_% &le; 13.0<br/>squared_error = 9.093106965102296e+16<br/>samples = 12<br/>value = 337307388.083>, fillcolor="#fdf4ed"] ;
10 -> 11 ;
12 [label=<instrumentalness_% &le; 21.5<br/>squared_error = 1.800836144590866e+16<br/>samples = 7<br/>value = 182356912.143>, fillcolor="#fef9f5"] ;
11 -> 12 ;
13 [label=<danceability_% &le; 36.5<br/>squared_error = 1.426176563343684e+16<br/>samples = 6<br/>value = 151308587.167>, fillcolor="#fefaf7"] ;
12 -> 13 ;
14 [label=<liveness_% &le; 11.5<br/>squared_error = 1.037012832146592e+16<br/>samples = 2<br/>value = 287938137.0>, fillcolor="#fdf5f0"] ;
13 -> 14 ;
15 [label=<squared_error = 0.0<br/>samples = 1<br/>value = 389771964.0>, fillcolor="#fcf2ea"] ;
14 -> 15 ;
16 [label=<squared_error = -4.0<br/>samples = 1<br/>value = 186104310.0>, fillcolor="#fef9f5"] ;
14 -> 16 ;
17 [label=<valence_% &le; 23.0<br/>squared_error = 2206858873677806.0<br/>samples = 4<br/>value = 82993812.25>, fillcolor="#fefcfb"] ;
13 -> 17 ;
18 [label=<speechiness_% &le; 5.0<br/>squared_error = 1642774443403213.0<br/>samples = 3<br/>value = 64968108.0>, fillcolor="#fffdfc"] ;
17 -> 18 ;
19 [label=<liveness_% &le; 10.5<br/>squared_error = 35633067790336.0<br/>samples = 2<br/>value = 36516227.0>, fillcolor="#fffefd"] ;
18 -> 19 ;
20 [label=<squared_error = 0.0<br/>samples = 1<br/>value = 30546883.0>, fillcolor="#fffefd"] ;
19 -> 20 ;
21 [label=<squared_error = 0.0<br/>samples = 1<br/>value = 42485571.0>, fillcolor="#fffefd"] ;
19 -> 21 ;
22 [label=<squared_error = 0.0<br/>samples = 1<br/>value = 121871870.0>, fillcolor="#fefbf8"] ;
18 -> 22 ;
23 [label=<squared_error = 0.0<br/>samples = 1<br/>value = 137070925.0>, fillcolor="#fefaf8"] ;
17 -> 23 ;
24 [label=<squared_error = 0.0<br/>samples = 1<br/>value = 368646862.0>, fillcolor="#fcf2eb"] ;
12 -> 24 ;
25 [label=<valence_% &le; 28.5<br/>squared_error = 1.1235043715773792e+17<br/>samples = 5<br/>value = 554238054.4>, fillcolor="#fbece1"] ;
11 -> 25 ;
26 [label=<energy_% &le; 22.5<br/>squared_error = 1.173450061081e+16<br/>samples = 2<br/>value = 230239081.0>, fillcolor="#fdf7f3"] ;
25 -> 26 ;
27 [label=<squared_error = 0.0<br/>samples = 1<br/>value = 121913181.0>, fillcolor="#fefbf8"] ;
26 -> 27 ;
28 [label=<squared_error = 0.0<br/>samples = 1<br/>value = 338564981.0>, fillcolor="#fdf3ed"] ;
26 -> 28 ;
29 [label=<danceability_% &le; 40.0<br/>squared_error = 6.278846733985216e+16<br/>samples = 3<br/>value = 770237370.0>, fillcolor="#fae5d6"] ;
25 -> 29 ;
30 [label=<acousticness_% &le; 83.5<br/>squared_error = 1.552492438229389e+16<br/>samples = 2<br/>value = 932160990.5>, fillcolor="#f8dfcd"] ;
29 -> 30 ;
31 [label=<squared_error = 0.0<br/>samples = 1<br/>value = 1056760045.0>, fillcolor="#f8dbc7"] ;
30 -> 31 ;
32 [label=<squared_error = -128.0<br/>samples = 1<br/>value = 807561936.0>, fillcolor="#f9e4d4"] ;
30 -> 32 ;
33 [label=<squared_error = 32.0<br/>samples = 1<br/>value = 446390129.0>, fillcolor="#fcf0e7"] ;
29 -> 33 ;
34 [label=<acousticness_% &le; 91.0<br/>squared_error = 4.1643997009093843e+17<br/>samples = 45<br/>value = 893231786.4>, fillcolor="#f9e1cf"] ;
10 -> 34 ;
35 [label=<liveness_% &le; 27.0<br/>squared_error = 3.491617926071703e+17<br/>samples = 43<br/>value = 831478751.116>, fillcolor="#f9e3d3"] ;
34 -> 35 ;
36 [label=<liveness_% &le; 10.5<br/>squared_error = 2.95498617561128e+17<br/>samples = 39<br/>value = 755966793.692>, fillcolor="#fae5d7"] ;
35 -> 36 ;
37 [label=<energy_% &le; 49.0<br/>squared_error = 4.355716414529893e+17<br/>samples = 14<br/>value = 1029628506.357>, fillcolor="#f8dcc8"] ;
36 -> 37 ;
38 [label=<liveness_% &le; 9.5<br/>squared_error = 2.810036868561704e+16<br/>samples = 4<br/>value = 356126807.5>, fillcolor="#fdf3ec"] ;
37 -> 38 ;
39 [label=<acousticness_% &le; 69.0<br/>squared_error = 5551300136579456.0<br/>samples = 3<br/>value = 266801757.667>, fillcolor="#fdf6f1"] ;
38 -> 39 ;
40 [label=<speechiness_% &le; 4.5<br/>squared_error = 868092676145152.0<br/>samples = 2<br/>value = 316664427.5>, fillcolor="#fdf4ee"] ;
39 -> 40 ;
41 [label=<squared_error = 0.0<br/>samples = 1<br/>value = 287201015.0>, fillcolor="#fdf5f0"] ;
40 -> 41 ;
42 [label=<squared_error = -16.0<br/>samples = 1<br/>value = 346127840.0>, fillcolor="#fdf3ec"] ;
40 -> 42 ;
43 [label=<squared_error = -4.0<br/>samples = 1<br/>value = 167076418.0>, fillcolor="#fef9f6"] ;
39 -> 43 ;
44 [label=<squared_error = 64.0<br/>samples = 1<br/>value = 624101957.0>, fillcolor="#fbeade"] ;
38 -> 44 ;
45 [label=<acousticness_% &le; 51.0<br/>squared_error = 3.445416090764019e+17<br/>samples = 10<br/>value = 1299029185.9>, fillcolor="#f6d3ba"] ;
37 -> 45 ;
46 [label=<acousticness_% &le; 27.5<br/>squared_error = 1.838532155353394e+17<br/>samples = 7<br/>value = 1021158802.571>, fillcolor="#f8dcc8"] ;
45 -> 46 ;
47 [label=<valence_% &le; 30.5<br/>squared_error = 9.668278022323942e+16<br/>samples = 6<br/>value = 1150890744.833>, fillcolor="#f7d8c1"] ;
46 -> 47 ;
48 [label=<squared_error = 0.0<br/>samples = 1<br/>value = 703301727.0>, fillcolor="#fae7d9"] ;
47 -> 48 ;
49 [label=<acousticness_% &le; 7.5<br/>squared_error = 6.793871333548467e+16<br/>samples = 5<br/>value = 1240408548.4>, fillcolor="#f6d5bd"] ;
47 -> 49 ;
50 [label=<instrumentalness_% &le; 31.5<br/>squared_error = 3.5614712718731904e+16<br/>samples = 3<br/>value = 1066255106.667>, fillcolor="#f8dbc6"] ;
49 -> 50 ;
51 [label=<acousticness_% &le; 3.0<br/>squared_error = 9558984045783296.0<br/>samples = 2<br/>value = 1187172551.0>, fillcolor="#f7d7c0"] ;
50 -> 51 ;
52 [label=<squared_error = 0.0<br/>samples = 1<br/>value = 1284942608.0>, fillcolor="#f6d3ba"] ;
51 -> 52 ;
53 [label=<squared_error = 256.0<br/>samples = 1<br/>value = 1089402494.0>, fillcolor="#f7dac5"] ;
51 -> 53 ;
54 [label=<squared_error = 0.0<br/>samples = 1<br/>value = 824420218.0>, fillcolor="#f9e3d3"] ;
50 -> 54 ;
55 [label=<energy_% &le; 76.5<br/>squared_error = 2689384507244800.0<br/>samples = 2<br/>value = 1501638711.0>, fillcolor="#f4ccaf"] ;
49 -> 55 ;
56 [label=<squared_error = 0.0<br/>samples = 1<br/>value = 1449779435.0>, fillcolor="#f5ceb1"] ;
55 -> 56 ;
57 [label=<squared_error = 0.0<br/>samples = 1<br/>value = 1553497987.0>, fillcolor="#f4caac"] ;
55 -> 57 ;
58 [label=<squared_error = -488.0<br/>samples = 1<br/>value = 242767149.0>, fillcolor="#fdf7f2"] ;
46 -> 58 ;
59 [label=<danceability_% &le; 42.5<br/>squared_error = 1.1894380565202534e+17<br/>samples = 3<br/>value = 1947393413.667>, fillcolor="#f1bd97"] ;
45 -> 59 ;
60 [label=<squared_error = 0.0<br/>samples = 1<br/>value = 2420461338.0>, fillcolor="#eead7e"] ;
59 -> 60 ;
61 [label=<energy_% &le; 57.0<br/>squared_error = 1.0570762703251968e+16<br/>samples = 2<br/>value = 1710859451.5>, fillcolor="#f3c5a4"] ;
59 -> 61 ;
62 [label=<squared_error = 0.0<br/>samples = 1<br/>value = 1813673666.0>, fillcolor="#f2c19e"] ;
61 -> 62 ;
63 [label=<squared_error = 0.0<br/>samples = 1<br/>value = 1608045237.0>, fillcolor="#f4c8a9"] ;
61 -> 63 ;
64 [label=<valence_% &le; 37.0<br/>squared_error = 1.5163317985153645e+17<br/>samples = 25<br/>value = 602716234.6>, fillcolor="#fbeadf"] ;
36 -> 64 ;
65 [label=<acousticness_% &le; 1.0<br/>squared_error = 1.4406637541214406e+17<br/>samples = 22<br/>value = 648531636.955>, fillcolor="#fae9dc"] ;
64 -> 65 ;
66 [label=<squared_error = 0.0<br/>samples = 1<br/>value = 1755214421.0>, fillcolor="#f3c3a1"] ;
65 -> 66 ;
67 [label=<speechiness_% &le; 3.5<br/>squared_error = 8.982819995771757e+16<br/>samples = 21<br/>value = 595832456.762>, fillcolor="#fbebdf"] ;
65 -> 67 ;
68 [label=<energy_% &le; 42.0<br/>squared_error = 6.053144919390912e+16<br/>samples = 12<br/>value = 475004456.333>, fillcolor="#fcefe6"] ;
67 -> 68 ;
69 [label=<energy_% &le; 35.5<br/>squared_error = 1.0443420977611592e+16<br/>samples = 3<br/>value = 218946244.0>, fillcolor="#fdf8f3"] ;
68 -> 69 ;
70 [label=<valence_% &le; 22.5<br/>squared_error = 38568099343680.0<br/>samples = 2<br/>value = 291118638.0>, fillcolor="#fdf5ef"] ;
69 -> 70 ;
71 [label=<squared_error = 0.0<br/>samples = 1<br/>value = 297328960.0>, fillcolor="#fdf5ef"] ;
70 -> 71 ;
72 [label=<squared_error = -16.0<br/>samples = 1<br/>value = 284908316.0>, fillcolor="#fdf5f0"] ;
70 -> 72 ;
73 [label=<squared_error = 0.0<br/>samples = 1<br/>value = 74601456.0>, fillcolor="#fefcfb"] ;
69 -> 73 ;
74 [label=<energy_% &le; 47.5<br/>squared_error = 4.808709944230054e+16<br/>samples = 9<br/>value = 560357193.778>, fillcolor="#fbece1"] ;
68 -> 74 ;
75 [label=<acousticness_% &le; 20.5<br/>squared_error = 2500770611328.0<br/>samples = 2<br/>value = 840168151.5>, fillcolor="#f9e2d2"] ;
74 -> 75 ;
76 [label=<squared_error = 0.0<br/>samples = 1<br/>value = 841749534.0>, fillcolor="#f9e2d2"] ;
75 -> 76 ;
77 [label=<squared_error = 128.0<br/>samples = 1<br/>value = 838586769.0>, fillcolor="#f9e2d2"] ;
75 -> 77 ;
78 [label=<liveness_% &le; 14.5<br/>squared_error = 3.3064431774912e+16<br/>samples = 7<br/>value = 480411205.857>, fillcolor="#fcefe5"] ;
74 -> 78 ;
79 [label=<energy_% &le; 52.0<br/>squared_error = 2.771591814953144e+16<br/>samples = 3<br/>value = 340658561.333>, fillcolor="#fdf3ed"] ;
78 -> 79 ;
80 [label=<squared_error = 0.0<br/>samples = 1<br/>value = 571386359.0>, fillcolor="#fbece0"] ;
79 -> 80 ;
81 [label=<danceability_% &le; 35.5<br/>squared_error = 1647389762214456.0<br/>samples = 2<br/>value = 225294662.5>, fillcolor="#fdf7f3"] ;
79 -> 81 ;
82 [label=<squared_error = 0.0<br/>samples = 1<br/>value = 265882712.0>, fillcolor="#fdf6f1"] ;
81 -> 82 ;
83 [label=<squared_error = 8.0<br/>samples = 1<br/>value = 184706613.0>, fillcolor="#fef9f5"] ;
81 -> 83 ;
84 [label=<valence_% &le; 14.5<br/>squared_error = 1.144163982648736e+16<br/>samples = 4<br/>value = 585225689.25>, fillcolor="#fbebe0"] ;
78 -> 84 ;
85 [label=<squared_error = 0.0<br/>samples = 1<br/>value = 412795151.0>, fillcolor="#fcf1e9"] ;
84 -> 85 ;
86 [label=<valence_% &le; 20.5<br/>squared_error = 2041168425900864.0<br/>samples = 3<br/>value = 642702535.333>, fillcolor="#fae9dd"] ;
84 -> 86 ;
87 [label=<squared_error = 0.0<br/>samples = 1<br/>value = 705469769.0>, fillcolor="#fae7d9"] ;
86 -> 87 ;
88 [label=<valence_% &le; 28.0<br/>squared_error = 106958422226880.0<br/>samples = 2<br/>value = 611318918.5>, fillcolor="#fbeade"] ;
86 -> 88 ;
89 [label=<squared_error = 0.0<br/>samples = 1<br/>value = 621660989.0>, fillcolor="#fbeade"] ;
88 -> 89 ;
90 [label=<squared_error = 0.0<br/>samples = 1<br/>value = 600976848.0>, fillcolor="#fbebdf"] ;
88 -> 90 ;
91 [label=<energy_% &le; 35.5<br/>squared_error = 8.347016105925395e+16<br/>samples = 9<br/>value = 756936457.333>, fillcolor="#fae5d7"] ;
67 -> 91 ;
92 [label=<liveness_% &le; 13.0<br/>squared_error = 1.2900709668866816e+16<br/>samples = 3<br/>value = 1070235910.667>, fillcolor="#f7dbc6"] ;
91 -> 92 ;
93 [label=<squared_error = 0.0<br/>samples = 1<br/>value = 1230855859.0>, fillcolor="#f6d5bd"] ;
92 -> 93 ;
94 [label=<acousticness_% &le; 85.5<br/>squared_error = 1988651348096.0<br/>samples = 2<br/>value = 989925936.5>, fillcolor="#f8ddca"] ;
92 -> 94 ;
95 [label=<squared_error = 0.0<br/>samples = 1<br/>value = 991336132.0>, fillcolor="#f8ddca"] ;
94 -> 95 ;
96 [label=<squared_error = -128.0<br/>samples = 1<br/>value = 988515741.0>, fillcolor="#f8ddca"] ;
94 -> 96 ;
97 [label=<acousticness_% &le; 22.0<br/>squared_error = 4.513747616022336e+16<br/>samples = 6<br/>value = 600286730.667>, fillcolor="#fbebdf"] ;
91 -> 97 ;
98 [label=<acousticness_% &le; 11.5<br/>squared_error = 1060191109451776.0<br/>samples = 2<br/>value = 839576439.0>, fillcolor="#f9e2d2"] ;
97 -> 98 ;
99 [label=<squared_error = 0.0<br/>samples = 1<br/>value = 872137015.0>, fillcolor="#f9e1d0"] ;
98 -> 99 ;
100 [label=<squared_error = 0.0<br/>samples = 1<br/>value = 807015863.0>, fillcolor="#f9e4d4"] ;
98 -> 100 ;
101 [label=<danceability_% &le; 34.5<br/>squared_error = 2.423144529991997e+16<br/>samples = 4<br/>value = 480641876.5>, fillcolor="#fcefe5"] ;
97 -> 101 ;
102 [label=<squared_error = 0.0<br/>samples = 1<br/>value = 726434358.0>, fillcolor="#fae6d8"] ;
101 -> 102 ;
103 [label=<danceability_% &le; 35.5<br/>squared_error = 5457951972369888.0<br/>samples = 3<br/>value = 398711049.333>, fillcolor="#fcf1ea"] ;
101 -> 103 ;
104 [label=<squared_error = 0.0<br/>samples = 1<br/>value = 496311364.0>, fillcolor="#fceee4"] ;
103 -> 104 ;
105 [label=<acousticness_% &le; 52.0<br/>squared_error = 1042561891280528.0<br/>samples = 2<br/>value = 349910892.0>, fillcolor="#fdf3ec"] ;
103 -> 105 ;
106 [label=<squared_error = 0.0<br/>samples = 1<br/>value = 382199619.0>, fillcolor="#fcf2eb"] ;
105 -> 106 ;
107 [label=<squared_error = 0.0<br/>samples = 1<br/>value = 317622165.0>, fillcolor="#fdf4ee"] ;
105 -> 107 ;
108 [label=<danceability_% &le; 32.5<br/>squared_error = 7.884773450709077e+16<br/>samples = 3<br/>value = 266736617.333>, fillcolor="#fdf6f1"] ;
64 -> 108 ;
109 [label=<squared_error = 0.0<br/>samples = 1<br/>value = 663832097.0>, fillcolor="#fae8dc"] ;
108 -> 109 ;
110 [label=<liveness_% &le; 20.5<br/>squared_error = 7986781861994.0<br/>samples = 2<br/>value = 68188877.5>, fillcolor="#fffdfb"] ;
108 -> 110 ;
111 [label=<squared_error = 0.0<br/>samples = 1<br/>value = 65362788.0>, fillcolor="#fffdfc"] ;
110 -> 111 ;
112 [label=<squared_error = -1.0<br/>samples = 1<br/>value = 71014967.0>, fillcolor="#fffdfb"] ;
110 -> 112 ;
113 [label=<energy_% &le; 34.5<br/>squared_error = 2.747310347824937e+17<br/>samples = 4<br/>value = 1567720336.0>, fillcolor="#f4caab"] ;
35 -> 113 ;
114 [label=<squared_error = 0.0<br/>samples = 1<br/>value = 783706581.0>, fillcolor="#f9e4d5"] ;
113 -> 114 ;
115 [label=<liveness_% &le; 31.5<br/>squared_error = 9.311801614146046e+16<br/>samples = 3<br/>value = 1829058254.333>, fillcolor="#f2c19d"] ;
113 -> 115 ;
116 [label=<valence_% &le; 30.5<br/>squared_error = 3.179910338502707e+16<br/>samples = 2<br/>value = 2018687648.0>, fillcolor="#f1ba93"] ;
115 -> 116 ;
117 [label=<squared_error = 0.0<br/>samples = 1<br/>value = 2197010679.0>, fillcolor="#f0b48a"] ;
116 -> 117 ;
118 [label=<squared_error = 0.0<br/>samples = 1<br/>value = 1840364617.0>, fillcolor="#f2c09d"] ;
116 -> 118 ;
119 [label=<squared_error = 768.0<br/>samples = 1<br/>value = 1449799467.0>, fillcolor="#f5ceb1"] ;
115 -> 119 ;
120 [label=<acousticness_% &le; 92.5<br/>squared_error = 1.8170459825437696e+16<br/>samples = 2<br/>value = 2220922045.0>, fillcolor="#efb388"] ;
34 -> 120 ;
121 [label=<squared_error = 0.0<br/>samples = 1<br/>value = 2086124197.0>, fillcolor="#f0b88f"] ;
120 -> 121 ;
122 [label=<squared_error = -1024.0<br/>samples = 1<br/>value = 2355719893.0>, fillcolor="#eeaf81"] ;
120 -> 122 ;
123 [label=<acousticness_% &le; 93.0<br/>squared_error = 3.674331944849312e+17<br/>samples = 134<br/>value = 582705446.321>, fillcolor="#fbebe0"] ;
9 -> 123 ;
124 [label=<acousticness_% &le; 75.5<br/>squared_error = 3.6138480920634285e+17<br/>samples = 133<br/>value = 574596560.06>, fillcolor="#fbebe0"] ;
123 -> 124 ;
125 [label=<acousticness_% &le; 74.0<br/>squared_error = 3.915368688862317e+17<br/>samples = 117<br/>value = 610704491.231>, fillcolor="#fbeade"] ;
124 -> 125 ;
126 [label=<danceability_% &le; 51.5<br/>squared_error = 3.501493963997652e+17<br/>samples = 115<br/>value = 595941079.035>, fillcolor="#fbebdf"] ;
125 -> 126 ;
127 [label=<danceability_% &le; 48.5<br/>squared_error = 2.3159173998481123e+17<br/>samples = 32<br/>value = 435061515.469>, fillcolor="#fcf0e8"] ;
126 -> 127 ;
128 [label=<acousticness_% &le; 40.5<br/>squared_error = 4.473518671193389e+17<br/>samples = 8<br/>value = 724789282.5>, fillcolor="#fae6d8"] ;
127 -> 128 ;
129 [label=<energy_% &le; 46.0<br/>squared_error = 1.698361885040878e+17<br/>samples = 6<br/>value = 414569947.5>, fillcolor="#fcf1e9"] ;
128 -> 129 ;
130 [label=<squared_error = 0.0<br/>samples = 1<br/>value = 1297026226.0>, fillcolor="#f6d3ba"] ;
129 -> 130 ;
131 [label=<valence_% &le; 38.5<br/>squared_error = 1.690844617352864e+16<br/>samples = 5<br/>value = 238078691.8>, fillcolor="#fdf7f2"] ;
129 -> 131 ;
132 [label=<liveness_% &le; 19.5<br/>squared_error = 6200236947086720.0<br/>samples = 3<br/>value = 144414879.0>, fillcolor="#fefaf7"] ;
131 -> 132 ;
133 [label=<acousticness_% &le; 25.0<br/>squared_error = 1501151041940790.0<br/>samples = 2<br/>value = 93427284.5>, fillcolor="#fefcfa"] ;
132 -> 133 ;
134 [label=<squared_error = 0.0<br/>samples = 1<br/>value = 54682594.0>, fillcolor="#fffdfc"] ;
133 -> 134 ;
135 [label=<squared_error = 0.0<br/>samples = 1<br/>value = 132171975.0>, fillcolor="#fefbf8"] ;
133 -> 135 ;
136 [label=<squared_error = 0.0<br/>samples = 1<br/>value = 246390068.0>, fillcolor="#fdf7f2"] ;
132 -> 136 ;
137 [label=<liveness_% &le; 9.5<br/>squared_error = 72348157316000.0<br/>samples = 2<br/>value = 378574411.0>, fillcolor="#fcf2eb"] ;
131 -> 137 ;
138 [label=<squared_error = 0.0<br/>samples = 1<br/>value = 370068639.0>, fillcolor="#fcf2eb"] ;
137 -> 138 ;
139 [label=<squared_error = 0.0<br/>samples = 1<br/>value = 387080183.0>, fillcolor="#fcf2ea"] ;
137 -> 139 ;
140 [label=<speechiness_% &le; 3.5<br/>squared_error = 1.2506647327098522e+17<br/>samples = 2<br/>value = 1655447287.5>, fillcolor="#f3c7a7"] ;
128 -> 140 ;
141 [label=<squared_error = 0.0<br/>samples = 1<br/>value = 1301799902.0>, fillcolor="#f6d3b9"] ;
140 -> 141 ;
142 [label=<squared_error = 512.0<br/>samples = 1<br/>value = 2009094673.0>, fillcolor="#f1bb94"] ;
140 -> 142 ;
143 [label=<instrumentalness_% &le; 11.0<br/>squared_error = 1.2236406250045126e+17<br/>samples = 24<br/>value = 338485593.125>, fillcolor="#fdf3ed"] ;
127 -> 143 ;
144 [label=<liveness_% &le; 11.5<br/>squared_error = 1.1494955267479485e+17<br/>samples = 22<br/>value = 299216628.682>, fillcolor="#fdf5ef"] ;
143 -> 144 ;
145 [label=<speechiness_% &le; 3.5<br/>squared_error = 2.2795164571060352e+17<br/>samples = 8<br/>value = 460842866.0>, fillcolor="#fcefe6"] ;
144 -> 145 ;
146 [label=<energy_% &le; 61.5<br/>squared_error = 2.405539299884091e+17<br/>samples = 5<br/>value = 673529873.6>, fillcolor="#fae8db"] ;
145 -> 146 ;
147 [label=<liveness_% &le; 10.0<br/>squared_error = 4.012260316907402e+16<br/>samples = 3<br/>value = 397292048.333>, fillcolor="#fcf1ea"] ;
146 -> 147 ;
148 [label=<danceability_% &le; 50.0<br/>squared_error = 5620421956867200.0<br/>samples = 2<br/>value = 532154302.5>, fillcolor="#fbede3"] ;
147 -> 148 ;
149 [label=<squared_error = 0.0<br/>samples = 1<br/>value = 457184829.0>, fillcolor="#fcefe7"] ;
148 -> 149 ;
150 [label=<squared_error = 0.0<br/>samples = 1<br/>value = 607123776.0>, fillcolor="#fbeadf"] ;
148 -> 150 ;
151 [label=<squared_error = -16.0<br/>samples = 1<br/>value = 127567540.0>, fillcolor="#fefbf8"] ;
147 -> 151 ;
152 [label=<danceability_% &le; 50.0<br/>squared_error = 2.5504840981219635e+17<br/>samples = 2<br/>value = 1087886611.5>, fillcolor="#f7dac5"] ;
146 -> 152 ;
153 [label=<squared_error = 0.0<br/>samples = 1<br/>value = 1592909789.0>, fillcolor="#f4c9aa"] ;
152 -> 153 ;
154 [label=<squared_error = 128.0<br/>samples = 1<br/>value = 582863434.0>, fillcolor="#fbebe0"] ;
152 -> 154 ;
155 [label=<liveness_% &le; 10.5<br/>squared_error = 5900002128294337.0<br/>samples = 3<br/>value = 106364520.0>, fillcolor="#fefbf9"] ;
145 -> 155 ;
156 [label=<energy_% &le; 54.0<br/>squared_error = 365385518803600.0<br/>samples = 2<br/>value = 159545399.0>, fillcolor="#fefaf6"] ;
155 -> 156 ;
157 [label=<squared_error = 0.0<br/>samples = 1<br/>value = 178660459.0>, fillcolor="#fef9f5"] ;
156 -> 157 ;
158 [label=<squared_error = 0.0<br/>samples = 1<br/>value = 140430339.0>, fillcolor="#fefaf7"] ;
156 -> 158 ;
159 [label=<squared_error = -4.0<br/>samples = 1<br/>value = 2762.0>, fillcolor="#ffffff"] ;
155 -> 159 ;
160 [label=<valence_% &le; 59.0<br/>squared_error = 2.691950387996823e+16<br/>samples = 14<br/>value = 206858778.786>, fillcolor="#fef8f4"] ;
144 -> 160 ;
161 [label=<energy_% &le; 51.5<br/>squared_error = 9133408171118766.0<br/>samples = 10<br/>value = 131910259.9>, fillcolor="#fefbf8"] ;
160 -> 161 ;
162 [label=<energy_% &le; 41.5<br/>squared_error = 24278930770592.0<br/>samples = 2<br/>value = 288259626.5>, fillcolor="#fdf5f0"] ;
161 -> 162 ;
163 [label=<squared_error = 0.0<br/>samples = 1<br/>value = 293186992.0>, fillcolor="#fdf5ef"] ;
162 -> 163 ;
164 [label=<squared_error = 0.0<br/>samples = 1<br/>value = 283332261.0>, fillcolor="#fdf5f0"] ;
162 -> 164 ;
165 [label=<speechiness_% &le; 4.0<br/>squared_error = 3771589094886689.0<br/>samples = 8<br/>value = 92822918.25>, fillcolor="#fefcfa"] ;
161 -> 165 ;
166 [label=<energy_% &le; 65.5<br/>squared_error = 84510798820111.5<br/>samples = 4<br/>value = 48557827.5>, fillcolor="#fffdfc"] ;
165 -> 166 ;
167 [label=<liveness_% &le; 13.5<br/>squared_error = 30493716000.25<br/>samples = 2<br/>value = 39403553.5>, fillcolor="#fffefd"] ;
166 -> 167 ;
168 [label=<squared_error = 0.0<br/>samples = 1<br/>value = 39228929.0>, fillcolor="#fffefd"] ;
167 -> 168 ;
169 [label=<squared_error = 0.0<br/>samples = 1<br/>value = 39578178.0>, fillcolor="#fffefd"] ;
167 -> 169 ;
170 [label=<valence_% &le; 48.5<br/>squared_error = 1389638990070.5<br/>samples = 2<br/>value = 57712101.5>, fillcolor="#fffdfc"] ;
166 -> 170 ;
171 [label=<squared_error = 0.0<br/>samples = 1<br/>value = 56533272.0>, fillcolor="#fffdfc"] ;
170 -> 171 ;
172 [label=<squared_error = 0.0<br/>samples = 1<br/>value = 58890931.0>, fillcolor="#fffdfc"] ;
170 -> 172 ;
173 [label=<valence_% &le; 40.5<br/>squared_error = 3539870872741796.0<br/>samples = 4<br/>value = 137088009.0>, fillcolor="#fefaf8"] ;
165 -> 173 ;
174 [label=<energy_% &le; 60.5<br/>squared_error = 521261288975552.0<br/>samples = 3<br/>value = 169486182.333>, fillcolor="#fef9f6"] ;
173 -> 174 ;
175 [label=<squared_error = 0.0<br/>samples = 1<br/>value = 140003974.0>, fillcolor="#fefaf8"] ;
174 -> 175 ;
176 [label=<valence_% &le; 21.0<br/>squared_error = 129991477305780.0<br/>samples = 2<br/>value = 184227286.5>, fillcolor="#fef9f5"] ;
174 -> 176 ;
177 [label=<squared_error = 0.0<br/>samples = 1<br/>value = 195628667.0>, fillcolor="#fef8f5"] ;
176 -> 177 ;
178 [label=<squared_error = 4.0<br/>samples = 1<br/>value = 172825906.0>, fillcolor="#fef9f6"] ;
176 -> 178 ;
179 [label=<squared_error = -1.0<br/>samples = 1<br/>value = 39893489.0>, fillcolor="#fffefd"] ;
173 -> 179 ;
180 [label=<speechiness_% &le; 5.5<br/>squared_error = 2.2233538924422144e+16<br/>samples = 4<br/>value = 394230076.0>, fillcolor="#fcf2ea"] ;
160 -> 180 ;
181 [label=<liveness_% &le; 19.5<br/>squared_error = 1390515065758496.0<br/>samples = 3<br/>value = 478275009.667>, fillcolor="#fcefe5"] ;
180 -> 181 ;
182 [label=<squared_error = 0.0<br/>samples = 1<br/>value = 429504768.0>, fillcolor="#fcf0e8"] ;
181 -> 182 ;
183 [label=<liveness_% &le; 27.5<br/>squared_error = 301870244468960.0<br/>samples = 2<br/>value = 502660130.5>, fillcolor="#fbeee4"] ;
181 -> 183 ;
184 [label=<squared_error = 0.0<br/>samples = 1<br/>value = 485285717.0>, fillcolor="#fceee5"] ;
183 -> 184 ;
185 [label=<squared_error = 0.0<br/>samples = 1<br/>value = 520034544.0>, fillcolor="#fbede3"] ;
183 -> 185 ;
186 [label=<squared_error = 72.0<br/>samples = 1<br/>value = 142095275.0>, fillcolor="#fefaf7"] ;
180 -> 186 ;
187 [label=<acousticness_% &le; 43.5<br/>squared_error = 372863548605696.0<br/>samples = 2<br/>value = 770444202.0>, fillcolor="#fae5d6"] ;
143 -> 187 ;
188 [label=<squared_error = 0.0<br/>samples = 1<br/>value = 789753877.0>, fillcolor="#f9e4d5"] ;
187 -> 188 ;
189 [label=<squared_error = 0.0<br/>samples = 1<br/>value = 751134527.0>, fillcolor="#fae5d7"] ;
187 -> 189 ;
190 [label=<speechiness_% &le; 4.5<br/>squared_error = 3.820324729590266e+17<br/>samples = 83<br/>value = 657966934.867>, fillcolor="#fae9dc"] ;
126 -> 190 ;
191 [label=<valence_% &le; 42.5<br/>squared_error = 2.1175915256264493e+17<br/>samples = 59<br/>value = 546005845.932>, fillcolor="#fbece2"] ;
190 -> 191 ;
192 [label=<liveness_% &le; 10.5<br/>squared_error = 2.459279633206508e+17<br/>samples = 32<br/>value = 689723595.188>, fillcolor="#fae8da"] ;
191 -> 192 ;
193 [label=<acousticness_% &le; 10.5<br/>squared_error = 4.923903424054141e+16<br/>samples = 8<br/>value = 337954745.75>, fillcolor="#fdf4ed"] ;
192 -> 193 ;
194 [label=<danceability_% &le; 57.0<br/>squared_error = 3.289265811209197e+16<br/>samples = 4<br/>value = 498740144.75>, fillcolor="#fbeee4"] ;
193 -> 194 ;
195 [label=<danceability_% &le; 54.0<br/>squared_error = 1.2154748399779202e+16<br/>samples = 2<br/>value = 335341919.5>, fillcolor="#fdf4ed"] ;
194 -> 195 ;
196 [label=<squared_error = 0.0<br/>samples = 1<br/>value = 225093344.0>, fillcolor="#fdf7f3"] ;
195 -> 196 ;
197 [label=<squared_error = 0.0<br/>samples = 1<br/>value = 445590495.0>, fillcolor="#fcf0e7"] ;
195 -> 197 ;
198 [label=<speechiness_% &le; 3.5<br/>squared_error = 232607794705280.0<br/>samples = 2<br/>value = 662138370.0>, fillcolor="#fae8dc"] ;
194 -> 198 ;
199 [label=<squared_error = 0.0<br/>samples = 1<br/>value = 646886885.0>, fillcolor="#fae9dc"] ;
198 -> 199 ;
200 [label=<squared_error = 0.0<br/>samples = 1<br/>value = 677389855.0>, fillcolor="#fae8db"] ;
198 -> 200 ;
201 [label=<danceability_% &le; 54.5<br/>squared_error = 1.388152130581244e+16<br/>samples = 4<br/>value = 177169346.75>, fillcolor="#fef9f6"] ;
193 -> 201 ;
202 [label=<squared_error = 0.0<br/>samples = 1<br/>value = 32526947.0>, fillcolor="#fffefd"] ;
201 -> 202 ;
203 [label=<liveness_% &le; 8.5<br/>squared_error = 9210284494221624.0<br/>samples = 3<br/>value = 225383480.0>, fillcolor="#fdf7f3"] ;
201 -> 203 ;
204 [label=<squared_error = 0.0<br/>samples = 1<br/>value = 91473363.0>, fillcolor="#fefcfa"] ;
203 -> 204 ;
205 [label=<speechiness_% &le; 3.5<br/>squared_error = 366487165117184.0<br/>samples = 2<br/>value = 292338538.5>, fillcolor="#fdf5ef"] ;
203 -> 205 ;
206 [label=<squared_error = 0.0<br/>samples = 1<br/>value = 311482393.0>, fillcolor="#fdf4ee"] ;
205 -> 206 ;
207 [label=<squared_error = 0.0<br/>samples = 1<br/>value = 273194684.0>, fillcolor="#fdf6f0"] ;
205 -> 207 ;
208 [label=<valence_% &le; 27.5<br/>squared_error = 2.5649479593198387e+17<br/>samples = 24<br/>value = 806979878.333>, fillcolor="#f9e4d4"] ;
192 -> 208 ;
209 [label=<valence_% &le; 12.5<br/>squared_error = 1.4189373520889382e+17<br/>samples = 16<br/>value = 624374881.812>, fillcolor="#fbeade"] ;
208 -> 209 ;
210 [label=<valence_% &le; 9.5<br/>squared_error = 1.0851036287414784e+16<br/>samples = 2<br/>value = 1167124935.5>, fillcolor="#f7d7c1"] ;
209 -> 210 ;
211 [label=<squared_error = 0.0<br/>samples = 1<br/>value = 1062956628.0>, fillcolor="#f8dbc6"] ;
210 -> 211 ;
212 [label=<squared_error = 0.0<br/>samples = 1<br/>value = 1271293243.0>, fillcolor="#f6d4bb"] ;
210 -> 212 ;
213 [label=<acousticness_% &le; 5.5<br/>squared_error = 1.125198153359975e+17<br/>samples = 14<br/>value = 546839159.857>, fillcolor="#fbece2"] ;
209 -> 213 ;
214 [label=<valence_% &le; 14.5<br/>squared_error = 4.074308611200346e+16<br/>samples = 6<br/>value = 353988497.0>, fillcolor="#fdf3ec"] ;
213 -> 214 ;
215 [label=<squared_error = 0.0<br/>samples = 1<br/>value = 94186466.0>, fillcolor="#fefcfa"] ;
214 -> 215 ;
216 [label=<energy_% &le; 71.5<br/>squared_error = 3.2692400459590176e+16<br/>samples = 5<br/>value = 405948903.2>, fillcolor="#fcf1e9"] ;
214 -> 216 ;
217 [label=<speechiness_% &le; 3.5<br/>squared_error = 2843872383494272.0<br/>samples = 3<br/>value = 549522460.667>, fillcolor="#fbece2"] ;
216 -> 217 ;
218 [label=<squared_error = 0.0<br/>samples = 1<br/>value = 481697415.0>, fillcolor="#fcefe5"] ;
217 -> 218 ;
219 [label=<acousticness_% &le; 2.0<br/>squared_error = 815630960477248.0<br/>samples = 2<br/>value = 583434983.5>, fillcolor="#fbebe0"] ;
217 -> 219 ;
220 [label=<squared_error = 0.0<br/>samples = 1<br/>value = 611994237.0>, fillcolor="#fbeade"] ;
219 -> 220 ;
221 [label=<squared_error = -64.0<br/>samples = 1<br/>value = 554875730.0>, fillcolor="#fbece1"] ;
219 -> 221 ;
222 [label=<energy_% &le; 83.5<br/>squared_error = 165068560105776.0<br/>samples = 2<br/>value = 190588567.0>, fillcolor="#fef9f5"] ;
216 -> 222 ;
223 [label=<squared_error = 0.0<br/>samples = 1<br/>value = 203436468.0>, fillcolor="#fef8f4"] ;
222 -> 223 ;
224 [label=<squared_error = -4.0<br/>samples = 1<br/>value = 177740666.0>, fillcolor="#fef9f5"] ;
222 -> 224 ;
225 [label=<valence_% &le; 13.5<br/>squared_error = 1.1753867841316627e+17<br/>samples = 8<br/>value = 691477157.0>, fillcolor="#fae7da"] ;
213 -> 225 ;
226 [label=<squared_error = 0.0<br/>samples = 1<br/>value = 1406111294.0>, fillcolor="#f5cfb4"] ;
225 -> 226 ;
227 [label=<acousticness_% &le; 26.5<br/>squared_error = 5.095000802064129e+16<br/>samples = 7<br/>value = 589386566.0>, fillcolor="#fbebdf"] ;
225 -> 227 ;
228 [label=<acousticness_% &le; 9.0<br/>squared_error = 1.6977263126267904e+16<br/>samples = 2<br/>value = 853340681.0>, fillcolor="#f9e2d1"] ;
227 -> 228 ;
229 [label=<squared_error = 0.0<br/>samples = 1<br/>value = 983637508.0>, fillcolor="#f8deca"] ;
228 -> 229 ;
230 [label=<squared_error = 64.0<br/>samples = 1<br/>value = 723043854.0>, fillcolor="#fae6d8"] ;
228 -> 230 ;
231 [label=<energy_% &le; 45.5<br/>squared_error = 2.5522912076148096e+16<br/>samples = 5<br/>value = 483804920.0>, fillcolor="#fcefe5"] ;
227 -> 231 ;
232 [label=<danceability_% &le; 56.0<br/>squared_error = 8274528251800976.0<br/>samples = 3<br/>value = 367343143.0>, fillcolor="#fcf3eb"] ;
231 -> 232 ;
233 [label=<squared_error = 0.0<br/>samples = 1<br/>value = 240580042.0>, fillcolor="#fdf7f2"] ;
232 -> 233 ;
234 [label=<acousticness_% &le; 57.5<br/>squared_error = 360129546349312.0<br/>samples = 2<br/>value = 430724693.5>, fillcolor="#fcf0e8"] ;
232 -> 234 ;
235 [label=<squared_error = 0.0<br/>samples = 1<br/>value = 449701773.0>, fillcolor="#fcf0e7"] ;
234 -> 235 ;
236 [label=<squared_error = -32.0<br/>samples = 1<br/>value = 411747614.0>, fillcolor="#fcf1e9"] ;
234 -> 236 ;
237 [label=<valence_% &le; 23.5<br/>squared_error = 532942180177088.0<br/>samples = 2<br/>value = 658497585.5>, fillcolor="#fae9dc"] ;
231 -> 237 ;
238 [label=<squared_error = 0.0<br/>samples = 1<br/>value = 681583126.0>, fillcolor="#fae8db"] ;
237 -> 238 ;
239 [label=<squared_error = -64.0<br/>samples = 1<br/>value = 635412045.0>, fillcolor="#fbe9dd"] ;
237 -> 239 ;
240 [label=<acousticness_% &le; 12.0<br/>squared_error = 2.8562940885192294e+17<br/>samples = 8<br/>value = 1172189871.375>, fillcolor="#f7d7c0"] ;
208 -> 240 ;
241 [label=<danceability_% &le; 57.5<br/>squared_error = 8.915946707453837e+16<br/>samples = 5<br/>value = 861496292.6>, fillcolor="#f9e2d1"] ;
240 -> 241 ;
242 [label=<energy_% &le; 77.5<br/>squared_error = 8.744839265657472e+16<br/>samples = 3<br/>value = 706015567.667>, fillcolor="#fae7d9"] ;
241 -> 242 ;
243 [label=<danceability_% &le; 56.5<br/>squared_error = 9113268185706720.0<br/>samples = 2<br/>value = 504306767.0>, fillcolor="#fbeee4"] ;
242 -> 243 ;
244 [label=<squared_error = 0.0<br/>samples = 1<br/>value = 408843328.0>, fillcolor="#fcf1e9"] ;
243 -> 244 ;
245 [label=<squared_error = 0.0<br/>samples = 1<br/>value = 599770206.0>, fillcolor="#fbebdf"] ;
243 -> 245 ;
246 [label=<squared_error = 0.0<br/>samples = 1<br/>value = 1109433169.0>, fillcolor="#f7d9c4"] ;
242 -> 246 ;
247 [label=<speechiness_% &le; 3.5<br/>squared_error = 1072619354753280.0<br/>samples = 2<br/>value = 1094717380.0>, fillcolor="#f7dac4"] ;
241 -> 247 ;
248 [label=<squared_error = 0.0<br/>samples = 1<br/>value = 1127468248.0>, fillcolor="#f7d9c3"] ;
247 -> 248 ;
249 [label=<squared_error = 256.0<br/>samples = 1<br/>value = 1061966512.0>, fillcolor="#f8dbc6"] ;
247 -> 249 ;
250 [label=<instrumentalness_% &le; 0.5<br/>squared_error = 1.840548678497106e+17<br/>samples = 3<br/>value = 1690012502.667>, fillcolor="#f3c6a5"] ;
240 -> 250 ;
251 [label=<valence_% &le; 36.0<br/>squared_error = 3.4414004993434624e+16<br/>samples = 2<br/>value = 1973836566.0>, fillcolor="#f1bc95"] ;
250 -> 251 ;
252 [label=<squared_error = 0.0<br/>samples = 1<br/>value = 2159346687.0>, fillcolor="#f0b68c"] ;
251 -> 252 ;
253 [label=<squared_error = 0.0<br/>samples = 1<br/>value = 1788326445.0>, fillcolor="#f2c29f"] ;
251 -> 253 ;
254 [label=<squared_error = -512.0<br/>samples = 1<br/>value = 1122364376.0>, fillcolor="#f7d9c3"] ;
250 -> 254 ;
255 [label=<acousticness_% &le; 61.0<br/>squared_error = 1.1776999103394712e+17<br/>samples = 27<br/>value = 375673698.667>, fillcolor="#fcf2eb"] ;
191 -> 255 ;
256 [label=<valence_% &le; 56.5<br/>squared_error = 1.0808858606106062e+17<br/>samples = 26<br/>value = 352731726.769>, fillcolor="#fdf3ec"] ;
255 -> 256 ;
257 [label=<danceability_% &le; 58.5<br/>squared_error = 3.4865632803318176e+16<br/>samples = 15<br/>value = 241584751.933>, fillcolor="#fdf7f2"] ;
256 -> 257 ;
258 [label=<liveness_% &le; 21.0<br/>squared_error = 1.3662474421979224e+16<br/>samples = 12<br/>value = 181531132.083>, fillcolor="#fef9f5"] ;
257 -> 258 ;
259 [label=<danceability_% &le; 52.5<br/>squared_error = 1.2121899038331608e+16<br/>samples = 9<br/>value = 217885982.556>, fillcolor="#fdf8f3"] ;
258 -> 259 ;
260 [label=<squared_error = 0.0<br/>samples = 1<br/>value = 429829812.0>, fillcolor="#fcf0e8"] ;
259 -> 260 ;
261 [label=<acousticness_% &le; 55.0<br/>squared_error = 7320235143807712.0<br/>samples = 8<br/>value = 191393003.875>, fillcolor="#fef8f5"] ;
259 -> 261 ;
262 [label=<energy_% &le; 62.5<br/>squared_error = 3354170159682084.0<br/>samples = 7<br/>value = 166363489.143>, fillcolor="#fef9f6"] ;
261 -> 262 ;
263 [label=<energy_% &le; 54.0<br/>squared_error = 273528696922209.0<br/>samples = 2<br/>value = 81071743.0>, fillcolor="#fefcfb"] ;
262 -> 263 ;
264 [label=<squared_error = 0.0<br/>samples = 1<br/>value = 97610446.0>, fillcolor="#fefcfa"] ;
263 -> 264 ;
265 [label=<squared_error = 0.0<br/>samples = 1<br/>value = 64533040.0>, fillcolor="#fffdfc"] ;
263 -> 265 ;
266 [label=<danceability_% &le; 57.5<br/>squared_error = 512604847131384.0<br/>samples = 5<br/>value = 200480187.6>, fillcolor="#fef8f4"] ;
262 -> 266 ;
267 [label=<danceability_% &le; 55.0<br/>squared_error = 136223096348296.0<br/>samples = 4<br/>value = 190434960.25>, fillcolor="#fef9f5"] ;
266 -> 267 ;
268 [label=<liveness_% &le; 11.0<br/>squared_error = 1639164249104.0<br/>samples = 2<br/>value = 201941169.5>, fillcolor="#fef8f4"] ;
267 -> 268 ;
269 [label=<squared_error = 0.0<br/>samples = 1<br/>value = 200660871.0>, fillcolor="#fef8f4"] ;
268 -> 269 ;
270 [label=<squared_error = 0.0<br/>samples = 1<br/>value = 203221468.0>, fillcolor="#fef8f4"] ;
268 -> 270 ;
271 [label=<liveness_% &le; 12.0<br/>squared_error = 6021325837920.0<br/>samples = 2<br/>value = 178928751.0>, fillcolor="#fef9f5"] ;
267 -> 271 ;
272 [label=<squared_error = 0.0<br/>samples = 1<br/>value = 181382590.0>, fillcolor="#fef9f5"] ;
271 -> 272 ;
273 [label=<squared_error = -4.0<br/>samples = 1<br/>value = 176474912.0>, fillcolor="#fef9f6"] ;
271 -> 273 ;
274 [label=<squared_error = -16.0<br/>samples = 1<br/>value = 240661097.0>, fillcolor="#fdf7f2"] ;
266 -> 274 ;
275 [label=<squared_error = 48.0<br/>samples = 1<br/>value = 366599607.0>, fillcolor="#fcf3eb"] ;
261 -> 275 ;
276 [label=<valence_% &le; 45.5<br/>squared_error = 2424098738630463.0<br/>samples = 3<br/>value = 72466580.667>, fillcolor="#fefdfb"] ;
258 -> 276 ;
277 [label=<squared_error = 0.0<br/>samples = 1<br/>value = 135079152.0>, fillcolor="#fefaf8"] ;
276 -> 277 ;
278 [label=<acousticness_% &le; 4.5<br/>squared_error = 695897541216899.0<br/>samples = 2<br/>value = 41160295.0>, fillcolor="#fffefd"] ;
276 -> 278 ;
279 [label=<squared_error = 0.0<br/>samples = 1<br/>value = 14780425.0>, fillcolor="#fffefe"] ;
278 -> 279 ;
280 [label=<squared_error = 0.0<br/>samples = 1<br/>value = 67540165.0>, fillcolor="#fffdfb"] ;
278 -> 280 ;
281 [label=<acousticness_% &le; 1.0<br/>squared_error = 4.754952118690778e+16<br/>samples = 3<br/>value = 481799231.333>, fillcolor="#fcefe5"] ;
257 -> 281 ;
282 [label=<squared_error = 0.0<br/>samples = 1<br/>value = 786181836.0>, fillcolor="#f9e4d5"] ;
281 -> 282 ;
283 [label=<speechiness_% &le; 3.5<br/>squared_error = 1837704262613199.8<br/>samples = 2<br/>value = 329607929.0>, fillcolor="#fdf4ed"] ;
281 -> 283 ;
284 [label=<squared_error = 0.0<br/>samples = 1<br/>value = 372476382.0>, fillcolor="#fcf2eb"] ;
283 -> 284 ;
285 [label=<squared_error = -16.0<br/>samples = 1<br/>value = 286739476.0>, fillcolor="#fdf5f0"] ;
283 -> 285 ;
286 [label=<danceability_% &le; 54.5<br/>squared_error = 1.681205181404868e+17<br/>samples = 11<br/>value = 504295783.364>, fillcolor="#fbeee4"] ;
256 -> 286 ;
287 [label=<energy_% &le; 84.0<br/>squared_error = 1.9561688801662298e+17<br/>samples = 3<br/>value = 854972217.333>, fillcolor="#f9e2d1"] ;
286 -> 287 ;
288 [label=<acousticness_% &le; 20.0<br/>squared_error = 2.2426100728766656e+16<br/>samples = 2<br/>value = 554417601.5>, fillcolor="#fbece1"] ;
287 -> 288 ;
289 [label=<squared_error = 0.0<br/>samples = 1<br/>value = 704171068.0>, fillcolor="#fae7d9"] ;
288 -> 289 ;
290 [label=<squared_error = 64.0<br/>samples = 1<br/>value = 404664135.0>, fillcolor="#fcf1e9"] ;
288 -> 290 ;
291 [label=<squared_error = 256.0<br/>samples = 1<br/>value = 1456081449.0>, fillcolor="#f5cdb1"] ;
287 -> 291 ;
292 [label=<liveness_% &le; 9.5<br/>squared_error = 9.440093062012026e+16<br/>samples = 8<br/>value = 372792120.625>, fillcolor="#fcf2eb"] ;
286 -> 292 ;
293 [label=<valence_% &le; 79.0<br/>squared_error = 1.6655893228280774e+17<br/>samples = 2<br/>value = 707764530.0>, fillcolor="#fae7d9"] ;
292 -> 293 ;
294 [label=<squared_error = 0.0<br/>samples = 1<br/>value = 1115880852.0>, fillcolor="#f7d9c3"] ;
293 -> 294 ;
295 [label=<squared_error = 0.0<br/>samples = 1<br/>value = 299648208.0>, fillcolor="#fdf5ef"] ;
293 -> 295 ;
296 [label=<instrumentalness_% &le; 0.5<br/>squared_error = 2.047870115811655e+16<br/>samples = 6<br/>value = 261134650.833>, fillcolor="#fdf6f1"] ;
292 -> 296 ;
297 [label=<energy_% &le; 64.5<br/>squared_error = 1.447886172933444e+16<br/>samples = 5<br/>value = 220115184.6>, fillcolor="#fdf8f3"] ;
296 -> 297 ;
298 [label=<valence_% &le; 71.0<br/>squared_error = 1811785737450848.0<br/>samples = 2<br/>value = 362322218.5>, fillcolor="#fcf3ec"] ;
297 -> 298 ;
299 [label=<squared_error = 0.0<br/>samples = 1<br/>value = 404887295.0>, fillcolor="#fcf1e9"] ;
298 -> 299 ;
300 [label=<squared_error = 0.0<br/>samples = 1<br/>value = 319757142.0>, fillcolor="#fdf4ee"] ;
298 -> 300 ;
301 [label=<danceability_% &le; 56.5<br/>squared_error = 453756289883766.0<br/>samples = 3<br/>value = 125310495.333>, fillcolor="#fefbf8"] ;
297 -> 301 ;
302 [label=<squared_error = 0.0<br/>samples = 1<br/>value = 95623148.0>, fillcolor="#fefcfa"] ;
301 -> 302 ;
303 [label=<liveness_% &le; 21.5<br/>squared_error = 19630491058160.0<br/>samples = 2<br/>value = 140154169.0>, fillcolor="#fefaf8"] ;
301 -> 303 ;
304 [label=<squared_error = 0.0<br/>samples = 1<br/>value = 135723538.0>, fillcolor="#fefaf8"] ;
303 -> 304 ;
305 [label=<squared_error = -4.0<br/>samples = 1<br/>value = 144584800.0>, fillcolor="#fefaf7"] ;
303 -> 305 ;
306 [label=<squared_error = -64.0<br/>samples = 1<br/>value = 466231982.0>, fillcolor="#fcefe6"] ;
296 -> 306 ;
307 [label=<squared_error = 512.0<br/>samples = 1<br/>value = 972164968.0>, fillcolor="#f8decb"] ;
255 -> 307 ;
308 [label=<energy_% &le; 65.5<br/>squared_error = 6.940493634161206e+17<br/>samples = 24<br/>value = 933204611.833>, fillcolor="#f8dfcd"] ;
190 -> 308 ;
309 [label=<danceability_% &le; 57.5<br/>squared_error = 1.0771903137396822e+17<br/>samples = 8<br/>value = 408877086.125>, fillcolor="#fcf1e9"] ;
308 -> 309 ;
310 [label=<energy_% &le; 59.5<br/>squared_error = 1.2868517858718184e+16<br/>samples = 5<br/>value = 236016577.6>, fillcolor="#fdf7f2"] ;
309 -> 310 ;
311 [label=<acousticness_% &le; 64.0<br/>squared_error = 4089770285719252.0<br/>samples = 3<br/>value = 152757070.667>, fillcolor="#fefaf7"] ;
310 -> 311 ;
312 [label=<energy_% &le; 49.5<br/>squared_error = 1224325537862132.0<br/>samples = 2<br/>value = 112299974.5>, fillcolor="#fefbf9"] ;
311 -> 312 ;
313 [label=<squared_error = 0.0<br/>samples = 1<br/>value = 77309611.0>, fillcolor="#fefcfb"] ;
312 -> 313 ;
314 [label=<squared_error = 0.0<br/>samples = 1<br/>value = 147290338.0>, fillcolor="#fefaf7"] ;
312 -> 314 ;
315 [label=<squared_error = 0.0<br/>samples = 1<br/>value = 233671263.0>, fillcolor="#fdf7f3"] ;
311 -> 315 ;
316 [label=<acousticness_% &le; 26.5<br/>squared_error = 41093612784896.0<br/>samples = 2<br/>value = 360905838.0>, fillcolor="#fcf3ec"] ;
310 -> 316 ;
317 [label=<squared_error = 0.0<br/>samples = 1<br/>value = 354495408.0>, fillcolor="#fdf3ec"] ;
316 -> 317 ;
318 [label=<squared_error = -16.0<br/>samples = 1<br/>value = 367316268.0>, fillcolor="#fcf3eb"] ;
316 -> 318 ;
319 [label=<valence_% &le; 33.5<br/>squared_error = 1.3299986319928902e+17<br/>samples = 3<br/>value = 696977933.667>, fillcolor="#fae7da"] ;
309 -> 319 ;
320 [label=<squared_error = 0.0<br/>samples = 1<br/>value = 1200808494.0>, fillcolor="#f7d6bf"] ;
319 -> 320 ;
321 [label=<liveness_% &le; 18.0<br/>squared_error = 9115869654583040.0<br/>samples = 2<br/>value = 445062653.5>, fillcolor="#fcf0e7"] ;
319 -> 321 ;
322 [label=<squared_error = 0.0<br/>samples = 1<br/>value = 540539717.0>, fillcolor="#fbede2"] ;
321 -> 322 ;
323 [label=<squared_error = 32.0<br/>samples = 1<br/>value = 349585590.0>, fillcolor="#fdf3ec"] ;
321 -> 323 ;
324 [label=<liveness_% &le; 29.0<br/>squared_error = 7.810250137756301e+17<br/>samples = 16<br/>value = 1195368374.688>, fillcolor="#f7d6bf"] ;
308 -> 324 ;
325 [label=<energy_% &le; 69.0<br/>squared_error = 6.669213455837362e+17<br/>samples = 13<br/>value = 974304600.308>, fillcolor="#f8decb"] ;
324 -> 325 ;
326 [label=<squared_error = 0.0<br/>samples = 1<br/>value = 2135158446.0>, fillcolor="#f0b68d"] ;
325 -> 326 ;
327 [label=<acousticness_% &le; 6.5<br/>squared_error = 6.008414475506999e+17<br/>samples = 12<br/>value = 877566779.833>, fillcolor="#f9e1d0"] ;
325 -> 327 ;
328 [label=<valence_% &le; 46.5<br/>squared_error = 7.052759407727122e+17<br/>samples = 6<br/>value = 1335838198.333>, fillcolor="#f6d2b8"] ;
327 -> 328 ;
329 [label=<danceability_% &le; 53.0<br/>squared_error = 1.8661407330523334e+17<br/>samples = 3<br/>value = 633298971.667>, fillcolor="#fbe9dd"] ;
328 -> 329 ;
330 [label=<squared_error = 0.0<br/>samples = 1<br/>value = 1217120710.0>, fillcolor="#f6d6be"] ;
329 -> 330 ;
331 [label=<energy_% &le; 76.5<br/>squared_error = 2.428524334493352e+16<br/>samples = 2<br/>value = 341388102.5>, fillcolor="#fdf3ed"] ;
329 -> 331 ;
332 [label=<squared_error = 0.0<br/>samples = 1<br/>value = 497225336.0>, fillcolor="#fceee4"] ;
331 -> 332 ;
333 [label=<squared_error = 8.0<br/>samples = 1<br/>value = 185550869.0>, fillcolor="#fef9f5"] ;
331 -> 333 ;
334 [label=<danceability_% &le; 58.0<br/>squared_error = 2.3681507822939494e+17<br/>samples = 3<br/>value = 2038377425.0>, fillcolor="#f1ba92"] ;
328 -> 334 ;
335 [label=<energy_% &le; 84.0<br/>squared_error = 6.04073760737536e+16<br/>samples = 2<br/>value = 1724894176.5>, fillcolor="#f3c4a3"] ;
334 -> 335 ;
336 [label=<squared_error = 0.0<br/>samples = 1<br/>value = 1970673297.0>, fillcolor="#f1bc96"] ;
335 -> 336 ;
337 [label=<squared_error = 256.0<br/>samples = 1<br/>value = 1479115056.0>, fillcolor="#f5cdb0"] ;
335 -> 337 ;
338 [label=<squared_error = 0.0<br/>samples = 1<br/>value = 2665343922.0>, fillcolor="#eca471"] ;
334 -> 338 ;
339 [label=<acousticness_% &le; 42.0<br/>squared_error = 7.638156830068427e+16<br/>samples = 6<br/>value = 419295361.333>, fillcolor="#fcf1e9"] ;
327 -> 339 ;
340 [label=<energy_% &le; 79.0<br/>squared_error = 3.147766988535651e+16<br/>samples = 5<br/>value = 319145297.2>, fillcolor="#fdf4ee"] ;
339 -> 340 ;
341 [label=<energy_% &le; 74.5<br/>squared_error = 1784671756410976.0<br/>samples = 3<br/>value = 458327872.333>, fillcolor="#fcefe6"] ;
340 -> 341 ;
342 [label=<acousticness_% &le; 16.0<br/>squared_error = 389207971277664.0<br/>samples = 2<br/>value = 485943083.5>, fillcolor="#fceee5"] ;
341 -> 342 ;
343 [label=<squared_error = 0.0<br/>samples = 1<br/>value = 466214729.0>, fillcolor="#fcefe6"] ;
342 -> 343 ;
344 [label=<squared_error = -32.0<br/>samples = 1<br/>value = 505671438.0>, fillcolor="#fbeee4"] ;
342 -> 344 ;
345 [label=<squared_error = 32.0<br/>samples = 1<br/>value = 403097450.0>, fillcolor="#fcf1e9"] ;
341 -> 345 ;
346 [label=<liveness_% &le; 11.5<br/>squared_error = 3372957500977394.0<br/>samples = 2<br/>value = 110371434.5>, fillcolor="#fefbf9"] ;
340 -> 346 ;
347 [label=<squared_error = 0.0<br/>samples = 1<br/>value = 52294266.0>, fillcolor="#fffdfc"] ;
346 -> 347 ;
348 [label=<squared_error = 0.0<br/>samples = 1<br/>value = 168448603.0>, fillcolor="#fef9f6"] ;
346 -> 348 ;
349 [label=<squared_error = 0.0<br/>samples = 1<br/>value = 920045682.0>, fillcolor="#f9e0ce"] ;
339 -> 349 ;
350 [label=<energy_% &le; 86.0<br/>squared_error = 1.4605290845676237e+17<br/>samples = 3<br/>value = 2153311397.0>, fillcolor="#f0b68c"] ;
324 -> 350 ;
351 [label=<energy_% &le; 77.5<br/>squared_error = 9082887773818880.0<br/>samples = 2<br/>value = 2417884307.5>, fillcolor="#eead7e"] ;
350 -> 351 ;
352 [label=<squared_error = 0.0<br/>samples = 1<br/>value = 2513188493.0>, fillcolor="#edaa79"] ;
351 -> 352 ;
353 [label=<squared_error = 1024.0<br/>samples = 1<br/>value = 2322580122.0>, fillcolor="#efb083"] ;
351 -> 353 ;
354 [label=<squared_error = -1024.0<br/>samples = 1<br/>value = 1624165576.0>, fillcolor="#f4c8a8"] ;
350 -> 354 ;
355 [label=<instrumentalness_% &le; 15.0<br/>squared_error = 2.0381591717977907e+18<br/>samples = 2<br/>value = 1459600692.5>, fillcolor="#f5cdb1"] ;
125 -> 355 ;
356 [label=<squared_error = 0.0<br/>samples = 1<br/>value = 2887241814.0>, fillcolor="#eb9d65"] ;
355 -> 356 ;
357 [label=<squared_error = -361.0<br/>samples = 1<br/>value = 31959571.0>, fillcolor="#fffefd"] ;
355 -> 357 ;
358 [label=<valence_% &le; 12.5<br/>squared_error = 6.164723806144387e+16<br/>samples = 16<br/>value = 310557313.375>, fillcolor="#fdf4ee"] ;
124 -> 358 ;
359 [label=<danceability_% &le; 58.5<br/>squared_error = 1.5057957738867712e+16<br/>samples = 2<br/>value = 900476258.5>, fillcolor="#f9e0cf"] ;
358 -> 359 ;
360 [label=<squared_error = 0.0<br/>samples = 1<br/>value = 1023187129.0>, fillcolor="#f8dcc8"] ;
359 -> 360 ;
361 [label=<squared_error = 0.0<br/>samples = 1<br/>value = 777765388.0>, fillcolor="#fae5d5"] ;
359 -> 361 ;
362 [label=<valence_% &le; 73.0<br/>squared_error = 1.148581087203216e+16<br/>samples = 14<br/>value = 226283178.357>, fillcolor="#fdf7f3"] ;
358 -> 362 ;
363 [label=<liveness_% &le; 10.5<br/>squared_error = 7316762096017144.0<br/>samples = 13<br/>value = 207285861.462>, fillcolor="#fef8f4"] ;
362 -> 363 ;
364 [label=<danceability_% &le; 54.5<br/>squared_error = 1.057477987914028e+16<br/>samples = 5<br/>value = 259058116.6>, fillcolor="#fdf6f1"] ;
363 -> 364 ;
365 [label=<energy_% &le; 36.0<br/>squared_error = 114022716572160.0<br/>samples = 2<br/>value = 376892600.0>, fillcolor="#fcf2eb"] ;
364 -> 365 ;
366 [label=<squared_error = 0.0<br/>samples = 1<br/>value = 366214458.0>, fillcolor="#fcf3eb"] ;
365 -> 366 ;
367 [label=<squared_error = 0.0<br/>samples = 1<br/>value = 387570742.0>, fillcolor="#fcf2ea"] ;
365 -> 367 ;
368 [label=<energy_% &le; 37.0<br/>squared_error = 2120878567358052.0<br/>samples = 3<br/>value = 180501794.333>, fillcolor="#fef9f5"] ;
364 -> 368 ;
369 [label=<squared_error = 0.0<br/>samples = 1<br/>value = 244891912.0>, fillcolor="#fdf7f2"] ;
368 -> 369 ;
370 [label=<danceability_% &le; 58.5<br/>squared_error = 71752411191720.0<br/>samples = 2<br/>value = 148306735.5>, fillcolor="#fefaf7"] ;
368 -> 370 ;
371 [label=<squared_error = 0.0<br/>samples = 1<br/>value = 156777415.0>, fillcolor="#fefaf7"] ;
370 -> 371 ;
372 [label=<squared_error = 0.0<br/>samples = 1<br/>value = 139836056.0>, fillcolor="#fefaf8"] ;
370 -> 372 ;
373 [label=<instrumentalness_% &le; 47.0<br/>squared_error = 2558253854410076.0<br/>samples = 8<br/>value = 174928202.0>, fillcolor="#fef9f6"] ;
363 -> 373 ;
374 [label=<energy_% &le; 24.0<br/>squared_error = 1020979931575428.0<br/>samples = 7<br/>value = 159506063.857>, fillcolor="#fefaf6"] ;
373 -> 374 ;
375 [label=<squared_error = 0.0<br/>samples = 1<br/>value = 88092256.0>, fillcolor="#fefcfa"] ;
374 -> 375 ;
376 [label=<acousticness_% &le; 85.5<br/>squared_error = 199489818265824.0<br/>samples = 6<br/>value = 171408365.167>, fillcolor="#fef9f6"] ;
374 -> 376 ;
377 [label=<energy_% &le; 42.0<br/>squared_error = 10212015087064.0<br/>samples = 3<br/>value = 183935586.333>, fillcolor="#fef9f5"] ;
376 -> 377 ;
378 [label=<instrumentalness_% &le; 11.0<br/>squared_error = 1603015540508.0<br/>samples = 2<br/>value = 186073732.5>, fillcolor="#fef9f5"] ;
377 -> 378 ;
379 [label=<squared_error = 0.0<br/>samples = 1<br/>value = 184807630.0>, fillcolor="#fef9f5"] ;
378 -> 379 ;
380 [label=<squared_error = 4.0<br/>samples = 1<br/>value = 187339835.0>, fillcolor="#fef9f5"] ;
378 -> 380 ;
381 [label=<squared_error = -4.0<br/>samples = 1<br/>value = 179659294.0>, fillcolor="#fef9f5"] ;
377 -> 381 ;
382 [label=<speechiness_% &le; 3.5<br/>squared_error = 74905081127412.0<br/>samples = 3<br/>value = 158881144.0>, fillcolor="#fefaf7"] ;
376 -> 382 ;
383 [label=<squared_error = 0.0<br/>samples = 1<br/>value = 146789379.0>, fillcolor="#fefaf7"] ;
382 -> 383 ;
384 [label=<danceability_% &le; 51.0<br/>squared_error = 2699536079700.0<br/>samples = 2<br/>value = 164927026.5>, fillcolor="#fef9f6"] ;
382 -> 384 ;
385 [label=<squared_error = 0.0<br/>samples = 1<br/>value = 163284000.0>, fillcolor="#fef9f6"] ;
384 -> 385 ;
386 [label=<squared_error = 0.0<br/>samples = 1<br/>value = 166570053.0>, fillcolor="#fef9f6"] ;
384 -> 386 ;
387 [label=<squared_error = 0.0<br/>samples = 1<br/>value = 282883169.0>, fillcolor="#fdf5f0"] ;
373 -> 387 ;
388 [label=<squared_error = 160.0<br/>samples = 1<br/>value = 473248298.0>, fillcolor="#fcefe6"] ;
362 -> 388 ;
389 [label=<squared_error = -1536.0<br/>samples = 1<br/>value = 1661187319.0>, fillcolor="#f3c6a6"] ;
123 -> 389 ;
390 [label=<liveness_% &le; 62.0<br/>squared_error = 1.66221250269323e+17<br/>samples = 20<br/>value = 359974685.55>, fillcolor="#fcf3ec"] ;
8 -> 390 ;
391 [label=<danceability_% &le; 55.0<br/>squared_error = 3.571440654867949e+16<br/>samples = 15<br/>value = 206830113.933>, fillcolor="#fef8f4"] ;
390 -> 391 ;
392 [label=<danceability_% &le; 25.0<br/>squared_error = 1.3863615195339332e+16<br/>samples = 8<br/>value = 130102520.25>, fillcolor="#fefbf8"] ;
391 -> 392 ;
393 [label=<squared_error = 0.0<br/>samples = 1<br/>value = 395591396.0>, fillcolor="#fcf2ea"] ;
392 -> 393 ;
394 [label=<speechiness_% &le; 3.5<br/>squared_error = 4336483791081862.0<br/>samples = 7<br/>value = 92175538.0>, fillcolor="#fefcfa"] ;
392 -> 394 ;
395 [label=<energy_% &le; 63.5<br/>squared_error = 5643502690562500.0<br/>samples = 2<br/>value = 163227098.0>, fillcolor="#fef9f6"] ;
394 -> 395 ;
396 [label=<squared_error = 0.0<br/>samples = 1<br/>value = 238350348.0>, fillcolor="#fdf7f2"] ;
395 -> 396 ;
397 [label=<squared_error = 0.0<br/>samples = 1<br/>value = 88103848.0>, fillcolor="#fefcfa"] ;
395 -> 397 ;
398 [label=<energy_% &le; 44.5<br/>squared_error = 986614691366790.0<br/>samples = 5<br/>value = 63754914.0>, fillcolor="#fffdfc"] ;
394 -> 398 ;
399 [label=<squared_error = 0.0<br/>samples = 1<br/>value = 117747907.0>, fillcolor="#fefbf9"] ;
398 -> 399 ;
400 [label=<speechiness_% &le; 5.5<br/>squared_error = 322254835115347.0<br/>samples = 4<br/>value = 50256665.75>, fillcolor="#fffdfc"] ;
398 -> 400 ;
401 [label=<acousticness_% &le; 49.0<br/>squared_error = 84127589472389.25<br/>samples = 3<br/>value = 40962238.333>, fillcolor="#fffefd"] ;
400 -> 401 ;
402 [label=<valence_% &le; 40.0<br/>squared_error = 656410020.25<br/>samples = 2<br/>value = 34476594.5>, fillcolor="#fffefd"] ;
401 -> 402 ;
403 [label=<squared_error = 0.0<br/>samples = 1<br/>value = 34502215.0>, fillcolor="#fffefd"] ;
402 -> 403 ;
404 [label=<squared_error = 0.0<br/>samples = 1<br/>value = 34450974.0>, fillcolor="#fffefd"] ;
402 -> 404 ;
405 [label=<squared_error = 0.0<br/>samples = 1<br/>value = 53933526.0>, fillcolor="#fffdfc"] ;
401 -> 405 ;
406 [label=<squared_error = -1.0<br/>samples = 1<br/>value = 78139948.0>, fillcolor="#fefcfb"] ;
400 -> 406 ;
407 [label=<danceability_% &le; 58.5<br/>squared_error = 4.626929389347307e+16<br/>samples = 7<br/>value = 294518792.429>, fillcolor="#fdf5ef"] ;
391 -> 407 ;
408 [label=<danceability_% &le; 56.5<br/>squared_error = 1.510446321574688e+16<br/>samples = 2<br/>value = 603407251.5>, fillcolor="#fbeadf"] ;
407 -> 408 ;
409 [label=<squared_error = 0.0<br/>samples = 1<br/>value = 726307468.0>, fillcolor="#fae6d8"] ;
408 -> 409 ;
410 [label=<squared_error = 32.0<br/>samples = 1<br/>value = 480507035.0>, fillcolor="#fcefe5"] ;
408 -> 410 ;
411 [label=<acousticness_% &le; 8.5<br/>squared_error = 5304461281951432.0<br/>samples = 5<br/>value = 170963408.8>, fillcolor="#fef9f6"] ;
407 -> 411 ;
412 [label=<speechiness_% &le; 3.5<br/>squared_error = 3891276585734080.0<br/>samples = 4<br/>value = 194369818.25>, fillcolor="#fef8f5"] ;
411 -> 412 ;
413 [label=<squared_error = -2.0<br/>samples = 1<br/>value = 96180277.0>, fillcolor="#fefcfa"] ;
412 -> 413 ;
414 [label=<energy_% &le; 65.5<br/>squared_error = 903397220585232.0<br/>samples = 3<br/>value = 227099665.333>, fillcolor="#fdf7f3"] ;
412 -> 414 ;
415 [label=<squared_error = 0.0<br/>samples = 1<br/>value = 185408548.0>, fillcolor="#fef9f5"] ;
414 -> 415 ;
416 [label=<valence_% &le; 47.5<br/>squared_error = 51483882501528.0<br/>samples = 2<br/>value = 247945224.0>, fillcolor="#fdf7f2"] ;
414 -> 416 ;
417 [label=<squared_error = 0.0<br/>samples = 1<br/>value = 240769997.0>, fillcolor="#fdf7f2"] ;
416 -> 417 ;
418 [label=<squared_error = 0.0<br/>samples = 1<br/>value = 255120451.0>, fillcolor="#fdf6f1"] ;
416 -> 418 ;
419 [label=<squared_error = -25.0<br/>samples = 1<br/>value = 77337771.0>, fillcolor="#fefcfb"] ;
411 -> 419 ;
420 [label=<liveness_% &le; 74.5<br/>squared_error = 2.7630266364341146e+17<br/>samples = 5<br/>value = 819408400.4>, fillcolor="#f9e3d3"] ;
390 -> 420 ;
421 [label=<speechiness_% &le; 5.0<br/>squared_error = 6.986809994185088e+16<br/>samples = 3<br/>value = 1199379083.667>, fillcolor="#f7d6bf"] ;
420 -> 421 ;
422 [label=<valence_% &le; 17.0<br/>squared_error = 592041187286784.0<br/>samples = 2<br/>value = 1385756933.5>, fillcolor="#f5d0b5"] ;
421 -> 422 ;
423 [label=<squared_error = 0.0<br/>samples = 1<br/>value = 1410088830.0>, fillcolor="#f5cfb4"] ;
422 -> 423 ;
424 [label=<squared_error = 0.0<br/>samples = 1<br/>value = 1361425037.0>, fillcolor="#f5d1b6"] ;
422 -> 424 ;
425 [label=<squared_error = 0.0<br/>samples = 1<br/>value = 826623384.0>, fillcolor="#f9e3d3"] ;
421 -> 425 ;
426 [label=<energy_% &le; 54.0<br/>squared_error = 4.4538058662735896e+16<br/>samples = 2<br/>value = 249452375.5>, fillcolor="#fdf7f2"] ;
420 -> 426 ;
427 [label=<squared_error = 0.0<br/>samples = 1<br/>value = 38411956.0>, fillcolor="#fffefd"] ;
426 -> 427 ;
428 [label=<squared_error = 32.0<br/>samples = 1<br/>value = 460492795.0>, fillcolor="#fcefe6"] ;
426 -> 428 ;
429 [label=<liveness_% &le; 10.5<br/>squared_error = 6.302446727736753e+17<br/>samples = 13<br/>value = 984500411.077>, fillcolor="#f8deca"] ;
7 -> 429 ;
430 [label=<valence_% &le; 43.0<br/>squared_error = 2.905361035392778e+17<br/>samples = 3<br/>value = 1878811683.333>, fillcolor="#f2bf9b"] ;
429 -> 430 ;
431 [label=<speechiness_% &le; 4.0<br/>squared_error = 531384399806464.0<br/>samples = 2<br/>value = 2259719708.5>, fillcolor="#efb286"] ;
430 -> 431 ;
432 [label=<squared_error = 0.0<br/>samples = 1<br/>value = 2282771485.0>, fillcolor="#efb185"] ;
431 -> 432 ;
433 [label=<squared_error = 0.0<br/>samples = 1<br/>value = 2236667932.0>, fillcolor="#efb387"] ;
431 -> 433 ;
434 [label=<squared_error = -256.0<br/>samples = 1<br/>value = 1116995633.0>, fillcolor="#f7d9c3"] ;
430 -> 434 ;
435 [label=<liveness_% &le; 12.5<br/>squared_error = 4.2023810938688723e+17<br/>samples = 10<br/>value = 716207029.4>, fillcolor="#fae7d9"] ;
429 -> 435 ;
436 [label=<acousticness_% &le; 8.0<br/>squared_error = 1.0613131735573228e+16<br/>samples = 4<br/>value = 178727894.75>, fillcolor="#fef9f5"] ;
435 -> 436 ;
437 [label=<squared_error = 0.0<br/>samples = 1<br/>value = 343197054.0>, fillcolor="#fdf3ed"] ;
436 -> 437 ;
438 [label=<valence_% &le; 35.5<br/>squared_error = 2128573716585696.0<br/>samples = 3<br/>value = 123904841.667>, fillcolor="#fefbf8"] ;
436 -> 438 ;
439 [label=<speechiness_% &le; 5.5<br/>squared_error = 21315576317520.0<br/>samples = 2<br/>value = 91390511.5>, fillcolor="#fefcfa"] ;
438 -> 439 ;
440 [label=<squared_error = -2.0<br/>samples = 1<br/>value = 96007391.0>, fillcolor="#fefcfa"] ;
439 -> 440 ;
441 [label=<squared_error = 0.0<br/>samples = 1<br/>value = 86773632.0>, fillcolor="#fefcfa"] ;
439 -> 441 ;
442 [label=<squared_error = -4.0<br/>samples = 1<br/>value = 188933502.0>, fillcolor="#fef9f5"] ;
438 -> 442 ;
443 [label=<valence_% &le; 50.0<br/>squared_error = 3.723394053943045e+17<br/>samples = 6<br/>value = 1074526452.5>, fillcolor="#f7dac6"] ;
435 -> 443 ;
444 [label=<energy_% &le; 66.5<br/>squared_error = 2.3971348784542717e+17<br/>samples = 3<br/>value = 1511677386.333>, fillcolor="#f4ccae"] ;
443 -> 444 ;
445 [label=<squared_error = 0.0<br/>samples = 1<br/>value = 2204080728.0>, fillcolor="#f0b489"] ;
444 -> 445 ;
446 [label=<valence_% &le; 44.0<br/>squared_error = 3441104765184.0<br/>samples = 2<br/>value = 1165475715.5>, fillcolor="#f7d7c1"] ;
444 -> 446 ;
447 [label=<squared_error = 0.0<br/>samples = 1<br/>value = 1167330737.0>, fillcolor="#f7d7c1"] ;
446 -> 447 ;
448 [label=<squared_error = -256.0<br/>samples = 1<br/>value = 1163620694.0>, fillcolor="#f7d7c1"] ;
446 -> 448 ;
449 [label=<speechiness_% &le; 3.5<br/>squared_error = 1.2276344504047187e+17<br/>samples = 3<br/>value = 637375518.667>, fillcolor="#fbe9dd"] ;
443 -> 449 ;
450 [label=<squared_error = 0.0<br/>samples = 1<br/>value = 148469433.0>, fillcolor="#fefaf7"] ;
449 -> 450 ;
451 [label=<speechiness_% &le; 4.5<br/>squared_error = 4873297109281024.0<br/>samples = 2<br/>value = 881828561.5>, fillcolor="#f9e1d0"] ;
449 -> 451 ;
452 [label=<squared_error = 0.0<br/>samples = 1<br/>value = 812019557.0>, fillcolor="#f9e3d4"] ;
451 -> 452 ;
453 [label=<squared_error = 0.0<br/>samples = 1<br/>value = 951637566.0>, fillcolor="#f8dfcc"] ;
451 -> 453 ;
454 [label=<acousticness_% &le; 10.0<br/>squared_error = 1.1009964069930048e+18<br/>samples = 11<br/>value = 1033415367.909>, fillcolor="#f8dcc8"] ;
6 -> 454 ;
455 [label=<valence_% &le; 39.5<br/>squared_error = 1.6118228028845414e+18<br/>samples = 4<br/>value = 1793124453.5>, fillcolor="#f2c29f"] ;
454 -> 455 ;
456 [label=<squared_error = 0.0<br/>samples = 1<br/>value = 3703895074.0>, fillcolor="#e58139"] ;
455 -> 456 ;
457 [label=<liveness_% &le; 29.5<br/>squared_error = 5.26410686438964e+17<br/>samples = 3<br/>value = 1156200913.333>, fillcolor="#f7d8c1"] ;
455 -> 457 ;
458 [label=<danceability_% &le; 55.5<br/>squared_error = 445263300195328.0<br/>samples = 2<br/>value = 1669091664.0>, fillcolor="#f3c6a6"] ;
457 -> 458 ;
459 [label=<squared_error = 0.0<br/>samples = 1<br/>value = 1690192927.0>, fillcolor="#f3c6a5"] ;
458 -> 459 ;
460 [label=<squared_error = -512.0<br/>samples = 1<br/>value = 1647990401.0>, fillcolor="#f3c7a7"] ;
458 -> 460 ;
461 [label=<squared_error = 112.0<br/>samples = 1<br/>value = 130419412.0>, fillcolor="#fefbf8"] ;
457 -> 461 ;
462 [label=<acousticness_% &le; 65.5<br/>squared_error = 2.908313773388118e+17<br/>samples = 7<br/>value = 599295890.429>, fillcolor="#fbebdf"] ;
454 -> 462 ;
463 [label=<liveness_% &le; 27.0<br/>squared_error = 3.116734445216848e+16<br/>samples = 6<br/>value = 389487839.0>, fillcolor="#fcf2ea"] ;
462 -> 463 ;
464 [label=<danceability_% &le; 55.0<br/>squared_error = 3952440824091232.5<br/>samples = 4<br/>value = 276703832.75>, fillcolor="#fdf6f0"] ;
463 -> 464 ;
465 [label=<valence_% &le; 30.5<br/>squared_error = 1131475681782216.0<br/>samples = 3<br/>value = 244538457.667>, fillcolor="#fdf7f2"] ;
464 -> 465 ;
466 [label=<squared_error = 0.0<br/>samples = 1<br/>value = 202452860.0>, fillcolor="#fef8f4"] ;
465 -> 466 ;
467 [label=<energy_% &le; 70.0<br/>squared_error = 368815374452912.0<br/>samples = 2<br/>value = 265581256.5>, fillcolor="#fdf6f1"] ;
465 -> 467 ;
468 [label=<squared_error = 0.0<br/>samples = 1<br/>value = 284785823.0>, fillcolor="#fdf5f0"] ;
467 -> 468 ;
469 [label=<squared_error = 0.0<br/>samples = 1<br/>value = 246376690.0>, fillcolor="#fdf7f2"] ;
467 -> 469 ;
470 [label=<squared_error = 32.0<br/>samples = 1<br/>value = 373199958.0>, fillcolor="#fcf2eb"] ;
464 -> 470 ;
471 [label=<energy_% &le; 58.5<br/>squared_error = 9275759313522752.0<br/>samples = 2<br/>value = 615055851.5>, fillcolor="#fbeade"] ;
463 -> 471 ;
472 [label=<squared_error = -32.0<br/>samples = 1<br/>value = 518745108.0>, fillcolor="#fbede3"] ;
471 -> 472 ;
473 [label=<squared_error = 0.0<br/>samples = 1<br/>value = 711366595.0>, fillcolor="#fae7d9"] ;
471 -> 473 ;
474 [label=<squared_error = 0.0<br/>samples = 1<br/>value = 1858144199.0>, fillcolor="#f2c09c"] ;
462 -> 474 ;
475 [label=<valence_% &le; 24.5<br/>squared_error = 2.7064867803087523e+17<br/>samples = 91<br/>value = 444549195.549>, fillcolor="#fcf0e7"] ;
5 -> 475 ;
476 [label=<energy_% &le; 58.5<br/>squared_error = 5.812389216356353e+17<br/>samples = 15<br/>value = 830700234.867>, fillcolor="#f9e3d3"] ;
475 -> 476 ;
477 [label=<acousticness_% &le; 23.5<br/>squared_error = 2.912540321792563e+16<br/>samples = 2<br/>value = 2118033448.0>, fillcolor="#f0b78e"] ;
476 -> 477 ;
478 [label=<squared_error = 0.0<br/>samples = 1<br/>value = 1947371785.0>, fillcolor="#f1bd97"] ;
477 -> 478 ;
479 [label=<squared_error = 1024.0<br/>samples = 1<br/>value = 2288695111.0>, fillcolor="#efb185"] ;
477 -> 479 ;
480 [label=<energy_% &le; 89.5<br/>squared_error = 3.719971904508702e+17<br/>samples = 13<br/>value = 632648971.308>, fillcolor="#fbe9dd"] ;
476 -> 480 ;
481 [label=<liveness_% &le; 8.5<br/>squared_error = 2.7857588958976643e+17<br/>samples = 12<br/>value = 534818243.583>, fillcolor="#fbede2"] ;
480 -> 481 ;
482 [label=<squared_error = 0.0<br/>samples = 1<br/>value = 1695712020.0>, fillcolor="#f3c5a4"] ;
481 -> 482 ;
483 [label=<acousticness_% &le; 51.5<br/>squared_error = 1.702473149121799e+17<br/>samples = 11<br/>value = 429282445.727>, fillcolor="#fcf0e8"] ;
481 -> 483 ;
484 [label=<liveness_% &le; 31.0<br/>squared_error = 1.1112910810314072e+16<br/>samples = 9<br/>value = 240101365.889>, fillcolor="#fdf7f2"] ;
483 -> 484 ;
485 [label=<acousticness_% &le; 20.0<br/>squared_error = 7631548189925232.0<br/>samples = 8<br/>value = 216838432.875>, fillcolor="#fdf8f3"] ;
484 -> 485 ;
486 [label=<danceability_% &le; 40.5<br/>squared_error = 4893607386489176.0<br/>samples = 6<br/>value = 182051172.833>, fillcolor="#fef9f5"] ;
485 -> 486 ;
487 [label=<valence_% &le; 12.0<br/>squared_error = 16524448575752.0<br/>samples = 2<br/>value = 248806164.5>, fillcolor="#fdf7f2"] ;
486 -> 487 ;
488 [label=<squared_error = 0.0<br/>samples = 1<br/>value = 252871192.0>, fillcolor="#fdf6f1"] ;
487 -> 488 ;
489 [label=<squared_error = 0.0<br/>samples = 1<br/>value = 244741137.0>, fillcolor="#fdf7f2"] ;
487 -> 489 ;
490 [label=<acousticness_% &le; 6.0<br/>squared_error = 3989977171133336.0<br/>samples = 4<br/>value = 148673677.0>, fillcolor="#fefaf7"] ;
486 -> 490 ;
491 [label=<squared_error = 0.0<br/>samples = 1<br/>value = 51985779.0>, fillcolor="#fffdfc"] ;
490 -> 491 ;
492 [label=<energy_% &le; 66.5<br/>squared_error = 1165058619440704.0<br/>samples = 3<br/>value = 180902976.333>, fillcolor="#fef9f5"] ;
490 -> 492 ;
493 [label=<liveness_% &le; 19.0<br/>squared_error = 80299144638440.0<br/>samples = 2<br/>value = 204477601.0>, fillcolor="#fef8f4"] ;
492 -> 493 ;
494 [label=<squared_error = 0.0<br/>samples = 1<br/>value = 195516622.0>, fillcolor="#fef8f5"] ;
493 -> 494 ;
495 [label=<squared_error = 0.0<br/>samples = 1<br/>value = 213438580.0>, fillcolor="#fef8f4"] ;
493 -> 495 ;
496 [label=<squared_error = 0.0<br/>samples = 1<br/>value = 133753727.0>, fillcolor="#fefaf8"] ;
492 -> 496 ;
497 [label=<danceability_% &le; 50.5<br/>squared_error = 1323529065754928.2<br/>samples = 2<br/>value = 321200213.0>, fillcolor="#fdf4ee"] ;
485 -> 497 ;
498 [label=<squared_error = 0.0<br/>samples = 1<br/>value = 284819874.0>, fillcolor="#fdf5f0"] ;
497 -> 498 ;
499 [label=<squared_error = 0.0<br/>samples = 1<br/>value = 357580552.0>, fillcolor="#fcf3ec"] ;
497 -> 499 ;
500 [label=<squared_error = -192.0<br/>samples = 1<br/>value = 426204830.0>, fillcolor="#fcf1e8"] ;
484 -> 500 ;
501 [label=<speechiness_% &le; 20.0<br/>squared_error = 562479392355584.0<br/>samples = 2<br/>value = 1280597305.0>, fillcolor="#f6d3bb"] ;
483 -> 501 ;
502 [label=<squared_error = 0.0<br/>samples = 1<br/>value = 1256880657.0>, fillcolor="#f6d4bc"] ;
501 -> 502 ;
503 [label=<squared_error = 0.0<br/>samples = 1<br/>value = 1304313953.0>, fillcolor="#f6d3b9"] ;
501 -> 503 ;
504 [label=<squared_error = 512.0<br/>samples = 1<br/>value = 1806617704.0>, fillcolor="#f2c29e"] ;
480 -> 504 ;
505 [label=<valence_% &le; 75.0<br/>squared_error = 1.7410927168380246e+17<br/>samples = 76<br/>value = 368335174.632>, fillcolor="#fcf2eb"] ;
475 -> 505 ;
506 [label=<speechiness_% &le; 43.5<br/>squared_error = 1.466993337781125e+17<br/>samples = 71<br/>value = 338575073.845>, fillcolor="#fdf3ed"] ;
505 -> 506 ;
507 [label=<speechiness_% &le; 18.5<br/>squared_error = 1.0464473512411427e+17<br/>samples = 68<br/>value = 318259441.809>, fillcolor="#fdf4ee"] ;
506 -> 507 ;
508 [label=<speechiness_% &le; 17.5<br/>squared_error = 1.467572100968771e+17<br/>samples = 38<br/>value = 410708899.316>, fillcolor="#fcf1e9"] ;
507 -> 508 ;
509 [label=<liveness_% &le; 11.5<br/>squared_error = 8.816009602508525e+16<br/>samples = 35<br/>value = 362984036.143>, fillcolor="#fcf3ec"] ;
508 -> 509 ;
510 [label=<valence_% &le; 66.0<br/>squared_error = 9.310934882965536e+16<br/>samples = 15<br/>value = 496088230.6>, fillcolor="#fceee4"] ;
509 -> 510 ;
511 [label=<valence_% &le; 56.5<br/>squared_error = 8.392475189465773e+16<br/>samples = 14<br/>value = 528579526.571>, fillcolor="#fbede3"] ;
510 -> 511 ;
512 [label=<valence_% &le; 53.5<br/>squared_error = 6.498700078492979e+16<br/>samples = 12<br/>value = 462680938.667>, fillcolor="#fcefe6"] ;
511 -> 512 ;
513 [label=<energy_% &le; 89.0<br/>squared_error = 5.333761976958666e+16<br/>samples = 11<br/>value = 500931527.091>, fillcolor="#fbeee4"] ;
512 -> 513 ;
514 [label=<danceability_% &le; 47.5<br/>squared_error = 3.832324717792326e+16<br/>samples = 9<br/>value = 570671637.333>, fillcolor="#fbece0"] ;
513 -> 514 ;
515 [label=<acousticness_% &le; 9.0<br/>squared_error = 5.127435941070317e+16<br/>samples = 3<br/>value = 737196277.333>, fillcolor="#fae6d8"] ;
514 -> 515 ;
516 [label=<squared_error = 0.0<br/>samples = 1<br/>value = 421135627.0>, fillcolor="#fcf1e8"] ;
515 -> 516 ;
517 [label=<valence_% &le; 31.5<br/>squared_error = 1990788099207680.0<br/>samples = 2<br/>value = 895226602.5>, fillcolor="#f9e1cf"] ;
515 -> 517 ;
518 [label=<squared_error = 0.0<br/>samples = 1<br/>value = 939844851.0>, fillcolor="#f8dfcd"] ;
517 -> 518 ;
519 [label=<squared_error = 0.0<br/>samples = 1<br/>value = 850608354.0>, fillcolor="#f9e2d2"] ;
517 -> 519 ;
520 [label=<liveness_% &le; 10.5<br/>squared_error = 1.1049849266186144e+16<br/>samples = 6<br/>value = 487409317.333>, fillcolor="#fceee5"] ;
514 -> 520 ;
521 [label=<energy_% &le; 44.5<br/>squared_error = 7398617351320127.0<br/>samples = 4<br/>value = 542014812.25>, fillcolor="#fbede2"] ;
520 -> 521 ;
522 [label=<squared_error = 0.0<br/>samples = 1<br/>value = 405136812.0>, fillcolor="#fcf1e9"] ;
521 -> 522 ;
523 [label=<valence_% &le; 32.5<br/>squared_error = 1537895600676160.0<br/>samples = 3<br/>value = 587640812.333>, fillcolor="#fbebe0"] ;
521 -> 523 ;
524 [label=<squared_error = 0.0<br/>samples = 1<br/>value = 532336353.0>, fillcolor="#fbede3"] ;
523 -> 524 ;
525 [label=<acousticness_% &le; 19.0<br/>squared_error = 12905984400064.0<br/>samples = 2<br/>value = 615293042.0>, fillcolor="#fbeade"] ;
523 -> 525 ;
526 [label=<squared_error = 0.0<br/>samples = 1<br/>value = 618885532.0>, fillcolor="#fbeade"] ;
525 -> 526 ;
527 [label=<squared_error = -64.0<br/>samples = 1<br/>value = 611700552.0>, fillcolor="#fbeade"] ;
525 -> 527 ;
528 [label=<speechiness_% &le; 14.5<br/>squared_error = 461752645353456.0<br/>samples = 2<br/>value = 378198327.5>, fillcolor="#fcf2eb"] ;
520 -> 528 ;
529 [label=<squared_error = 0.0<br/>samples = 1<br/>value = 399686758.0>, fillcolor="#fcf1ea"] ;
528 -> 529 ;
530 [label=<squared_error = 16.0<br/>samples = 1<br/>value = 356709897.0>, fillcolor="#fcf3ec"] ;
528 -> 530 ;
531 [label=<energy_% &le; 92.0<br/>squared_error = 526142760590992.0<br/>samples = 2<br/>value = 187101031.0>, fillcolor="#fef9f5"] ;
513 -> 531 ;
532 [label=<squared_error = 0.0<br/>samples = 1<br/>value = 164163229.0>, fillcolor="#fef9f6"] ;
531 -> 532 ;
533 [label=<squared_error = 0.0<br/>samples = 1<br/>value = 210038833.0>, fillcolor="#fef8f4"] ;
531 -> 533 ;
534 [label=<squared_error = 316.0<br/>samples = 1<br/>value = 41924466.0>, fillcolor="#fffefd"] ;
512 -> 534 ;
535 [label=<speechiness_% &le; 12.5<br/>squared_error = 1.5161055263676802e+16<br/>samples = 2<br/>value = 923971054.0>, fillcolor="#f9e0ce"] ;
511 -> 535 ;
536 [label=<squared_error = 0.0<br/>samples = 1<br/>value = 1047101291.0>, fillcolor="#f8dbc7"] ;
535 -> 536 ;
537 [label=<squared_error = -128.0<br/>samples = 1<br/>value = 800840817.0>, fillcolor="#f9e4d4"] ;
535 -> 537 ;
538 [label=<squared_error = -2161.0<br/>samples = 1<br/>value = 41210087.0>, fillcolor="#fffefd"] ;
510 -> 538 ;
539 [label=<danceability_% &le; 43.5<br/>squared_error = 6.119495278267121e+16<br/>samples = 20<br/>value = 263155890.3>, fillcolor="#fdf6f1"] ;
509 -> 539 ;
540 [label=<instrumentalness_% &le; 13.5<br/>squared_error = 2.542881768664896e+16<br/>samples = 2<br/>value = 723367026.0>, fillcolor="#fae6d8"] ;
539 -> 540 ;
541 [label=<squared_error = 0.0<br/>samples = 1<br/>value = 882831184.0>, fillcolor="#f9e1d0"] ;
540 -> 541 ;
542 [label=<squared_error = 0.0<br/>samples = 1<br/>value = 563902868.0>, fillcolor="#fbece1"] ;
540 -> 542 ;
543 [label=<liveness_% &le; 40.5<br/>squared_error = 3.902152465478669e+16<br/>samples = 18<br/>value = 212021319.667>, fillcolor="#fef8f4"] ;
539 -> 543 ;
544 [label=<valence_% &le; 32.5<br/>squared_error = 2.0483226848279308e+16<br/>samples = 16<br/>value = 178533272.25>, fillcolor="#fef9f5"] ;
543 -> 544 ;
545 [label=<energy_% &le; 83.5<br/>squared_error = 4.375050698746438e+16<br/>samples = 4<br/>value = 312911881.75>, fillcolor="#fdf4ee"] ;
544 -> 545 ;
546 [label=<speechiness_% &le; 13.5<br/>squared_error = 2.446736708576927e+16<br/>samples = 3<br/>value = 220897423.333>, fillcolor="#fdf7f3"] ;
545 -> 546 ;
547 [label=<instrumentalness_% &le; 0.5<br/>squared_error = 6560563741252248.0<br/>samples = 2<br/>value = 120663552.0>, fillcolor="#fefbf9"] ;
546 -> 547 ;
548 [label=<squared_error = 0.0<br/>samples = 1<br/>value = 201660859.0>, fillcolor="#fef8f4"] ;
547 -> 548 ;
549 [label=<squared_error = -1.0<br/>samples = 1<br/>value = 39666245.0>, fillcolor="#fffefd"] ;
547 -> 549 ;
550 [label=<squared_error = 0.0<br/>samples = 1<br/>value = 421365166.0>, fillcolor="#fcf1e8"] ;
546 -> 550 ;
551 [label=<squared_error = -64.0<br/>samples = 1<br/>value = 588955257.0>, fillcolor="#fbebe0"] ;
545 -> 551 ;
552 [label=<acousticness_% &le; 55.0<br/>squared_error = 4701862050260508.0<br/>samples = 12<br/>value = 133740402.417>, fillcolor="#fefaf8"] ;
544 -> 552 ;
553 [label=<liveness_% &le; 25.5<br/>squared_error = 3977094542419132.0<br/>samples = 10<br/>value = 150398018.3>, fillcolor="#fefaf7"] ;
552 -> 553 ;
554 [label=<liveness_% &le; 18.0<br/>squared_error = 3209548104147900.0<br/>samples = 8<br/>value = 132277187.0>, fillcolor="#fefbf8"] ;
553 -> 554 ;
555 [label=<valence_% &le; 45.0<br/>squared_error = 1105666364809308.0<br/>samples = 5<br/>value = 167993986.0>, fillcolor="#fef9f6"] ;
554 -> 555 ;
556 [label=<energy_% &le; 72.0<br/>squared_error = 3735031660128.0<br/>samples = 2<br/>value = 133678798.0>, fillcolor="#fefaf8"] ;
555 -> 556 ;
557 [label=<squared_error = 0.0<br/>samples = 1<br/>value = 131746175.0>, fillcolor="#fefbf8"] ;
556 -> 557 ;
558 [label=<squared_error = 0.0<br/>samples = 1<br/>value = 135611421.0>, fillcolor="#fefaf8"] ;
556 -> 558 ;
559 [label=<valence_% &le; 58.0<br/>squared_error = 531918223047272.0<br/>samples = 3<br/>value = 190870778.0>, fillcolor="#fef9f5"] ;
555 -> 559 ;
560 [label=<acousticness_% &le; 21.5<br/>squared_error = 8166540736656.0<br/>samples = 2<br/>value = 174646200.0>, fillcolor="#fef9f6"] ;
559 -> 560 ;
561 [label=<squared_error = 0.0<br/>samples = 1<br/>value = 171788484.0>, fillcolor="#fef9f6"] ;
560 -> 561 ;
562 [label=<squared_error = 0.0<br/>samples = 1<br/>value = 177503916.0>, fillcolor="#fef9f6"] ;
560 -> 562 ;
563 [label=<squared_error = -8.0<br/>samples = 1<br/>value = 223319934.0>, fillcolor="#fdf7f3"] ;
559 -> 563 ;
564 [label=<liveness_% &le; 21.0<br/>squared_error = 1046285532794878.0<br/>samples = 3<br/>value = 72749188.667>, fillcolor="#fefdfb"] ;
554 -> 564 ;
565 [label=<squared_error = 0.0<br/>samples = 1<br/>value = 30343206.0>, fillcolor="#fffefd"] ;
564 -> 565 ;
566 [label=<energy_% &le; 69.5<br/>squared_error = 220727774748100.0<br/>samples = 2<br/>value = 93952180.0>, fillcolor="#fefcfa"] ;
564 -> 566 ;
567 [label=<squared_error = 0.0<br/>samples = 1<br/>value = 108809090.0>, fillcolor="#fefbf9"] ;
566 -> 567 ;
568 [label=<squared_error = 0.0<br/>samples = 1<br/>value = 79095270.0>, fillcolor="#fefcfb"] ;
566 -> 568 ;
569 [label=<danceability_% &le; 55.0<br/>squared_error = 479989755442896.0<br/>samples = 2<br/>value = 222881343.5>, fillcolor="#fdf7f3"] ;
553 -> 569 ;
570 [label=<squared_error = 0.0<br/>samples = 1<br/>value = 200972675.0>, fillcolor="#fef8f4"] ;
569 -> 570 ;
571 [label=<squared_error = 8.0<br/>samples = 1<br/>value = 244790012.0>, fillcolor="#fdf7f2"] ;
569 -> 571 ;
572 [label=<valence_% &le; 41.5<br/>squared_error = 1414581967063.0<br/>samples = 2<br/>value = 50452323.0>, fillcolor="#fffdfc"] ;
552 -> 572 ;
573 [label=<squared_error = 0.0<br/>samples = 1<br/>value = 49262961.0>, fillcolor="#fffdfc"] ;
572 -> 573 ;
574 [label=<squared_error = 0.0<br/>samples = 1<br/>value = 51641685.0>, fillcolor="#fffdfc"] ;
572 -> 574 ;
575 [label=<valence_% &le; 58.5<br/>squared_error = 1.0658355608261971e+17<br/>samples = 2<br/>value = 479925699.0>, fillcolor="#fcefe5"] ;
543 -> 575 ;
576 [label=<squared_error = 0.0<br/>samples = 1<br/>value = 806397070.0>, fillcolor="#f9e4d4"] ;
575 -> 576 ;
577 [label=<squared_error = -64.0<br/>samples = 1<br/>value = 153454328.0>, fillcolor="#fefaf7"] ;
575 -> 577 ;
578 [label=<valence_% &le; 67.0<br/>squared_error = 4.938022952362373e+17<br/>samples = 3<br/>value = 967498969.667>, fillcolor="#f8decb"] ;
508 -> 578 ;
579 [label=<energy_% &le; 58.0<br/>squared_error = 1.0653722438416403e+17<br/>samples = 2<br/>value = 507728658.0>, fillcolor="#fbeee4"] ;
578 -> 579 ;
580 [label=<squared_error = 0.0<br/>samples = 1<br/>value = 181328253.0>, fillcolor="#fef9f5"] ;
579 -> 580 ;
581 [label=<squared_error = 0.0<br/>samples = 1<br/>value = 834129063.0>, fillcolor="#f9e3d2"] ;
579 -> 581 ;
582 [label=<squared_error = 0.0<br/>samples = 1<br/>value = 1887039593.0>, fillcolor="#f2bf9a"] ;
578 -> 582 ;
583 [label=<instrumentalness_% &le; 4.5<br/>squared_error = 2.6763160972425096e+16<br/>samples = 30<br/>value = 201156795.633>, fillcolor="#fef8f4"] ;
507 -> 583 ;
584 [label=<energy_% &le; 47.5<br/>squared_error = 2.5151200635388784e+16<br/>samples = 29<br/>value = 191964719.414>, fillcolor="#fef8f5"] ;
583 -> 584 ;
585 [label=<valence_% &le; 45.0<br/>squared_error = 571966223452319.5<br/>samples = 4<br/>value = 56621786.5>, fillcolor="#fffdfc"] ;
584 -> 585 ;
586 [label=<squared_error = 0.0<br/>samples = 1<br/>value = 93587665.0>, fillcolor="#fefcfa"] ;
585 -> 586 ;
587 [label=<danceability_% &le; 52.5<br/>squared_error = 155298887591198.03<br/>samples = 3<br/>value = 44299827.0>, fillcolor="#fffdfd"] ;
585 -> 587 ;
588 [label=<energy_% &le; 37.5<br/>squared_error = 4832817466689.0<br/>samples = 2<br/>value = 35579821.0>, fillcolor="#fffefd"] ;
587 -> 588 ;
589 [label=<squared_error = 0.0<br/>samples = 1<br/>value = 33381454.0>, fillcolor="#fffefd"] ;
588 -> 589 ;
590 [label=<squared_error = 0.0<br/>samples = 1<br/>value = 37778188.0>, fillcolor="#fffefd"] ;
588 -> 590 ;
591 [label=<squared_error = 0.0<br/>samples = 1<br/>value = 61739839.0>, fillcolor="#fffdfc"] ;
587 -> 591 ;
592 [label=<liveness_% &le; 35.5<br/>squared_error = 2.568411126000892e+16<br/>samples = 25<br/>value = 213619588.68>, fillcolor="#fef8f4"] ;
584 -> 592 ;
593 [label=<acousticness_% &le; 27.5<br/>squared_error = 1.575692192585906e+16<br/>samples = 21<br/>value = 183881310.095>, fillcolor="#fef9f5"] ;
592 -> 593 ;
594 [label=<acousticness_% &le; 9.5<br/>squared_error = 5359627654812212.0<br/>samples = 14<br/>value = 154540788.5>, fillcolor="#fefaf7"] ;
593 -> 594 ;
595 [label=<valence_% &le; 38.5<br/>squared_error = 4443241498902616.0<br/>samples = 4<br/>value = 223356494.5>, fillcolor="#fdf7f3"] ;
594 -> 595 ;
596 [label=<valence_% &le; 33.0<br/>squared_error = 596934107095224.1<br/>samples = 2<br/>value = 159876518.0>, fillcolor="#fefaf6"] ;
595 -> 596 ;
597 [label=<squared_error = 0.0<br/>samples = 1<br/>value = 135444283.0>, fillcolor="#fefaf8"] ;
596 -> 597 ;
598 [label=<squared_error = 0.0<br/>samples = 1<br/>value = 184308753.0>, fillcolor="#fef9f5"] ;
596 -> 598 ;
599 [label=<valence_% &le; 53.5<br/>squared_error = 230134057828896.0<br/>samples = 2<br/>value = 286836471.0>, fillcolor="#fdf5f0"] ;
595 -> 599 ;
600 [label=<squared_error = 0.0<br/>samples = 1<br/>value = 271666301.0>, fillcolor="#fdf6f0"] ;
599 -> 600 ;
601 [label=<squared_error = 16.0<br/>samples = 1<br/>value = 302006641.0>, fillcolor="#fdf5ef"] ;
599 -> 601 ;
602 [label=<danceability_% &le; 57.5<br/>squared_error = 3074245337500128.5<br/>samples = 10<br/>value = 127014506.1>, fillcolor="#fefbf8"] ;
594 -> 602 ;
603 [label=<danceability_% &le; 49.5<br/>squared_error = 1563207214418408.0<br/>samples = 7<br/>value = 98247994.571>, fillcolor="#fefcfa"] ;
602 -> 603 ;
604 [label=<acousticness_% &le; 10.5<br/>squared_error = 866361506114033.0<br/>samples = 3<br/>value = 67235965.667>, fillcolor="#fffdfb"] ;
603 -> 604 ;
605 [label=<squared_error = 0.0<br/>samples = 1<br/>value = 107255472.0>, fillcolor="#fefbf9"] ;
604 -> 605 ;
606 [label=<acousticness_% &le; 17.5<br/>squared_error = 98371593798269.75<br/>samples = 2<br/>value = 47226212.5>, fillcolor="#fffdfc"] ;
604 -> 606 ;
607 [label=<squared_error = 0.0<br/>samples = 1<br/>value = 37307967.0>, fillcolor="#fffefd"] ;
606 -> 607 ;
608 [label=<squared_error = 0.0<br/>samples = 1<br/>value = 57144458.0>, fillcolor="#fffdfc"] ;
606 -> 608 ;
609 [label=<danceability_% &le; 56.5<br/>squared_error = 823549953610092.0<br/>samples = 4<br/>value = 121507016.25>, fillcolor="#fefbf9"] ;
603 -> 609 ;
610 [label=<valence_% &le; 41.0<br/>squared_error = 211014090876936.0<br/>samples = 3<br/>value = 136398729.667>, fillcolor="#fefaf8"] ;
609 -> 610 ;
611 [label=<squared_error = 0.0<br/>samples = 1<br/>value = 156898322.0>, fillcolor="#fefaf7"] ;
610 -> 611 ;
612 [label=<danceability_% &le; 55.5<br/>squared_error = 1346171940760.0<br/>samples = 2<br/>value = 126148933.5>, fillcolor="#fefbf8"] ;
610 -> 612 ;
613 [label=<squared_error = 0.0<br/>samples = 1<br/>value = 127309180.0>, fillcolor="#fefbf8"] ;
612 -> 613 ;
614 [label=<squared_error = 0.0<br/>samples = 1<br/>value = 124988687.0>, fillcolor="#fefbf8"] ;
612 -> 614 ;
615 [label=<squared_error = 0.0<br/>samples = 1<br/>value = 76831876.0>, fillcolor="#fefcfb"] ;
609 -> 615 ;
616 [label=<valence_% &le; 63.5<br/>squared_error = 163795070619648.0<br/>samples = 3<br/>value = 194136366.333>, fillcolor="#fef8f5"] ;
602 -> 616 ;
617 [label=<energy_% &le; 62.5<br/>squared_error = 22471958740.0<br/>samples = 2<br/>value = 185087054.5>, fillcolor="#fef9f5"] ;
616 -> 617 ;
618 [label=<squared_error = 0.0<br/>samples = 1<br/>value = 185236961.0>, fillcolor="#fef9f5"] ;
617 -> 618 ;
619 [label=<squared_error = 0.0<br/>samples = 1<br/>value = 184937148.0>, fillcolor="#fef9f5"] ;
617 -> 619 ;
620 [label=<squared_error = -8.0<br/>samples = 1<br/>value = 212234990.0>, fillcolor="#fef8f4"] ;
616 -> 620 ;
621 [label=<acousticness_% &le; 40.0<br/>squared_error = 3.138631322306895e+16<br/>samples = 7<br/>value = 242562353.286>, fillcolor="#fdf7f2"] ;
593 -> 621 ;
622 [label=<valence_% &le; 47.5<br/>squared_error = 2257519853623232.0<br/>samples = 2<br/>value = 509071905.0>, fillcolor="#fbeee4"] ;
621 -> 622 ;
623 [label=<squared_error = 0.0<br/>samples = 1<br/>value = 556585270.0>, fillcolor="#fbece1"] ;
622 -> 623 ;
624 [label=<squared_error = 0.0<br/>samples = 1<br/>value = 461558540.0>, fillcolor="#fcefe6"] ;
622 -> 624 ;
625 [label=<energy_% &le; 57.0<br/>squared_error = 3262519524075500.0<br/>samples = 5<br/>value = 135958532.6>, fillcolor="#fefaf8"] ;
621 -> 625 ;
626 [label=<acousticness_% &le; 79.5<br/>squared_error = 1848728342712.0<br/>samples = 2<br/>value = 205039949.5>, fillcolor="#fef8f4"] ;
625 -> 626 ;
627 [label=<squared_error = 0.0<br/>samples = 1<br/>value = 203680270.0>, fillcolor="#fef8f4"] ;
626 -> 627 ;
628 [label=<squared_error = -8.0<br/>samples = 1<br/>value = 206399629.0>, fillcolor="#fef8f4"] ;
626 -> 628 ;
629 [label=<liveness_% &le; 10.0<br/>squared_error = 133808764662236.98<br/>samples = 3<br/>value = 89904254.667>, fillcolor="#fefcfa"] ;
625 -> 629 ;
630 [label=<squared_error = 0.0<br/>samples = 1<br/>value = 73981293.0>, fillcolor="#fefcfb"] ;
629 -> 630 ;
631 [label=<acousticness_% &le; 50.0<br/>squared_error = 10557615814752.0<br/>samples = 2<br/>value = 97865735.5>, fillcolor="#fefcfa"] ;
629 -> 631 ;
632 [label=<squared_error = 0.0<br/>samples = 1<br/>value = 101114984.0>, fillcolor="#fefcfa"] ;
631 -> 632 ;
633 [label=<squared_error = -1.0<br/>samples = 1<br/>value = 94616487.0>, fillcolor="#fefcfa"] ;
631 -> 633 ;
634 [label=<danceability_% &le; 52.0<br/>squared_error = 4.878362170666581e+16<br/>samples = 4<br/>value = 369745551.25>, fillcolor="#fcf2eb"] ;
592 -> 634 ;
635 [label=<energy_% &le; 81.5<br/>squared_error = 1.05494727960225e+16<br/>samples = 2<br/>value = 161183902.5>, fillcolor="#fefaf6"] ;
634 -> 635 ;
636 [label=<squared_error = 0.0<br/>samples = 1<br/>value = 58473276.0>, fillcolor="#fffdfc"] ;
635 -> 636 ;
637 [label=<squared_error = 0.0<br/>samples = 1<br/>value = 263894529.0>, fillcolor="#fdf6f1"] ;
635 -> 637 ;
638 [label=<acousticness_% &le; 44.5<br/>squared_error = 21847958672384.0<br/>samples = 2<br/>value = 578307200.0>, fillcolor="#fbebe0"] ;
634 -> 638 ;
639 [label=<squared_error = 0.0<br/>samples = 1<br/>value = 573633020.0>, fillcolor="#fbebe0"] ;
638 -> 639 ;
640 [label=<squared_error = 0.0<br/>samples = 1<br/>value = 582981380.0>, fillcolor="#fbebe0"] ;
638 -> 640 ;
641 [label=<squared_error = 384.0<br/>samples = 1<br/>value = 467727006.0>, fillcolor="#fcefe6"] ;
583 -> 641 ;
642 [label=<energy_% &le; 49.0<br/>squared_error = 8.785329208803656e+17<br/>samples = 3<br/>value = 799062733.333>, fillcolor="#f9e4d4"] ;
506 -> 642 ;
643 [label=<squared_error = 0.0<br/>samples = 1<br/>value = 2123309722.0>, fillcolor="#f0b78d"] ;
642 -> 643 ;
644 [label=<acousticness_% &le; 32.5<br/>squared_error = 2576816075997840.0<br/>samples = 2<br/>value = 136939239.0>, fillcolor="#fefaf8"] ;
642 -> 644 ;
645 [label=<squared_error = 0.0<br/>samples = 1<br/>value = 187701588.0>, fillcolor="#fef9f5"] ;
644 -> 645 ;
646 [label=<squared_error = -4.0<br/>samples = 1<br/>value = 86176890.0>, fillcolor="#fefcfa"] ;
644 -> 646 ;
647 [label=<valence_% &le; 77.0<br/>squared_error = 3.721687587746116e+17<br/>samples = 5<br/>value = 790928605.8>, fillcolor="#f9e4d5"] ;
505 -> 647 ;
648 [label=<squared_error = 0.0<br/>samples = 1<br/>value = 1735441776.0>, fillcolor="#f3c4a2"] ;
647 -> 648 ;
649 [label=<liveness_% &le; 8.0<br/>squared_error = 1.8642809575537357e+17<br/>samples = 4<br/>value = 554800313.25>, fillcolor="#fbece1"] ;
647 -> 649 ;
650 [label=<squared_error = 0.0<br/>samples = 1<br/>value = 1279434863.0>, fillcolor="#f6d3bb"] ;
649 -> 650 ;
651 [label=<acousticness_% &le; 19.0<br/>squared_error = 1.519513625543808e+16<br/>samples = 3<br/>value = 313255463.333>, fillcolor="#fdf4ee"] ;
649 -> 651 ;
652 [label=<squared_error = 0.0<br/>samples = 1<br/>value = 143573775.0>, fillcolor="#fefaf7"] ;
651 -> 652 ;
653 [label=<danceability_% &le; 58.5<br/>squared_error = 1198797866419232.0<br/>samples = 2<br/>value = 398096307.5>, fillcolor="#fcf1ea"] ;
651 -> 653 ;
654 [label=<squared_error = 0.0<br/>samples = 1<br/>value = 432719968.0>, fillcolor="#fcf0e8"] ;
653 -> 654 ;
655 [label=<squared_error = 16.0<br/>samples = 1<br/>value = 363472647.0>, fillcolor="#fcf3ec"] ;
653 -> 655 ;
656 [label=<acousticness_% &le; 4.5<br/>squared_error = 2.6800443815507056e+17<br/>samples = 624<br/>value = 466580034.306>, fillcolor="#fcefe6"] ;
0 -> 656 [labeldistance=2.5, labelangle=-45, headlabel="False"] ;
657 [label=<valence_% &le; 41.5<br/>squared_error = 3.667915603073923e+17<br/>samples = 136<br/>value = 592742594.515>, fillcolor="#fbebdf"] ;
656 -> 657 ;
658 [label=<valence_% &le; 8.5<br/>squared_error = 2.346906411632277e+17<br/>samples = 45<br/>value = 354958680.756>, fillcolor="#fdf3ec"] ;
657 -> 658 ;
659 [label=<squared_error = 0.0<br/>samples = 1<br/>value = 1829992958.0>, fillcolor="#f2c19d"] ;
658 -> 659 ;
660 [label=<energy_% &le; 64.5<br/>squared_error = 1.8945237300935898e+17<br/>samples = 44<br/>value = 321435174.455>, fillcolor="#fdf4ee"] ;
658 -> 660 ;
661 [label=<energy_% &le; 62.5<br/>squared_error = 3.4130806309034374e+17<br/>samples = 20<br/>value = 473431280.95>, fillcolor="#fcefe6"] ;
660 -> 661 ;
662 [label=<danceability_% &le; 70.5<br/>squared_error = 8.55718159165711e+16<br/>samples = 18<br/>value = 353173400.556>, fillcolor="#fdf3ec"] ;
661 -> 662 ;
663 [label=<liveness_% &le; 7.0<br/>squared_error = 4671780852314620.0<br/>samples = 5<br/>value = 152202592.4>, fillcolor="#fefaf7"] ;
662 -> 663 ;
664 [label=<squared_error = -8.0<br/>samples = 1<br/>value = 267758538.0>, fillcolor="#fdf6f1"] ;
663 -> 664 ;
665 [label=<acousticness_% &le; 0.5<br/>squared_error = 1666858389296352.0<br/>samples = 4<br/>value = 123313606.0>, fillcolor="#fefbf8"] ;
663 -> 665 ;
666 [label=<squared_error = 0.0<br/>samples = 1<br/>value = 193443895.0>, fillcolor="#fef8f5"] ;
665 -> 666 ;
667 [label=<danceability_% &le; 63.5<br/>squared_error = 36585658962462.0<br/>samples = 3<br/>value = 99936843.0>, fillcolor="#fefcfa"] ;
665 -> 667 ;
668 [label=<squared_error = 0.0<br/>samples = 1<br/>value = 91781263.0>, fillcolor="#fefcfa"] ;
667 -> 668 ;
669 [label=<acousticness_% &le; 1.5<br/>squared_error = 4993374591396.0<br/>samples = 2<br/>value = 104014633.0>, fillcolor="#fefbf9"] ;
667 -> 669 ;
670 [label=<squared_error = -2.0<br/>samples = 1<br/>value = 106249219.0>, fillcolor="#fefbf9"] ;
669 -> 670 ;
671 [label=<squared_error = 0.0<br/>samples = 1<br/>value = 101780047.0>, fillcolor="#fefcfa"] ;
669 -> 671 ;
672 [label=<danceability_% &le; 72.0<br/>squared_error = 9.517813759357664e+16<br/>samples = 13<br/>value = 430469865.231>, fillcolor="#fcf0e8"] ;
662 -> 672 ;
673 [label=<liveness_% &le; 25.0<br/>squared_error = 1.1237685323396506e+17<br/>samples = 2<br/>value = 895449320.0>, fillcolor="#f9e1cf"] ;
672 -> 673 ;
674 [label=<squared_error = 0.0<br/>samples = 1<br/>value = 560222750.0>, fillcolor="#fbece1"] ;
673 -> 674 ;
675 [label=<squared_error = 0.0<br/>samples = 1<br/>value = 1230675890.0>, fillcolor="#f6d5bd"] ;
673 -> 675 ;
676 [label=<speechiness_% &le; 30.5<br/>squared_error = 4.559363369784679e+16<br/>samples = 11<br/>value = 345928146.182>, fillcolor="#fdf3ed"] ;
672 -> 676 ;
677 [label=<valence_% &le; 28.5<br/>squared_error = 4.031440581160781e+16<br/>samples = 8<br/>value = 423320630.125>, fillcolor="#fcf1e8"] ;
676 -> 677 ;
678 [label=<energy_% &le; 55.5<br/>squared_error = 1.228326577126124e+16<br/>samples = 4<br/>value = 249377489.75>, fillcolor="#fdf7f2"] ;
677 -> 678 ;
679 [label=<danceability_% &le; 81.5<br/>squared_error = 281461085347200.0<br/>samples = 2<br/>value = 359556228.0>, fillcolor="#fcf3ec"] ;
678 -> 679 ;
680 [label=<squared_error = 0.0<br/>samples = 1<br/>value = 376333030.0>, fillcolor="#fcf2eb"] ;
679 -> 680 ;
681 [label=<squared_error = 0.0<br/>samples = 1<br/>value = 342779426.0>, fillcolor="#fdf3ed"] ;
679 -> 681 ;
682 [label=<speechiness_% &le; 6.5<br/>squared_error = 6361732451248.0<br/>samples = 2<br/>value = 139198751.5>, fillcolor="#fefaf8"] ;
678 -> 682 ;
683 [label=<squared_error = 0.0<br/>samples = 1<br/>value = 136676504.0>, fillcolor="#fefaf8"] ;
682 -> 683 ;
684 [label=<squared_error = 0.0<br/>samples = 1<br/>value = 141720999.0>, fillcolor="#fefaf7"] ;
682 -> 684 ;
685 [label=<danceability_% &le; 85.0<br/>squared_error = 7833113684920513.0<br/>samples = 4<br/>value = 597263770.5>, fillcolor="#fbebdf"] ;
677 -> 685 ;
686 [label=<energy_% &le; 53.5<br/>squared_error = 411386540067520.0<br/>samples = 2<br/>value = 510228537.0>, fillcolor="#fbeee4"] ;
685 -> 686 ;
687 [label=<squared_error = 0.0<br/>samples = 1<br/>value = 530511203.0>, fillcolor="#fbede3"] ;
686 -> 687 ;
688 [label=<squared_error = -32.0<br/>samples = 1<br/>value = 489945871.0>, fillcolor="#fceee5"] ;
686 -> 688 ;
689 [label=<danceability_% &le; 90.5<br/>squared_error = 104577088974464.0<br/>samples = 2<br/>value = 684299004.0>, fillcolor="#fae8da"] ;
685 -> 689 ;
690 [label=<squared_error = 0.0<br/>samples = 1<br/>value = 674072710.0>, fillcolor="#fae8db"] ;
689 -> 690 ;
691 [label=<squared_error = 0.0<br/>samples = 1<br/>value = 694525298.0>, fillcolor="#fae7da"] ;
689 -> 691 ;
692 [label=<valence_% &le; 36.5<br/>squared_error = 1106630479059980.0<br/>samples = 3<br/>value = 139548189.0>, fillcolor="#fefaf8"] ;
676 -> 692 ;
693 [label=<speechiness_% &le; 45.5<br/>squared_error = 60456254231044.0<br/>samples = 2<br/>value = 162638515.0>, fillcolor="#fef9f6"] ;
692 -> 693 ;
694 [label=<squared_error = 0.0<br/>samples = 1<br/>value = 154863153.0>, fillcolor="#fefaf7"] ;
693 -> 694 ;
695 [label=<squared_error = 0.0<br/>samples = 1<br/>value = 170413877.0>, fillcolor="#fef9f6"] ;
693 -> 695 ;
696 [label=<squared_error = -1.0<br/>samples = 1<br/>value = 93367537.0>, fillcolor="#fefcfa"] ;
692 -> 696 ;
697 [label=<danceability_% &le; 79.0<br/>squared_error = 1.3413580859274916e+18<br/>samples = 2<br/>value = 1555752204.5>, fillcolor="#f4caac"] ;
661 -> 697 ;
698 [label=<squared_error = 0.0<br/>samples = 1<br/>value = 2713922350.0>, fillcolor="#eca36e"] ;
697 -> 698 ;
699 [label=<squared_error = 64.0<br/>samples = 1<br/>value = 397582059.0>, fillcolor="#fcf1ea"] ;
697 -> 699 ;
700 [label=<danceability_% &le; 89.5<br/>squared_error = 2.760999512415617e+16<br/>samples = 24<br/>value = 194771752.375>, fillcolor="#fef8f5"] ;
660 -> 700 ;
701 [label=<liveness_% &le; 28.5<br/>squared_error = 9728360040558144.0<br/>samples = 23<br/>value = 166574478.826>, fillcolor="#fef9f6"] ;
700 -> 701 ;
702 [label=<speechiness_% &le; 5.5<br/>squared_error = 4395318823076332.0<br/>samples = 17<br/>value = 135037161.0>, fillcolor="#fefaf8"] ;
701 -> 702 ;
703 [label=<acousticness_% &le; 3.0<br/>squared_error = 2885772168191135.5<br/>samples = 11<br/>value = 165188896.727>, fillcolor="#fef9f6"] ;
702 -> 703 ;
704 [label=<instrumentalness_% &le; 5.0<br/>squared_error = 2005326138727280.2<br/>samples = 8<br/>value = 142777081.625>, fillcolor="#fefaf7"] ;
703 -> 704 ;
705 [label=<speechiness_% &le; 4.5<br/>squared_error = 1617702392537614.0<br/>samples = 7<br/>value = 133597628.286>, fillcolor="#fefaf8"] ;
704 -> 705 ;
706 [label=<valence_% &le; 22.0<br/>squared_error = 1596805231481726.0<br/>samples = 4<br/>value = 124195382.75>, fillcolor="#fefbf8"] ;
705 -> 706 ;
707 [label=<squared_error = 0.0<br/>samples = 1<br/>value = 57089066.0>, fillcolor="#fffdfc"] ;
706 -> 707 ;
708 [label=<energy_% &le; 74.5<br/>squared_error = 127625754086156.0<br/>samples = 3<br/>value = 146564155.0>, fillcolor="#fefaf7"] ;
706 -> 708 ;
709 [label=<acousticness_% &le; 1.5<br/>squared_error = 1631883612304.0<br/>samples = 2<br/>value = 154518331.0>, fillcolor="#fefaf7"] ;
708 -> 709 ;
710 [label=<squared_error = 0.0<br/>samples = 1<br/>value = 155795783.0>, fillcolor="#fefaf7"] ;
709 -> 710 ;
711 [label=<squared_error = 0.0<br/>samples = 1<br/>value = 153240879.0>, fillcolor="#fefaf7"] ;
709 -> 711 ;
712 [label=<squared_error = 0.0<br/>samples = 1<br/>value = 130655803.0>, fillcolor="#fefbf8"] ;
708 -> 712 ;
713 [label=<energy_% &le; 71.5<br/>squared_error = 1370536141591236.0<br/>samples = 3<br/>value = 146133955.667>, fillcolor="#fefaf7"] ;
705 -> 713 ;
714 [label=<squared_error = 0.0<br/>samples = 1<br/>value = 198365537.0>, fillcolor="#fef8f4"] ;
713 -> 714 ;
715 [label=<valence_% &le; 36.5<br/>squared_error = 9700645951396.0<br/>samples = 2<br/>value = 120018165.0>, fillcolor="#fefbf9"] ;
713 -> 715 ;
716 [label=<squared_error = 0.0<br/>samples = 1<br/>value = 116903579.0>, fillcolor="#fefbf9"] ;
715 -> 716 ;
717 [label=<squared_error = 0.0<br/>samples = 1<br/>value = 123132751.0>, fillcolor="#fefbf8"] ;
715 -> 717 ;
718 [label=<squared_error = 16.0<br/>samples = 1<br/>value = 207033255.0>, fillcolor="#fef8f4"] ;
704 -> 718 ;
719 [label=<energy_% &le; 81.0<br/>squared_error = 322353564127576.0<br/>samples = 3<br/>value = 224953737.0>, fillcolor="#fdf7f3"] ;
703 -> 719 ;
720 [label=<squared_error = 0.0<br/>samples = 1<br/>value = 250305248.0>, fillcolor="#fdf6f2"] ;
719 -> 720 ;
721 [label=<liveness_% &le; 5.5<br/>squared_error = 1506013704008.0<br/>samples = 2<br/>value = 212277981.5>, fillcolor="#fef8f4"] ;
719 -> 721 ;
722 [label=<squared_error = 0.0<br/>samples = 1<br/>value = 213505179.0>, fillcolor="#fef8f4"] ;
721 -> 722 ;
723 [label=<squared_error = 8.0<br/>samples = 1<br/>value = 211050784.0>, fillcolor="#fef8f4"] ;
721 -> 723 ;
724 [label=<instrumentalness_% &le; 5.0<br/>squared_error = 2440410459874638.0<br/>samples = 6<br/>value = 79758978.833>, fillcolor="#fefcfb"] ;
702 -> 724 ;
725 [label=<danceability_% &le; 66.0<br/>squared_error = 1727429686216416.0<br/>samples = 5<br/>value = 65610581.6>, fillcolor="#fffdfb"] ;
724 -> 725 ;
726 [label=<squared_error = 0.0<br/>samples = 1<br/>value = 134255790.0>, fillcolor="#fefaf8"] ;
725 -> 726 ;
727 [label=<speechiness_% &le; 29.0<br/>squared_error = 686735658933198.5<br/>samples = 4<br/>value = 48449279.5>, fillcolor="#fffdfc"] ;
725 -> 727 ;
728 [label=<danceability_% &le; 71.0<br/>squared_error = 303577124881016.0<br/>samples = 3<br/>value = 36079251.0>, fillcolor="#fffefd"] ;
727 -> 728 ;
729 [label=<squared_error = 0.0<br/>samples = 1<br/>value = 60680939.0>, fillcolor="#fffdfc"] ;
728 -> 729 ;
730 [label=<liveness_% &le; 17.0<br/>squared_error = 1433397984516.0<br/>samples = 2<br/>value = 23778407.0>, fillcolor="#fffefe"] ;
728 -> 730 ;
731 [label=<squared_error = 0.0<br/>samples = 1<br/>value = 22581161.0>, fillcolor="#fffefe"] ;
730 -> 731 ;
732 [label=<squared_error = 0.0<br/>samples = 1<br/>value = 24975653.0>, fillcolor="#fffefe"] ;
730 -> 732 ;
733 [label=<squared_error = 0.0<br/>samples = 1<br/>value = 85559365.0>, fillcolor="#fefcfa"] ;
727 -> 733 ;
734 [label=<squared_error = 0.0<br/>samples = 1<br/>value = 150500965.0>, fillcolor="#fefaf7"] ;
724 -> 734 ;
735 [label=<liveness_% &le; 37.5<br/>squared_error = 1.4036156142187848e+16<br/>samples = 6<br/>value = 255930212.667>, fillcolor="#fdf6f1"] ;
701 -> 735 ;
736 [label=<valence_% &le; 38.0<br/>squared_error = 2344772362240304.0<br/>samples = 3<br/>value = 363380194.0>, fillcolor="#fcf3ec"] ;
735 -> 736 ;
737 [label=<instrumentalness_% &le; 2.0<br/>squared_error = 878824602040576.0<br/>samples = 2<br/>value = 333724762.0>, fillcolor="#fdf4ed"] ;
736 -> 737 ;
738 [label=<squared_error = 0.0<br/>samples = 1<br/>value = 363369738.0>, fillcolor="#fcf3ec"] ;
737 -> 738 ;
739 [label=<squared_error = 0.0<br/>samples = 1<br/>value = 304079786.0>, fillcolor="#fdf5ef"] ;
737 -> 739 ;
740 [label=<squared_error = 0.0<br/>samples = 1<br/>value = 422691058.0>, fillcolor="#fcf1e8"] ;
736 -> 740 ;
741 [label=<danceability_% &le; 73.5<br/>squared_error = 2636542945067976.0<br/>samples = 3<br/>value = 148480231.333>, fillcolor="#fefaf7"] ;
735 -> 741 ;
742 [label=<acousticness_% &le; 1.0<br/>squared_error = 113160044304240.0<br/>samples = 2<br/>value = 184265025.0>, fillcolor="#fef9f5"] ;
741 -> 742 ;
743 [label=<squared_error = 0.0<br/>samples = 1<br/>value = 173627354.0>, fillcolor="#fef9f6"] ;
742 -> 743 ;
744 [label=<squared_error = 0.0<br/>samples = 1<br/>value = 194902696.0>, fillcolor="#fef8f5"] ;
742 -> 744 ;
745 [label=<squared_error = 0.0<br/>samples = 1<br/>value = 76910644.0>, fillcolor="#fefcfb"] ;
741 -> 745 ;
746 [label=<squared_error = -128.0<br/>samples = 1<br/>value = 843309044.0>, fillcolor="#f9e2d2"] ;
700 -> 746 ;
747 [label=<liveness_% &le; 10.5<br/>squared_error = 3.90329923220389e+17<br/>samples = 91<br/>value = 710328046.374>, fillcolor="#fae7d9"] ;
657 -> 747 ;
748 [label=<danceability_% &le; 79.5<br/>squared_error = 4.7818558054237005e+17<br/>samples = 40<br/>value = 917888711.575>, fillcolor="#f9e0ce"] ;
747 -> 748 ;
749 [label=<liveness_% &le; 7.5<br/>squared_error = 4.5287614964125824e+17<br/>samples = 26<br/>value = 1094133317.0>, fillcolor="#f7dac5"] ;
748 -> 749 ;
750 [label=<valence_% &le; 91.5<br/>squared_error = 2.939677042025825e+17<br/>samples = 11<br/>value = 811619779.545>, fillcolor="#f9e3d4"] ;
749 -> 750 ;
751 [label=<liveness_% &le; 6.5<br/>squared_error = 2.1535855983149126e+17<br/>samples = 10<br/>value = 712530327.4>, fillcolor="#fae7d9"] ;
750 -> 751 ;
752 [label=<energy_% &le; 76.0<br/>squared_error = 2.8784706792634688e+17<br/>samples = 5<br/>value = 927432386.4>, fillcolor="#f8dfcd"] ;
751 -> 752 ;
753 [label=<danceability_% &le; 76.5<br/>squared_error = 1.1246027173853694e+17<br/>samples = 2<br/>value = 1478998795.0>, fillcolor="#f5cdb0"] ;
752 -> 753 ;
754 [label=<squared_error = 0.0<br/>samples = 1<br/>value = 1814349763.0>, fillcolor="#f2c19e"] ;
753 -> 754 ;
755 [label=<squared_error = -256.0<br/>samples = 1<br/>value = 1143647827.0>, fillcolor="#f7d8c2"] ;
753 -> 755 ;
