digraph Tree {
node [shape=box, style="filled, rounded", color="black", fontname="helvetica"] ;
edge [fontname="helvetica"] ;
0 [label=<danceability_% &le; 61.5<br/>squared_error = 3.2716925143125824e+17<br/>samples = 599<br/>value = 518789606.198>, fillcolor="#fbede3"] ;
1 [label=<speechiness_% &le; 2.5<br/>squared_error = 4.760789712106747e+17<br/>samples = 203<br/>value = 645225713.539>, fillcolor="#fae9dd"] ;
0 -> 1 [labeldistance=2.5, labelangle=45, headlabel="True"] ;
2 [label=<danceability_% &le; 58.0<br/>squared_error = 2.0113220230562714e+17<br/>samples = 2<br/>value = 2242407486.667>, fillcolor="#efb387"] ;
1 -> 2 ;
3 [label=<squared_error = 0.0<br/>samples = 1<br/>value = 1608164312.0>, fillcolor="#f4c8a9"] ;
2 -> 3 ;
4 [label=<squared_error = 0.0<br/>samples = 1<br/>value = 2559529074.0>, fillcolor="#eda876"] ;
2 -> 4 ;
5 [label=<danceability_% &le; 60.5<br/>squared_error = 4.5437983170799686e+17<br/>samples = 201<br/>value = 630157960.962>, fillcolor="#fbeadd"] ;
1 -> 5 ;
6 [label=<speechiness_% &le; 7.5<br/>squared_error = 4.322719556097364e+17<br/>samples = 184<br/>value = 601632379.051>, fillcolor="#fbebdf"] ;
5 -> 6 ;
7 [label=<energy_% &le; 55.5<br/>squared_error = 4.869565196846352e+17<br/>samples = 135<br/>value = 682631102.227>, fillcolor="#fae8db"] ;
6 -> 7 ;
8 [label=<acousticness_% &le; 29.5<br/>squared_error = 2.4721614165900618e+17<br/>samples = 66<br/>value = 508587407.727>, fillcolor="#fbeee4"] ;
7 -> 8 ;
9 [label=<acousticness_% &le; 25.5<br/>squared_error = 4.600150581750109e+17<br/>samples = 17<br/>value = 730194124.273>, fillcolor="#fae6d8"] ;
8 -> 9 ;
10 [label=<liveness_% &le; 22.5<br/>squared_error = 2.6934597541809325e+17<br/>samples = 16<br/>value = 583512468.8>, fillcolor="#fbebe0"] ;
9 -> 10 ;
11 [label=<liveness_% &le; 21.5<br/>squared_error = 2.985175025291237e+17<br/>samples = 12<br/>value = 694934297.8>, fillcolor="#fae7da"] ;
10 -> 11 ;
12 [label=<energy_% &le; 52.5<br/>squared_error = 2.2834734549865594e+17<br/>samples = 11<br/>value = 616834858.714>, fillcolor="#fbeade"] ;
11 -> 12 ;
13 [label=<speechiness_% &le; 3.5<br/>squared_error = 1.4948904727371712e+17<br/>samples = 7<br/>value = 878616658.333>, fillcolor="#f9e1d0"] ;
12 -> 13 ;
14 [label=<instrumentalness_% &le; 7.5<br/>squared_error = 5.805169433950873e+16<br/>samples = 5<br/>value = 712609468.714>, fillcolor="#fae7d9"] ;
13 -> 14 ;
15 [label=<energy_% &le; 47.0<br/>squared_error = 1.5011127009450882e+16<br/>samples = 2<br/>value = 484751703.667>, fillcolor="#fcefe5"] ;
14 -> 15 ;
16 [label=<squared_error = 0.0<br/>samples = 1<br/>value = 311482393.0>, fillcolor="#fdf4ee"] ;
15 -> 16 ;
17 [label=<squared_error = 0.0<br/>samples = 1<br/>value = 571386359.0>, fillcolor="#fbece1"] ;
15 -> 17 ;
18 [label=<instrumentalness_% &le; 16.5<br/>squared_error = 2.2188220903151104e+16<br/>samples = 3<br/>value = 883502792.5>, fillcolor="#f9e1d0"] ;
14 -> 18 ;
19 [label=<squared_error = 0.0<br/>samples = 1<br/>value = 1127468248.0>, fillcolor="#f7d9c3"] ;
18 -> 19 ;
20 [label=<danceability_% &le; 47.0<br/>squared_error = 3131341880946944.0<br/>samples = 2<br/>value = 802180974.0>, fillcolor="#f9e4d4"] ;
18 -> 20 ;
21 [label=<squared_error = 0.0<br/>samples = 1<br/>value = 841749534.0>, fillcolor="#f9e2d2"] ;
20 -> 21 ;
22 [label=<squared_error = 64.0<br/>samples = 1<br/>value = 723043854.0>, fillcolor="#fae6d8"] ;
20 -> 22 ;
23 [label=<liveness_% &le; 13.5<br/>squared_error = 3.5475187211319548e+16<br/>samples = 2<br/>value = 1459641822.0>, fillcolor="#f5cdb1"] ;
13 -> 23 ;
24 [label=<squared_error = 0.0<br/>samples = 1<br/>value = 1271293243.0>, fillcolor="#f6d4bb"] ;
23 -> 24 ;
25 [label=<squared_error = 0.0<br/>samples = 1<br/>value = 1647990401.0>, fillcolor="#f3c7a7"] ;
23 -> 25 ;
26 [label=<liveness_% &le; 9.0<br/>squared_error = 2.490254082013798e+16<br/>samples = 4<br/>value = 145627619.4>, fillcolor="#fefaf7"] ;
12 -> 26 ;
27 [label=<squared_error = 0.0<br/>samples = 1<br/>value = 457184829.0>, fillcolor="#fcefe7"] ;
26 -> 27 ;
28 [label=<acousticness_% &le; 2.5<br/>squared_error = 794458883379367.0<br/>samples = 3<br/>value = 67738317.0>, fillcolor="#fffdfb"] ;
26 -> 28 ;
29 [label=<squared_error = 0.0<br/>samples = 1<br/>value = 39578178.0>, fillcolor="#fffefd"] ;
28 -> 29 ;
30 [label=<danceability_% &le; 58.0<br/>squared_error = 2930909760100.0<br/>samples = 2<br/>value = 95898456.0>, fillcolor="#fefcfa"] ;
28 -> 30 ;
31 [label=<squared_error = 0.0<br/>samples = 1<br/>value = 97610446.0>, fillcolor="#fefcfa"] ;
30 -> 31 ;
32 [label=<squared_error = 0.0<br/>samples = 1<br/>value = 94186466.0>, fillcolor="#fefcfa"] ;
30 -> 32 ;
33 [label=<squared_error = 1024.0<br/>samples = 1<br/>value = 1788326445.0>, fillcolor="#f2c29f"] ;
11 -> 33 ;
34 [label=<energy_% &le; 52.5<br/>squared_error = 3.2853506352539104e+16<br/>samples = 4<br/>value = 249246981.8>, fillcolor="#fdf7f2"] ;
10 -> 34 ;
35 [label=<valence_% &le; 59.5<br/>squared_error = 2388940141967946.0<br/>samples = 2<br/>value = 107534168.667>, fillcolor="#fefbf9"] ;
34 -> 35 ;
36 [label=<squared_error = 0.0<br/>samples = 1<br/>value = 38411956.0>, fillcolor="#fffefd"] ;
35 -> 36 ;
37 [label=<squared_error = 0.0<br/>samples = 1<br/>value = 142095275.0>, fillcolor="#fefaf7"] ;
35 -> 37 ;
38 [label=<liveness_% &le; 33.5<br/>squared_error = 3240900395285728.5<br/>samples = 2<br/>value = 461816201.5>, fillcolor="#fcefe6"] ;
34 -> 38 ;
39 [label=<squared_error = 0.0<br/>samples = 1<br/>value = 404887295.0>, fillcolor="#fcf1e9"] ;
38 -> 39 ;
40 [label=<squared_error = -32.0<br/>samples = 1<br/>value = 518745108.0>, fillcolor="#fbede3"] ;
38 -> 40 ;
41 [label=<squared_error = 1024.0<br/>samples = 1<br/>value = 2197010679.0>, fillcolor="#f0b48a"] ;
9 -> 41 ;
42 [label=<danceability_% &le; 56.5<br/>squared_error = 1.683762132110654e+17<br/>samples = 49<br/>value = 445271203.0>, fillcolor="#fcf0e7"] ;
8 -> 42 ;
43 [label=<danceability_% &le; 45.5<br/>squared_error = 1.1864085018200605e+17<br/>samples = 40<br/>value = 380512673.869>, fillcolor="#fcf2eb"] ;
42 -> 43 ;
44 [label=<danceability_% &le; 43.0<br/>squared_error = 1.5716904474899782e+17<br/>samples = 22<br/>value = 478467917.278>, fillcolor="#fcefe5"] ;
43 -> 44 ;
45 [label=<liveness_% &le; 13.5<br/>squared_error = 8.733150732232347e+16<br/>samples = 17<br/>value = 365752328.107>, fillcolor="#fcf3ec"] ;
44 -> 45 ;
46 [label=<speechiness_% &le; 3.5<br/>squared_error = 4228211547585244.0<br/>samples = 7<br/>value = 180097222.154>, fillcolor="#fef9f5"] ;
45 -> 46 ;
47 [label=<energy_% &le; 29.5<br/>squared_error = 22794504427328.0<br/>samples = 2<br/>value = 290576996.667>, fillcolor="#fdf5f0"] ;
46 -> 47 ;
48 [label=<squared_error = 0.0<br/>samples = 1<br/>value = 287201015.0>, fillcolor="#fdf5f0"] ;
47 -> 48 ;
49 [label=<squared_error = 0.0<br/>samples = 1<br/>value = 297328960.0>, fillcolor="#fdf5ef"] ;
47 -> 49 ;
50 [label=<danceability_% &le; 38.0<br/>squared_error = 729582235735180.0<br/>samples = 5<br/>value = 146953289.8>, fillcolor="#fefaf7"] ;
46 -> 50 ;
51 [label=<instrumentalness_% &le; 31.5<br/>squared_error = 66818771775624.0<br/>samples = 2<br/>value = 194278585.0>, fillcolor="#fef8f5"] ;
50 -> 51 ;
52 [label=<squared_error = 0.0<br/>samples = 1<br/>value = 186104310.0>, fillcolor="#fef9f5"] ;
51 -> 52 ;
53 [label=<squared_error = 0.0<br/>samples = 1<br/>value = 202452860.0>, fillcolor="#fef8f4"] ;
51 -> 53 ;
54 [label=<energy_% &le; 30.0<br/>squared_error = 195371987422836.0<br/>samples = 3<br/>value = 135121966.0>, fillcolor="#fefaf8"] ;
50 -> 54 ;
55 [label=<instrumentalness_% &le; 0.5<br/>squared_error = 56574189279926.0<br/>samples = 2<br/>value = 130557044.286>, fillcolor="#fefbf8"] ;
54 -> 55 ;
56 [label=<squared_error = 0.0<br/>samples = 1<br/>value = 137070925.0>, fillcolor="#fefaf8"] ;
55 -> 56 ;
57 [label=<squared_error = 2.0<br/>samples = 1<br/>value = 121871870.0>, fillcolor="#fefbf9"] ;
55 -> 57 ;
58 [label=<squared_error = 12.0<br/>samples = 1<br/>value = 167076418.0>, fillcolor="#fef9f6"] ;
54 -> 58 ;
59 [label=<valence_% &le; 30.5<br/>squared_error = 1.0359309305857725e+17<br/>samples = 10<br/>value = 526653419.933>, fillcolor="#fbede3"] ;
45 -> 59 ;
60 [label=<danceability_% &le; 37.5<br/>squared_error = 5.407917598869e+16<br/>samples = 8<br/>value = 379196121.545>, fillcolor="#fcf2eb"] ;
59 -> 60 ;
61 [label=<valence_% &le; 16.0<br/>squared_error = 1.848533089520181e+16<br/>samples = 5<br/>value = 267390575.0>, fillcolor="#fdf6f1"] ;
60 -> 61 ;
62 [label=<speechiness_% &le; 4.0<br/>squared_error = 106790832621224.98<br/>samples = 2<br/>value = 64267491.0>, fillcolor="#fffdfc"] ;
61 -> 62 ;
63 [label=<squared_error = 0.0<br/>samples = 1<br/>value = 74601456.0>, fillcolor="#fefdfb"] ;
62 -> 63 ;
64 [label=<squared_error = 0.0<br/>samples = 1<br/>value = 53933526.0>, fillcolor="#fffdfc"] ;
62 -> 64 ;
65 [label=<energy_% &le; 26.5<br/>squared_error = 2731714058178224.0<br/>samples = 3<br/>value = 348639808.6>, fillcolor="#fdf3ec"] ;
61 -> 65 ;
66 [label=<squared_error = 0.0<br/>samples = 1<br/>value = 395591396.0>, fillcolor="#fcf2ea"] ;
65 -> 66 ;
67 [label=<valence_% &le; 29.0<br/>squared_error = 2103466142097295.8<br/>samples = 2<br/>value = 317338750.333>, fillcolor="#fdf4ee"] ;
65 -> 67 ;
68 [label=<squared_error = 0.0<br/>samples = 1<br/>value = 284908316.0>, fillcolor="#fdf5f0"] ;
67 -> 68 ;
69 [label=<squared_error = -32.0<br/>samples = 1<br/>value = 382199619.0>, fillcolor="#fcf2eb"] ;
67 -> 69 ;
70 [label=<danceability_% &le; 40.5<br/>squared_error = 5.620984375534182e+16<br/>samples = 3<br/>value = 574855828.0>, fillcolor="#fbebe0"] ;
60 -> 70 ;
71 [label=<speechiness_% &le; 3.5<br/>squared_error = 752958758728832.0<br/>samples = 2<br/>value = 811146675.0>, fillcolor="#f9e3d4"] ;
70 -> 71 ;
72 [label=<squared_error = 0.0<br/>samples = 1<br/>value = 838586769.0>, fillcolor="#f9e3d2"] ;
71 -> 72 ;
73 [label=<squared_error = 0.0<br/>samples = 1<br/>value = 783706581.0>, fillcolor="#fae4d5"] ;
71 -> 73 ;
74 [label=<squared_error = 0.0<br/>samples = 1<br/>value = 338564981.0>, fillcolor="#fdf4ed"] ;
70 -> 74 ;
75 [label=<energy_% &le; 23.5<br/>squared_error = 1.5524924382294142e+16<br/>samples = 2<br/>value = 932160990.5>, fillcolor="#f8dfcd"] ;
59 -> 75 ;
76 [label=<squared_error = 0.0<br/>samples = 1<br/>value = 807561936.0>, fillcolor="#f9e4d4"] ;
75 -> 76 ;
77 [label=<squared_error = -128.0<br/>samples = 1<br/>value = 1056760045.0>, fillcolor="#f8dbc7"] ;
75 -> 77 ;
78 [label=<valence_% &le; 15.5<br/>squared_error = 2.0149976207954538e+17<br/>samples = 5<br/>value = 872972479.375>, fillcolor="#f9e1d0"] ;
44 -> 78 ;
79 [label=<squared_error = 0.0<br/>samples = 1<br/>value = 1813673666.0>, fillcolor="#f2c19e"] ;
78 -> 79 ;
80 [label=<liveness_% &le; 16.0<br/>squared_error = 8.580891625128723e+16<br/>samples = 4<br/>value = 738586595.571>, fillcolor="#fae6d8"] ;
78 -> 80 ;
81 [label=<energy_% &le; 35.5<br/>squared_error = 7.23203687087785e+16<br/>samples = 3<br/>value = 855465182.2>, fillcolor="#f9e2d1"] ;
80 -> 81 ;
82 [label=<energy_% &le; 32.5<br/>squared_error = 1988651348224.0<br/>samples = 2<br/>value = 989925936.5>, fillcolor="#f8ddca"] ;
81 -> 82 ;
83 [label=<squared_error = 0.0<br/>samples = 1<br/>value = 988515741.0>, fillcolor="#f8ddca"] ;
82 -> 83 ;
84 [label=<squared_error = -128.0<br/>samples = 1<br/>value = 991336132.0>, fillcolor="#f8ddca"] ;
82 -> 84 ;
85 [label=<squared_error = 320.0<br/>samples = 1<br/>value = 317622165.0>, fillcolor="#fdf4ee"] ;
81 -> 85 ;
86 [label=<squared_error = -224.0<br/>samples = 1<br/>value = 446390129.0>, fillcolor="#fcf0e7"] ;
80 -> 86 ;
87 [label=<speechiness_% &le; 3.5<br/>squared_error = 2.944645089190777e+16<br/>samples = 18<br/>value = 239457123.36>, fillcolor="#fdf7f2"] ;
43 -> 87 ;
88 [label=<instrumentalness_% &le; 0.5<br/>squared_error = 3.2665844682599024e+16<br/>samples = 6<br/>value = 362350876.5>, fillcolor="#fcf3ec"] ;
87 -> 88 ;
89 [label=<valence_% &le; 31.5<br/>squared_error = 8985671752989296.0<br/>samples = 5<br/>value = 282542814.125>, fillcolor="#fdf5f0"] ;
88 -> 89 ;
90 [label=<acousticness_% &le; 62.0<br/>squared_error = 3787443796415320.0<br/>samples = 4<br/>value = 219526057.4>, fillcolor="#fdf8f3"] ;
89 -> 90 ;
91 [label=<squared_error = 0.0<br/>samples = 1<br/>value = 293186992.0>, fillcolor="#fdf5ef"] ;
90 -> 91 ;
92 [label=<valence_% &le; 24.5<br/>squared_error = 283591564975012.0<br/>samples = 3<br/>value = 170418767.667>, fillcolor="#fef9f6"] ;
90 -> 92 ;
93 [label=<energy_% &le; 42.0<br/>squared_error = 6626340892224.0<br/>samples = 2<br/>value = 182233462.0>, fillcolor="#fef9f5"] ;
92 -> 93 ;
94 [label=<squared_error = 0.0<br/>samples = 1<br/>value = 184807630.0>, fillcolor="#fef9f5"] ;
93 -> 94 ;
95 [label=<squared_error = 0.0<br/>samples = 1<br/>value = 179659294.0>, fillcolor="#fef9f5"] ;
93 -> 95 ;
96 [label=<squared_error = 0.0<br/>samples = 1<br/>value = 146789379.0>, fillcolor="#fefaf7"] ;
92 -> 96 ;
97 [label=<squared_error = 0.0<br/>samples = 1<br/>value = 387570742.0>, fillcolor="#fcf2ea"] ;
89 -> 97 ;
98 [label=<squared_error = 64.0<br/>samples = 1<br/>value = 681583126.0>, fillcolor="#fae8db"] ;
88 -> 98 ;
99 [label=<acousticness_% &le; 64.0<br/>squared_error = 1.05192166305189e+16<br/>samples = 12<br/>value = 157527954.6>, fillcolor="#fefaf7"] ;
87 -> 99 ;
100 [label=<instrumentalness_% &le; 6.5<br/>squared_error = 4824660799726175.0<br/>samples = 5<br/>value = 93420309.143>, fillcolor="#fefcfa"] ;
99 -> 100 ;
101 [label=<acousticness_% &le; 34.0<br/>squared_error = 1078820103189233.0<br/>samples = 4<br/>value = 67925349.333>, fillcolor="#fffdfb"] ;
100 -> 101 ;
102 [label=<squared_error = 0.0<br/>samples = 1<br/>value = 132171975.0>, fillcolor="#fefbf8"] ;
101 -> 102 ;
103 [label=<liveness_% &le; 24.5<br/>squared_error = 303953185534408.5<br/>samples = 3<br/>value = 55076024.2>, fillcolor="#fffdfc"] ;
101 -> 103 ;
104 [label=<energy_% &le; 47.5<br/>squared_error = 36275725892898.0<br/>samples = 2<br/>value = 68791897.0>, fillcolor="#fffdfb"] ;
103 -> 104 ;
105 [label=<squared_error = 0.0<br/>samples = 1<br/>value = 77309611.0>, fillcolor="#fefcfb"] ;
104 -> 105 ;
106 [label=<squared_error = -0.5<br/>samples = 1<br/>value = 64533040.0>, fillcolor="#fffdfc"] ;
104 -> 106 ;
107 [label=<squared_error = 1.0<br/>samples = 1<br/>value = 34502215.0>, fillcolor="#fffefd"] ;
103 -> 107 ;
108 [label=<squared_error = 0.0<br/>samples = 1<br/>value = 246390068.0>, fillcolor="#fdf7f2"] ;
100 -> 108 ;
109 [label=<instrumentalness_% &le; 15.0<br/>squared_error = 8759328425647440.0<br/>samples = 7<br/>value = 213622144.375>, fillcolor="#fef8f4"] ;
99 -> 109 ;
110 [label=<valence_% &le; 50.5<br/>squared_error = 4622695251315096.0<br/>samples = 6<br/>value = 239573940.571>, fillcolor="#fdf7f2"] ;
109 -> 110 ;
111 [label=<acousticness_% &le; 81.0<br/>squared_error = 2326307592043504.0<br/>samples = 4<br/>value = 289103166.5>, fillcolor="#fdf5f0"] ;
110 -> 111 ;
112 [label=<valence_% &le; 30.0<br/>squared_error = 459009555258920.0<br/>samples = 3<br/>value = 263399402.667>, fillcolor="#fdf6f1"] ;
111 -> 112 ;
113 [label=<squared_error = 0.0<br/>samples = 1<br/>value = 233671263.0>, fillcolor="#fdf7f3"] ;
112 -> 113 ;
114 [label=<speechiness_% &le; 5.0<br/>squared_error = 25692616857744.0<br/>samples = 2<br/>value = 278263472.5>, fillcolor="#fdf6f0"] ;
112 -> 114 ;
115 [label=<squared_error = 0.0<br/>samples = 1<br/>value = 273194684.0>, fillcolor="#fdf6f0"] ;
114 -> 115 ;
116 [label=<squared_error = 16.0<br/>samples = 1<br/>value = 283332261.0>, fillcolor="#fdf5f0"] ;
114 -> 116 ;
117 [label=<squared_error = -32.0<br/>samples = 1<br/>value = 366214458.0>, fillcolor="#fcf3eb"] ;
111 -> 117 ;
118 [label=<valence_% &le; 77.0<br/>squared_error = 52541220306404.0<br/>samples = 2<br/>value = 173534972.667>, fillcolor="#fef9f6"] ;
110 -> 118 ;
119 [label=<squared_error = 0.0<br/>samples = 1<br/>value = 163284000.0>, fillcolor="#fef9f6"] ;
118 -> 119 ;
120 [label=<squared_error = 0.0<br/>samples = 1<br/>value = 178660459.0>, fillcolor="#fef9f6"] ;
118 -> 120 ;
121 [label=<squared_error = -41.0<br/>samples = 1<br/>value = 31959571.0>, fillcolor="#fffefd"] ;
109 -> 121 ;
122 [label=<acousticness_% &le; 41.0<br/>squared_error = 2.8104832246914182e+17<br/>samples = 9<br/>value = 692163095.312>, fillcolor="#fae7da"] ;
42 -> 122 ;
123 [label=<squared_error = 0.0<br/>samples = 1<br/>value = 2159346687.0>, fillcolor="#f0b68c"] ;
122 -> 123 ;
124 [label=<energy_% &le; 34.0<br/>squared_error = 1.467091303338732e+17<br/>samples = 8<br/>value = 594350855.867>, fillcolor="#fbebdf"] ;
122 -> 124 ;
125 [label=<liveness_% &le; 11.5<br/>squared_error = 1.0463537700181965e+17<br/>samples = 3<br/>value = 1052618470.6>, fillcolor="#f8dbc7"] ;
124 -> 125 ;
126 [label=<liveness_% &le; 8.5<br/>squared_error = 1.5057957738867712e+16<br/>samples = 2<br/>value = 900476258.5>, fillcolor="#f9e0cf"] ;
125 -> 126 ;
127 [label=<squared_error = 0.0<br/>samples = 1<br/>value = 777765388.0>, fillcolor="#fae5d5"] ;
126 -> 127 ;
128 [label=<squared_error = 0.0<br/>samples = 1<br/>value = 1023187129.0>, fillcolor="#f8dcc8"] ;
126 -> 128 ;
129 [label=<squared_error = -512.0<br/>samples = 1<br/>value = 1661187319.0>, fillcolor="#f3c7a6"] ;
125 -> 129 ;
130 [label=<energy_% &le; 47.5<br/>squared_error = 1.0239101964866e+16<br/>samples = 5<br/>value = 365217048.5>, fillcolor="#fcf3ec"] ;
124 -> 130 ;
131 [label=<valence_% &le; 25.5<br/>squared_error = 2363775500019536.0<br/>samples = 4<br/>value = 335195382.222>, fillcolor="#fdf4ed"] ;
130 -> 131 ;
132 [label=<squared_error = 0.0<br/>samples = 1<br/>value = 411747614.0>, fillcolor="#fcf1e9"] ;
131 -> 132 ;
133 [label=<acousticness_% &le; 74.0<br/>squared_error = 886397164864800.0<br/>samples = 3<br/>value = 313323316.0>, fillcolor="#fdf4ee"] ;
131 -> 133 ;
134 [label=<speechiness_% &le; 4.0<br/>squared_error = 123574487512336.0<br/>samples = 2<br/>value = 324728550.0>, fillcolor="#fdf4ee"] ;
133 -> 134 ;
135 [label=<squared_error = 0.0<br/>samples = 1<br/>value = 319757142.0>, fillcolor="#fdf4ee"] ;
134 -> 135 ;
136 [label=<squared_error = 32.0<br/>samples = 1<br/>value = 349585590.0>, fillcolor="#fdf3ec"] ;
134 -> 136 ;
137 [label=<squared_error = -64.0<br/>samples = 1<br/>value = 244891912.0>, fillcolor="#fdf7f2"] ;
133 -> 137 ;
138 [label=<squared_error = -64.0<br/>samples = 1<br/>value = 635412045.0>, fillcolor="#fbe9dd"] ;
130 -> 138 ;
139 [label=<energy_% &le; 56.5<br/>squared_error = 6.424949531317852e+17<br/>samples = 69<br/>value = 829898843.726>, fillcolor="#f9e3d3"] ;
7 -> 139 ;
140 [label=<danceability_% &le; 49.5<br/>squared_error = 8.32200268303614e+17<br/>samples = 2<br/>value = 1964336281.6>, fillcolor="#f1bc96"] ;
139 -> 140 ;
141 [label=<squared_error = 0.0<br/>samples = 1<br/>value = 2420461338.0>, fillcolor="#eead7e"] ;
140 -> 141 ;
142 [label=<squared_error = 1472.0<br/>samples = 1<br/>value = 139836056.0>, fillcolor="#fefaf8"] ;
140 -> 142 ;
143 [label=<speechiness_% &le; 6.5<br/>squared_error = 5.740080484555347e+17<br/>samples = 67<br/>value = 779254315.25>, fillcolor="#fae5d5"] ;
139 -> 143 ;
144 [label=<danceability_% &le; 59.5<br/>squared_error = 4.2483702890952186e+17<br/>samples = 63<br/>value = 732385618.736>, fillcolor="#fae6d8"] ;
143 -> 144 ;
145 [label=<liveness_% &le; 23.5<br/>squared_error = 4.474587618476288e+17<br/>samples = 57<br/>value = 788075711.394>, fillcolor="#f9e4d5"] ;
144 -> 145 ;
146 [label=<danceability_% &le; 58.5<br/>squared_error = 3.45918788115845e+17<br/>samples = 43<br/>value = 681399969.74>, fillcolor="#fae8db"] ;
145 -> 146 ;
147 [label=<acousticness_% &le; 50.0<br/>squared_error = 2.4766246894231853e+17<br/>samples = 39<br/>value = 606272744.758>, fillcolor="#fbeadf"] ;
146 -> 147 ;
148 [label=<danceability_% &le; 33.0<br/>squared_error = 1.8425556709944986e+17<br/>samples = 36<br/>value = 546771531.803>, fillcolor="#fbece2"] ;
147 -> 148 ;
149 [label=<squared_error = 0.0<br/>samples = 1<br/>value = 1284942608.0>, fillcolor="#f6d3ba"] ;
148 -> 149 ;
150 [label=<acousticness_% &le; 10.5<br/>squared_error = 1.5626403557951104e+17<br/>samples = 35<br/>value = 494970052.772>, fillcolor="#fceee5"] ;
148 -> 150 ;
151 [label=<valence_% &le; 61.0<br/>squared_error = 1.9801161818883232e+17<br/>samples = 23<br/>value = 597094832.514>, fillcolor="#fbebdf"] ;
150 -> 151 ;
152 [label=<valence_% &le; 43.0<br/>squared_error = 1.2379694327115744e+17<br/>samples = 20<br/>value = 540663763.969>, fillcolor="#fbede2"] ;
151 -> 152 ;
153 [label=<valence_% &le; 41.5<br/>squared_error = 1.4078066514229357e+17<br/>samples = 14<br/>value = 627355209.652>, fillcolor="#fbeade"] ;
152 -> 153 ;
154 [label=<danceability_% &le; 51.0<br/>squared_error = 1.0287648080766675e+17<br/>samples = 13<br/>value = 583466365.136>, fillcolor="#fbebe0"] ;
153 -> 154 ;
155 [label=<danceability_% &le; 43.0<br/>squared_error = 7.801282806760016e+16<br/>samples = 6<br/>value = 384472640.667>, fillcolor="#fcf2eb"] ;
154 -> 155 ;
156 [label=<danceability_% &le; 38.0<br/>squared_error = 569223178984832.0<br/>samples = 2<br/>value = 848278616.5>, fillcolor="#f9e2d2"] ;
155 -> 156 ;
157 [label=<squared_error = 0.0<br/>samples = 1<br/>value = 824420218.0>, fillcolor="#f9e3d3"] ;
156 -> 157 ;
158 [label=<squared_error = 0.0<br/>samples = 1<br/>value = 872137015.0>, fillcolor="#f9e1d0"] ;
156 -> 158 ;
159 [label=<liveness_% &le; 17.5<br/>squared_error = 2.1117374404412936e+16<br/>samples = 4<br/>value = 251956647.571>, fillcolor="#fdf6f2"] ;
155 -> 159 ;
160 [label=<speechiness_% &le; 3.5<br/>squared_error = 3002310964723008.0<br/>samples = 3<br/>value = 131327770.0>, fillcolor="#fefbf8"] ;
159 -> 160 ;
161 [label=<squared_error = 0.0<br/>samples = 1<br/>value = 39228929.0>, fillcolor="#fffefd"] ;
160 -> 161 ;
162 [label=<liveness_% &le; 10.5<br/>squared_error = 233216169167000.0<br/>samples = 2<br/>value = 162027383.667>, fillcolor="#fefaf6"] ;
160 -> 162 ;
163 [label=<squared_error = 0.0<br/>samples = 1<br/>value = 140430339.0>, fillcolor="#fefaf8"] ;
162 -> 163 ;
164 [label=<squared_error = 0.0<br/>samples = 1<br/>value = 172825906.0>, fillcolor="#fef9f6"] ;
162 -> 164 ;
165 [label=<squared_error = 32.0<br/>samples = 1<br/>value = 412795151.0>, fillcolor="#fcf1e9"] ;
159 -> 165 ;
166 [label=<energy_% &le; 63.0<br/>squared_error = 7.369626719630637e+16<br/>samples = 7<br/>value = 721231251.308>, fillcolor="#fae7d9"] ;
154 -> 166 ;
167 [label=<acousticness_% &le; 3.0<br/>squared_error = 2.421473149637424e+16<br/>samples = 3<br/>value = 458369271.0>, fillcolor="#fcefe7"] ;
166 -> 167 ;
168 [label=<energy_% &le; 58.5<br/>squared_error = 8441014155000064.0<br/>samples = 2<br/>value = 316968336.0>, fillcolor="#fdf4ee"] ;
167 -> 168 ;
169 [label=<squared_error = 0.0<br/>samples = 1<br/>value = 408843328.0>, fillcolor="#fcf1e9"] ;
168 -> 169 ;
170 [label=<squared_error = 0.0<br/>samples = 1<br/>value = 225093344.0>, fillcolor="#fdf7f3"] ;
168 -> 170 ;
171 [label=<squared_error = 0.0<br/>samples = 1<br/>value = 599770206.0>, fillcolor="#fbebdf"] ;
167 -> 171 ;
172 [label=<valence_% &le; 18.0<br/>squared_error = 5.13298648413792e+16<br/>samples = 4<br/>value = 838058798.111>, fillcolor="#f9e3d2"] ;
166 -> 172 ;
173 [label=<squared_error = 0.0<br/>samples = 1<br/>value = 611994237.0>, fillcolor="#fbeade"] ;
172 -> 173 ;
174 [label=<danceability_% &le; 56.5<br/>squared_error = 3.866590791929946e+16<br/>samples = 3<br/>value = 951091078.667>, fillcolor="#f8dfcc"] ;
172 -> 174 ;
175 [label=<liveness_% &le; 9.5<br/>squared_error = 8722304898587648.0<br/>samples = 2<br/>value = 1030334148.4>, fillcolor="#f8dcc8"] ;
174 -> 175 ;
176 [label=<squared_error = 0.0<br/>samples = 1<br/>value = 1217120710.0>, fillcolor="#f6d6be"] ;
175 -> 176 ;
177 [label=<squared_error = 0.0<br/>samples = 1<br/>value = 983637508.0>, fillcolor="#f8deca"] ;
175 -> 177 ;
178 [label=<squared_error = 448.0<br/>samples = 1<br/>value = 554875730.0>, fillcolor="#fbece1"] ;
174 -> 178 ;
179 [label=<squared_error = -1024.0<br/>samples = 1<br/>value = 1592909789.0>, fillcolor="#f4c9aa"] ;
153 -> 179 ;
180 [label=<energy_% &le; 77.5<br/>squared_error = 1.2105958101143328e+16<br/>samples = 6<br/>value = 319118958.333>, fillcolor="#fdf4ee"] ;
152 -> 180 ;
181 [label=<energy_% &le; 74.5<br/>squared_error = 2311017655572032.0<br/>samples = 2<br/>value = 418141684.0>, fillcolor="#fcf1e9"] ;
180 -> 181 ;
182 [label=<squared_error = 0.0<br/>samples = 1<br/>value = 466214729.0>, fillcolor="#fcefe6"] ;
181 -> 182 ;
183 [label=<squared_error = -32.0<br/>samples = 1<br/>value = 370068639.0>, fillcolor="#fcf2eb"] ;
181 -> 183 ;
184 [label=<energy_% &le; 86.5<br/>squared_error = 5821990171824191.0<br/>samples = 4<br/>value = 239900777.8>, fillcolor="#fdf7f2"] ;
180 -> 184 ;
185 [label=<valence_% &le; 53.0<br/>squared_error = 508182303834696.0<br/>samples = 3<br/>value = 203105926.5>, fillcolor="#fef8f4"] ;
184 -> 185 ;
186 [label=<danceability_% &le; 53.5<br/>squared_error = 50736035653328.0<br/>samples = 2<br/>value = 190587536.333>, fillcolor="#fef9f5"] ;
185 -> 186 ;
187 [label=<squared_error = 0.0<br/>samples = 1<br/>value = 200660871.0>, fillcolor="#fef8f4"] ;
186 -> 187 ;
188 [label=<squared_error = 0.0<br/>samples = 1<br/>value = 185550869.0>, fillcolor="#fef9f5"] ;
186 -> 188 ;
189 [label=<squared_error = 16.0<br/>samples = 1<br/>value = 240661097.0>, fillcolor="#fdf7f2"] ;
185 -> 189 ;
190 [label=<squared_error = 32.0<br/>samples = 1<br/>value = 387080183.0>, fillcolor="#fcf2ea"] ;
184 -> 190 ;
191 [label=<acousticness_% &le; 5.0<br/>squared_error = 5.933457776602678e+17<br/>samples = 3<br/>value = 1199026230.333>, fillcolor="#f7d6bf"] ;
151 -> 191 ;
192 [label=<energy_% &le; 84.0<br/>squared_error = 6.04073760737536e+16<br/>samples = 2<br/>value = 1724894176.5>, fillcolor="#f3c4a3"] ;
191 -> 192 ;
193 [label=<squared_error = 0.0<br/>samples = 1<br/>value = 1970673297.0>, fillcolor="#f1bc96"] ;
192 -> 193 ;
194 [label=<squared_error = 256.0<br/>samples = 1<br/>value = 1479115056.0>, fillcolor="#f5cdb0"] ;
192 -> 194 ;
195 [label=<squared_error = 124.0<br/>samples = 1<br/>value = 147290338.0>, fillcolor="#fefaf7"] ;
191 -> 195 ;
196 [label=<danceability_% &le; 46.0<br/>squared_error = 4.685818324306533e+16<br/>samples = 12<br/>value = 332498812.273>, fillcolor="#fdf4ed"] ;
150 -> 196 ;
197 [label=<acousticness_% &le; 30.0<br/>squared_error = 6.026539426593254e+16<br/>samples = 3<br/>value = 539830723.0>, fillcolor="#fbede2"] ;
196 -> 197 ;
198 [label=<acousticness_% &le; 17.5<br/>squared_error = 2390360445828224.0<br/>samples = 2<br/>value = 737873105.667>, fillcolor="#fae6d8"] ;
197 -> 198 ;
199 [label=<squared_error = 0.0<br/>samples = 1<br/>value = 703301727.0>, fillcolor="#fae7d9"] ;
198 -> 199 ;
200 [label=<squared_error = 128.0<br/>samples = 1<br/>value = 807015863.0>, fillcolor="#f9e4d4"] ;
198 -> 200 ;
201 [label=<squared_error = 24.0<br/>samples = 1<br/>value = 242767149.0>, fillcolor="#fdf7f2"] ;
197 -> 201 ;
202 [label=<energy_% &le; 65.5<br/>squared_error = 2.6553234213362896e+16<br/>samples = 9<br/>value = 271518838.529>, fillcolor="#fdf6f1"] ;
196 -> 202 ;
203 [label=<valence_% &le; 64.0<br/>squared_error = 4446576152277728.5<br/>samples = 3<br/>value = 454014857.667>, fillcolor="#fcf0e7"] ;
202 -> 203 ;
204 [label=<squared_error = 0.0<br/>samples = 1<br/>value = 540539717.0>, fillcolor="#fbede2"] ;
203 -> 204 ;
205 [label=<acousticness_% &le; 29.5<br/>squared_error = 1054950766426816.0<br/>samples = 2<br/>value = 410752428.0>, fillcolor="#fcf1e9"] ;
203 -> 205 ;
206 [label=<squared_error = 0.0<br/>samples = 1<br/>value = 354495408.0>, fillcolor="#fdf3ec"] ;
205 -> 206 ;
207 [label=<squared_error = 0.0<br/>samples = 1<br/>value = 429504768.0>, fillcolor="#fcf0e8"] ;
205 -> 207 ;
208 [label=<acousticness_% &le; 42.0<br/>squared_error = 1.0536293204562928e+16<br/>samples = 6<br/>value = 171975555.364>, fillcolor="#fef9f6"] ;
202 -> 208 ;
209 [label=<energy_% &le; 78.5<br/>squared_error = 4349728356549044.0<br/>samples = 4<br/>value = 139853314.333>, fillcolor="#fefaf8"] ;
208 -> 209 ;
210 [label=<speechiness_% &le; 3.5<br/>squared_error = 2927754237241016.0<br/>samples = 3<br/>value = 164187805.857>, fillcolor="#fef9f6"] ;
209 -> 210 ;
211 [label=<squared_error = 0.0<br/>samples = 1<br/>value = 32526947.0>, fillcolor="#fffefd"] ;
210 -> 211 ;
212 [label=<instrumentalness_% &le; 1.0<br/>squared_error = 45100157753316.0<br/>samples = 2<br/>value = 186131282.333>, fillcolor="#fef9f5"] ;
210 -> 212 ;
213 [label=<squared_error = 0.0<br/>samples = 1<br/>value = 181382590.0>, fillcolor="#fef9f5"] ;
212 -> 213 ;
214 [label=<squared_error = 0.0<br/>samples = 1<br/>value = 195628667.0>, fillcolor="#fef8f5"] ;
212 -> 214 ;
215 [label=<squared_error = -4.0<br/>samples = 1<br/>value = 54682594.0>, fillcolor="#fffdfc"] ;
209 -> 215 ;
216 [label=<acousticness_% &le; 47.5<br/>squared_error = 1.28378353926056e+16<br/>samples = 2<br/>value = 316525640.0>, fillcolor="#fdf4ee"] ;
208 -> 216 ;
217 [label=<squared_error = 0.0<br/>samples = 1<br/>value = 429829812.0>, fillcolor="#fcf0e8"] ;
216 -> 217 ;
218 [label=<squared_error = -16.0<br/>samples = 1<br/>value = 203221468.0>, fillcolor="#fef8f4"] ;
216 -> 218 ;
219 [label=<danceability_% &le; 54.5<br/>squared_error = 4.5108156642334464e+17<br/>samples = 3<br/>value = 1332187542.8>, fillcolor="#f6d2b8"] ;
147 -> 219 ;
220 [label=<energy_% &le; 60.5<br/>squared_error = 3.54000869435488e+16<br/>samples = 2<br/>value = 796873607.333>, fillcolor="#f9e4d4"] ;
219 -> 220 ;
221 [label=<squared_error = 0.0<br/>samples = 1<br/>value = 663832097.0>, fillcolor="#fae8dc"] ;
220 -> 221 ;
222 [label=<squared_error = 0.0<br/>samples = 1<br/>value = 1062956628.0>, fillcolor="#f8dbc6"] ;
220 -> 222 ;
223 [label=<squared_error = 0.0<br/>samples = 1<br/>value = 2135158446.0>, fillcolor="#f0b68d"] ;
219 -> 223 ;
224 [label=<energy_% &le; 70.5<br/>squared_error = 7.17370746860264e+17<br/>samples = 4<br/>value = 1389742376.714>, fillcolor="#f5d0b5"] ;
146 -> 224 ;
225 [label=<valence_% &le; 60.5<br/>squared_error = 9.310983629660096e+16<br/>samples = 3<br/>value = 879501758.6>, fillcolor="#f9e1d0"] ;
224 -> 225 ;
226 [label=<valence_% &le; 39.5<br/>squared_error = 2.32430565042304e+16<br/>samples = 2<br/>value = 524933118.5>, fillcolor="#fbede3"] ;
225 -> 226 ;
227 [label=<squared_error = 0.0<br/>samples = 1<br/>value = 677389855.0>, fillcolor="#fae8db"] ;
226 -> 227 ;
228 [label=<squared_error = -64.0<br/>samples = 1<br/>value = 372476382.0>, fillcolor="#fcf2eb"] ;
226 -> 228 ;
229 [label=<squared_error = -256.0<br/>samples = 1<br/>value = 1115880852.0>, fillcolor="#f7d9c3"] ;
225 -> 229 ;
230 [label=<squared_error = 0.0<br/>samples = 1<br/>value = 2665343922.0>, fillcolor="#eca471"] ;
224 -> 230 ;
231 [label=<valence_% &le; 54.5<br/>squared_error = 6.233616716918303e+17<br/>samples = 14<br/>value = 1158900908.571>, fillcolor="#f7d8c1"] ;
145 -> 231 ;
232 [label=<valence_% &le; 42.0<br/>squared_error = 4.0925532519856614e+17<br/>samples = 11<br/>value = 913640030.765>, fillcolor="#f9e0ce"] ;
231 -> 232 ;
233 [label=<acousticness_% &le; 43.0<br/>squared_error = 7.944915144664678e+16<br/>samples = 5<br/>value = 1434675419.0>, fillcolor="#f5ceb2"] ;
232 -> 233 ;
234 [label=<valence_% &le; 31.0<br/>squared_error = 2.367633663801805e+16<br/>samples = 4<br/>value = 1520118030.5>, fillcolor="#f4cbae"] ;
233 -> 234 ;
235 [label=<acousticness_% &le; 10.5<br/>squared_error = 1874409570678016.0<br/>samples = 2<br/>value = 1414449695.0>, fillcolor="#f5cfb3"] ;
234 -> 235 ;
236 [label=<squared_error = 0.0<br/>samples = 1<br/>value = 1361425037.0>, fillcolor="#f5d1b6"] ;
235 -> 236 ;
237 [label=<squared_error = 0.0<br/>samples = 1<br/>value = 1449799467.0>, fillcolor="#f5ceb2"] ;
235 -> 237 ;
238 [label=<energy_% &le; 80.5<br/>squared_error = 1.0387116739849216e+16<br/>samples = 2<br/>value = 1696231923.0>, fillcolor="#f3c5a4"] ;
234 -> 238 ;
239 [label=<squared_error = 0.0<br/>samples = 1<br/>value = 1840364617.0>, fillcolor="#f2c09d"] ;
238 -> 239 ;
240 [label=<squared_error = 0.0<br/>samples = 1<br/>value = 1624165576.0>, fillcolor="#f4c8a8"] ;
238 -> 240 ;
241 [label=<squared_error = -384.0<br/>samples = 1<br/>value = 751134527.0>, fillcolor="#fae5d7"] ;
233 -> 241 ;
242 [label=<liveness_% &le; 44.5<br/>squared_error = 1.312854738506308e+17<br/>samples = 6<br/>value = 327475219.0>, fillcolor="#fdf4ee"] ;
232 -> 242 ;
243 [label=<acousticness_% &le; 4.5<br/>squared_error = 505038693040548.5<br/>samples = 4<br/>value = 48049503.2>, fillcolor="#fffdfd"] ;
242 -> 243 ;
244 [label=<squared_error = 0.0<br/>samples = 1<br/>value = 14780425.0>, fillcolor="#fffffe"] ;
243 -> 244 ;
245 [label=<liveness_% &le; 33.0<br/>squared_error = 285413502463900.5<br/>samples = 3<br/>value = 56366772.75>, fillcolor="#fffdfc"] ;
243 -> 245 ;
246 [label=<squared_error = 0.0<br/>samples = 1<br/>value = 39893489.0>, fillcolor="#fffefd"] ;
245 -> 246 ;
247 [label=<danceability_% &le; 43.0<br/>squared_error = 28088849911773.0<br/>samples = 2<br/>value = 72840056.5>, fillcolor="#fefdfb"] ;
245 -> 247 ;
248 [label=<squared_error = 0.0<br/>samples = 1<br/>value = 78139948.0>, fillcolor="#fefcfb"] ;
247 -> 248 ;
249 [label=<squared_error = -1.0<br/>samples = 1<br/>value = 67540165.0>, fillcolor="#fffdfb"] ;
247 -> 249 ;
250 [label=<danceability_% &le; 51.0<br/>squared_error = 2236285111759744.0<br/>samples = 2<br/>value = 793184745.333>, fillcolor="#f9e4d5"] ;
242 -> 250 ;
251 [label=<squared_error = 0.0<br/>samples = 1<br/>value = 826623384.0>, fillcolor="#f9e3d3"] ;
250 -> 251 ;
252 [label=<squared_error = -128.0<br/>samples = 1<br/>value = 726307468.0>, fillcolor="#fae6d8"] ;
250 -> 252 ;
253 [label=<energy_% &le; 83.5<br/>squared_error = 1.911521035906345e+17<br/>samples = 3<br/>value = 2201259639.25>, fillcolor="#f0b489"] ;
231 -> 253 ;
254 [label=<danceability_% &le; 53.5<br/>squared_error = 8073678021170176.0<br/>samples = 2<br/>value = 2449652369.333>, fillcolor="#eeac7c"] ;
253 -> 254 ;
255 [label=<squared_error = 0.0<br/>samples = 1<br/>value = 2513188493.0>, fillcolor="#edaa79"] ;
254 -> 255 ;
256 [label=<squared_error = -1024.0<br/>samples = 1<br/>value = 2322580122.0>, fillcolor="#efb083"] ;
254 -> 256 ;
257 [label=<squared_error = 1280.0<br/>samples = 1<br/>value = 1456081449.0>, fillcolor="#f5cdb1"] ;
253 -> 257 ;
258 [label=<liveness_% &le; 15.5<br/>squared_error = 3.3034743872271056e+16<br/>samples = 6<br/>value = 296146559.583>, fillcolor="#fdf5ef"] ;
144 -> 258 ;
259 [label=<squared_error = 0.0<br/>samples = 1<br/>value = 786181836.0>, fillcolor="#f9e4d5"] ;
258 -> 259 ;
260 [label=<liveness_% &le; 28.5<br/>squared_error = 1.2222903516912536e+16<br/>samples = 5<br/>value = 251597898.091>, fillcolor="#fdf6f2"] ;
258 -> 260 ;
261 [label=<squared_error = 0.0<br/>samples = 1<br/>value = 403097450.0>, fillcolor="#fcf1ea"] ;
260 -> 261 ;
262 [label=<energy_% &le; 80.0<br/>squared_error = 4971808436604336.0<br/>samples = 4<br/>value = 194785566.125>, fillcolor="#fef8f5"] ;
260 -> 262 ;
263 [label=<energy_% &le; 65.5<br/>squared_error = 498418102261792.0<br/>samples = 3<br/>value = 233934831.167>, fillcolor="#fdf7f3"] ;
262 -> 263 ;
264 [label=<squared_error = 0.0<br/>samples = 1<br/>value = 185408548.0>, fillcolor="#fef9f5"] ;
263 -> 264 ;
265 [label=<acousticness_% &le; 5.0<br/>squared_error = 32949684800976.0<br/>samples = 2<br/>value = 243640087.8>, fillcolor="#fdf7f2"] ;
263 -> 265 ;
266 [label=<squared_error = 0.0<br/>samples = 1<br/>value = 255120451.0>, fillcolor="#fdf6f1"] ;
265 -> 266 ;
267 [label=<squared_error = 8.0<br/>samples = 1<br/>value = 240769997.0>, fillcolor="#fdf7f2"] ;
265 -> 267 ;
268 [label=<squared_error = 7.0<br/>samples = 1<br/>value = 77337771.0>, fillcolor="#fefcfb"] ;
262 -> 268 ;
269 [label=<valence_% &le; 38.5<br/>squared_error = 2.484948221769232e+18<br/>samples = 4<br/>value = 1607267953.667>, fillcolor="#f4c8a9"] ;
143 -> 269 ;
270 [label=<squared_error = 0.0<br/>samples = 1<br/>value = 3703895074.0>, fillcolor="#e58139"] ;
269 -> 270 ;
271 [label=<danceability_% &le; 48.0<br/>squared_error = 4.3053837136591334e+17<br/>samples = 3<br/>value = 558954393.5>, fillcolor="#fbece1"] ;
269 -> 271 ;
272 [label=<liveness_% &le; 25.5<br/>squared_error = 5295330854449089.0<br/>samples = 2<br/>value = 181874882.333>, fillcolor="#fef9f5"] ;
271 -> 272 ;
273 [label=<squared_error = 0.0<br/>samples = 1<br/>value = 284785823.0>, fillcolor="#fdf5f0"] ;
272 -> 273 ;
274 [label=<squared_error = 0.0<br/>samples = 1<br/>value = 130419412.0>, fillcolor="#fefbf8"] ;
272 -> 274 ;
275 [label=<squared_error = 0.0<br/>samples = 1<br/>value = 1690192927.0>, fillcolor="#f3c6a5"] ;
271 -> 275 ;
276 [label=<valence_% &le; 13.0<br/>squared_error = 2.052109878478855e+17<br/>samples = 49<br/>value = 371425481.605>, fillcolor="#fcf2eb"] ;
6 -> 276 ;
277 [label=<energy_% &le; 71.0<br/>squared_error = 1.4073919404411904e+16<br/>samples = 2<br/>value = 1863485196.667>, fillcolor="#f2c09b"] ;
276 -> 277 ;
278 [label=<squared_error = 0.0<br/>samples = 1<br/>value = 1947371785.0>, fillcolor="#f1bd97"] ;
277 -> 278 ;
279 [label=<squared_error = 512.0<br/>samples = 1<br/>value = 1695712020.0>, fillcolor="#f3c5a4"] ;
277 -> 279 ;
280 [label=<liveness_% &le; 32.5<br/>squared_error = 1.1781669209157827e+17<br/>samples = 47<br/>value = 310107959.068>, fillcolor="#fdf4ee"] ;
276 -> 280 ;
281 [label=<instrumentalness_% &le; 3.0<br/>squared_error = 3.686476037763956e+16<br/>samples = 38<br/>value = 233486011.14>, fillcolor="#fdf7f3"] ;
280 -> 281 ;
282 [label=<acousticness_% &le; 53.5<br/>squared_error = 3.37190556639768e+16<br/>samples = 35<br/>value = 218065160.426>, fillcolor="#fdf8f3"] ;
281 -> 282 ;
283 [label=<liveness_% &le; 11.5<br/>squared_error = 3.6421680650663416e+16<br/>samples = 28<br/>value = 245456432.818>, fillcolor="#fdf7f2"] ;
282 -> 283 ;
284 [label=<acousticness_% &le; 25.0<br/>squared_error = 4.916081461735326e+16<br/>samples = 11<br/>value = 351227957.667>, fillcolor="#fdf3ec"] ;
283 -> 284 ;
285 [label=<acousticness_% &le; 2.0<br/>squared_error = 1.615292869256312e+16<br/>samples = 7<br/>value = 241725613.455>, fillcolor="#fdf7f2"] ;
284 -> 285 ;
286 [label=<danceability_% &le; 56.0<br/>squared_error = 4.178890582079917e+16<br/>samples = 2<br/>value = 414462182.5>, fillcolor="#fcf1e9"] ;
285 -> 286 ;
287 [label=<squared_error = 0.0<br/>samples = 1<br/>value = 618885532.0>, fillcolor="#fbeade"] ;
286 -> 287 ;
288 [label=<squared_error = 32.0<br/>samples = 1<br/>value = 210038833.0>, fillcolor="#fef8f4"] ;
286 -> 288 ;
289 [label=<danceability_% &le; 51.5<br/>squared_error = 2351917845756456.0<br/>samples = 5<br/>value = 203339709.222>, fillcolor="#fef8f4"] ;
285 -> 289 ;
290 [label=<speechiness_% &le; 20.5<br/>squared_error = 135930835580048.0<br/>samples = 2<br/>value = 251472428.0>, fillcolor="#fdf6f2"] ;
289 -> 290 ;
291 [label=<squared_error = 0.0<br/>samples = 1<br/>value = 244741137.0>, fillcolor="#fdf7f2"] ;
290 -> 291 ;
292 [label=<squared_error = 16.0<br/>samples = 1<br/>value = 271666301.0>, fillcolor="#fdf6f1"] ;
290 -> 292 ;
293 [label=<speechiness_% &le; 39.5<br/>squared_error = 788575045503056.0<br/>samples = 3<br/>value = 164833534.2>, fillcolor="#fef9f6"] ;
289 -> 293 ;
294 [label=<speechiness_% &le; 31.5<br/>squared_error = 10383046508802.0<br/>samples = 2<br/>value = 130531453.5>, fillcolor="#fefbf8"] ;
293 -> 294 ;
295 [label=<squared_error = 0.0<br/>samples = 1<br/>value = 133753727.0>, fillcolor="#fefaf8"] ;
294 -> 295 ;
296 [label=<squared_error = 0.0<br/>samples = 1<br/>value = 127309180.0>, fillcolor="#fefbf8"] ;
294 -> 296 ;
297 [label=<squared_error = 0.0<br/>samples = 1<br/>value = 187701588.0>, fillcolor="#fef9f5"] ;
293 -> 297 ;
298 [label=<energy_% &le; 50.5<br/>squared_error = 5.257787717643021e+16<br/>samples = 4<br/>value = 523303070.0>, fillcolor="#fbede3"] ;
284 -> 298 ;
299 [label=<danceability_% &le; 56.0<br/>squared_error = 1083287042517200.0<br/>samples = 2<br/>value = 375712414.75>, fillcolor="#fcf2eb"] ;
298 -> 299 ;
300 [label=<squared_error = 0.0<br/>samples = 1<br/>value = 356709897.0>, fillcolor="#fdf3ec"] ;
299 -> 300 ;
301 [label=<squared_error = 0.0<br/>samples = 1<br/>value = 432719968.0>, fillcolor="#fcf0e8"] ;
299 -> 301 ;
302 [label=<acousticness_% &le; 34.0<br/>squared_error = 5.34679926350382e+16<br/>samples = 2<br/>value = 720090610.333>, fillcolor="#fae7d9"] ;
298 -> 302 ;
303 [label=<squared_error = 0.0<br/>samples = 1<br/>value = 556585270.0>, fillcolor="#fbece1"] ;
302 -> 303 ;
304 [label=<squared_error = 128.0<br/>samples = 1<br/>value = 1047101291.0>, fillcolor="#f8dbc7"] ;
302 -> 304 ;
305 [label=<energy_% &le; 89.5<br/>squared_error = 1.4494896408533844e+16<br/>samples = 17<br/>value = 172229992.538>, fillcolor="#fef9f6"] ;
283 -> 305 ;
306 [label=<valence_% &le; 64.0<br/>squared_error = 3816663676205198.0<br/>samples = 14<br/>value = 123006067.619>, fillcolor="#fefbf8"] ;
305 -> 306 ;
307 [label=<liveness_% &le; 21.0<br/>squared_error = 3214873574978668.0<br/>samples = 12<br/>value = 135867174.0>, fillcolor="#fefaf8"] ;
306 -> 307 ;
308 [label=<danceability_% &le; 55.5<br/>squared_error = 2626420839976064.0<br/>samples = 8<br/>value = 169905112.5>, fillcolor="#fef9f6"] ;
307 -> 308 ;
309 [label=<valence_% &le; 23.0<br/>squared_error = 1750269334918024.0<br/>samples = 6<br/>value = 137589016.167>, fillcolor="#fefaf8"] ;
308 -> 309 ;
310 [label=<squared_error = 0.0<br/>samples = 1<br/>value = 51985779.0>, fillcolor="#fffdfc"] ;
309 -> 310 ;
311 [label=<liveness_% &le; 13.5<br/>squared_error = 341623790682604.06<br/>samples = 5<br/>value = 154709663.6>, fillcolor="#fefaf7"] ;
309 -> 311 ;
312 [label=<valence_% &le; 43.0<br/>squared_error = 3735031660128.0<br/>samples = 2<br/>value = 133678798.0>, fillcolor="#fefaf8"] ;
311 -> 312 ;
313 [label=<squared_error = 0.0<br/>samples = 1<br/>value = 135611421.0>, fillcolor="#fefaf8"] ;
312 -> 313 ;
314 [label=<squared_error = 0.0<br/>samples = 1<br/>value = 131746175.0>, fillcolor="#fefbf8"] ;
312 -> 314 ;
315 [label=<speechiness_% &le; 27.5<br/>squared_error = 75441510158412.0<br/>samples = 3<br/>value = 168730240.667>, fillcolor="#fef9f6"] ;
311 -> 315 ;
316 [label=<speechiness_% &le; 11.0<br/>squared_error = 8166540736656.0<br/>samples = 2<br/>value = 174646200.0>, fillcolor="#fef9f6"] ;
315 -> 316 ;
317 [label=<squared_error = 0.0<br/>samples = 1<br/>value = 171788484.0>, fillcolor="#fef9f6"] ;
316 -> 317 ;
318 [label=<squared_error = 0.0<br/>samples = 1<br/>value = 177503916.0>, fillcolor="#fef9f6"] ;
316 -> 318 ;
319 [label=<squared_error = -4.0<br/>samples = 1<br/>value = 156898322.0>, fillcolor="#fefaf7"] ;
315 -> 319 ;
320 [label=<speechiness_% &le; 9.5<br/>squared_error = 24410289218336.0<br/>samples = 2<br/>value = 218379257.0>, fillcolor="#fdf8f3"] ;
308 -> 320 ;
321 [label=<squared_error = 0.0<br/>samples = 1<br/>value = 213438580.0>, fillcolor="#fef8f4"] ;
320 -> 321 ;
322 [label=<squared_error = -8.0<br/>samples = 1<br/>value = 223319934.0>, fillcolor="#fdf7f3"] ;
320 -> 322 ;
323 [label=<valence_% &le; 41.5<br/>squared_error = 691929707491905.0<br/>samples = 4<br/>value = 93319750.875>, fillcolor="#fefcfa"] ;
307 -> 323 ;
324 [label=<speechiness_% &le; 25.5<br/>squared_error = 76371982418342.5<br/>samples = 2<br/>value = 48405351.5>, fillcolor="#fffdfc"] ;
323 -> 324 ;
325 [label=<squared_error = 0.0<br/>samples = 1<br/>value = 39666245.0>, fillcolor="#fffefd"] ;
324 -> 325 ;
326 [label=<squared_error = 0.0<br/>samples = 1<br/>value = 57144458.0>, fillcolor="#fffdfc"] ;
324 -> 326 ;
327 [label=<valence_% &le; 54.0<br/>squared_error = 536384197762.0<br/>samples = 2<br/>value = 108291217.333>, fillcolor="#fefbf9"] ;
323 -> 327 ;
328 [label=<squared_error = 0.0<br/>samples = 1<br/>value = 107255472.0>, fillcolor="#fefbf9"] ;
327 -> 328 ;
329 [label=<squared_error = 0.0<br/>samples = 1<br/>value = 108809090.0>, fillcolor="#fefbf9"] ;
327 -> 329 ;
330 [label=<speechiness_% &le; 18.5<br/>squared_error = 480265875193059.25<br/>samples = 2<br/>value = 45839429.333>, fillcolor="#fffdfd"] ;
306 -> 330 ;
331 [label=<squared_error = 0.0<br/>samples = 1<br/>value = 30343206.0>, fillcolor="#fffefd"] ;
330 -> 331 ;
332 [label=<squared_error = 0.0<br/>samples = 1<br/>value = 76831876.0>, fillcolor="#fefcfb"] ;
330 -> 332 ;
333 [label=<speechiness_% &le; 27.0<br/>squared_error = 6425267791443616.0<br/>samples = 3<br/>value = 378970477.2>, fillcolor="#fcf2eb"] ;
305 -> 333 ;
334 [label=<speechiness_% &le; 17.0<br/>squared_error = 3130126189009600.0<br/>samples = 2<br/>value = 323911768.667>, fillcolor="#fdf4ee"] ;
333 -> 334 ;
335 [label=<squared_error = 0.0<br/>samples = 1<br/>value = 244790012.0>, fillcolor="#fdf7f2"] ;
334 -> 335 ;
336 [label=<squared_error = 16.0<br/>samples = 1<br/>value = 363472647.0>, fillcolor="#fcf3ec"] ;
334 -> 336 ;
337 [label=<squared_error = 0.0<br/>samples = 1<br/>value = 461558540.0>, fillcolor="#fcefe6"] ;
333 -> 337 ;
338 [label=<energy_% &le; 51.5<br/>squared_error = 4000810076937502.0<br/>samples = 7<br/>value = 97543561.9>, fillcolor="#fefcfa"] ;
282 -> 338 ;
339 [label=<energy_% &le; 36.5<br/>squared_error = 412428456664878.5<br/>samples = 4<br/>value = 52413726.0>, fillcolor="#fffdfc"] ;
338 -> 339 ;
340 [label=<squared_error = 0.0<br/>samples = 1<br/>value = 93587665.0>, fillcolor="#fefcfa"] ;
339 -> 340 ;
341 [label=<speechiness_% &le; 35.5<br/>squared_error = 88043767331681.25<br/>samples = 3<br/>value = 44178938.2>, fillcolor="#fffefd"] ;
339 -> 341 ;
342 [label=<liveness_% &le; 10.5<br/>squared_error = 13684322631027.0<br/>samples = 2<br/>value = 39788713.0>, fillcolor="#fffefd"] ;
341 -> 342 ;
343 [label=<squared_error = 0.0<br/>samples = 1<br/>value = 41924466.0>, fillcolor="#fffefd"] ;
342 -> 343 ;
344 [label=<squared_error = 0.0<br/>samples = 1<br/>value = 33381454.0>, fillcolor="#fffefd"] ;
342 -> 344 ;
345 [label=<squared_error = -1.0<br/>samples = 1<br/>value = 61739839.0>, fillcolor="#fffdfc"] ;
341 -> 345 ;
346 [label=<energy_% &le; 64.5<br/>squared_error = 1745749675992820.0<br/>samples = 3<br/>value = 165238315.75>, fillcolor="#fef9f6"] ;
338 -> 346 ;
347 [label=<energy_% &le; 54.0<br/>squared_error = 111025036437392.0<br/>samples = 2<br/>value = 188778925.333>, fillcolor="#fef9f5"] ;
346 -> 347 ;
348 [label=<squared_error = 0.0<br/>samples = 1<br/>value = 181328253.0>, fillcolor="#fef9f5"] ;
347 -> 348 ;
349 [label=<squared_error = 0.0<br/>samples = 1<br/>value = 203680270.0>, fillcolor="#fef8f4"] ;
347 -> 349 ;
350 [label=<squared_error = -1.0<br/>samples = 1<br/>value = 94616487.0>, fillcolor="#fefcfa"] ;
346 -> 350 ;
351 [label=<instrumentalness_% &le; 58.5<br/>squared_error = 1.2158943452818784e+16<br/>samples = 3<br/>value = 511061324.0>, fillcolor="#fbeee4"] ;
281 -> 351 ;
352 [label=<energy_% &le; 55.5<br/>squared_error = 571154648940992.0<br/>samples = 2<br/>value = 587801710.0>, fillcolor="#fbebe0"] ;
351 -> 352 ;
353 [label=<squared_error = 0.0<br/>samples = 1<br/>value = 611700552.0>, fillcolor="#fbeade"] ;
352 -> 353 ;
354 [label=<squared_error = 64.0<br/>samples = 1<br/>value = 563902868.0>, fillcolor="#fbece1"] ;
352 -> 354 ;
355 [label=<squared_error = -64.0<br/>samples = 1<br/>value = 357580552.0>, fillcolor="#fcf3ec"] ;
351 -> 355 ;
356 [label=<liveness_% &le; 33.5<br/>squared_error = 3.10782518334967e+17<br/>samples = 9<br/>value = 583073648.562>, fillcolor="#fbebe0"] ;
280 -> 356 ;
357 [label=<squared_error = 0.0<br/>samples = 1<br/>value = 2288695111.0>, fillcolor="#efb185"] ;
356 -> 357 ;
358 [label=<energy_% &le; 63.5<br/>squared_error = 1.2462884991268029e+17<br/>samples = 8<br/>value = 469365551.067>, fillcolor="#fcefe6"] ;
356 -> 358 ;
359 [label=<valence_% &le; 57.0<br/>squared_error = 1.1493340342752262e+17<br/>samples = 4<br/>value = 727697163.571>, fillcolor="#fae6d8"] ;
358 -> 359 ;
360 [label=<valence_% &le; 32.0<br/>squared_error = 4.153571094392333e+16<br/>samples = 3<br/>value = 842683659.5>, fillcolor="#f9e2d2"] ;
359 -> 360 ;
361 [label=<squared_error = 0.0<br/>samples = 1<br/>value = 1256880657.0>, fillcolor="#f6d4bc"] ;
360 -> 361 ;
362 [label=<speechiness_% &le; 17.5<br/>squared_error = 8668656475584512.0<br/>samples = 2<br/>value = 759844260.0>, fillcolor="#fae5d6"] ;
360 -> 362 ;
363 [label=<squared_error = 0.0<br/>samples = 1<br/>value = 806397070.0>, fillcolor="#f9e4d4"] ;
362 -> 363 ;
364 [label=<squared_error = 0.0<br/>samples = 1<br/>value = 573633020.0>, fillcolor="#fbece0"] ;
362 -> 364 ;
365 [label=<squared_error = -144.0<br/>samples = 1<br/>value = 37778188.0>, fillcolor="#fffefd"] ;
359 -> 365 ;
366 [label=<danceability_% &le; 47.0<br/>squared_error = 2.362489196176212e+16<br/>samples = 4<br/>value = 243325390.125>, fillcolor="#fdf7f2"] ;
358 -> 366 ;
367 [label=<valence_% &le; 39.5<br/>squared_error = 4939618839508224.0<br/>samples = 2<br/>value = 385627254.75>, fillcolor="#fcf2ea"] ;
366 -> 367 ;
368 [label=<squared_error = 0.0<br/>samples = 1<br/>value = 426204830.0>, fillcolor="#fcf1e8"] ;
367 -> 368 ;
369 [label=<squared_error = 0.0<br/>samples = 1<br/>value = 263894529.0>, fillcolor="#fdf6f1"] ;
367 -> 369 ;
370 [label=<energy_% &le; 87.0<br/>squared_error = 1810523732512258.0<br/>samples = 2<br/>value = 101023525.5>, fillcolor="#fefcfa"] ;
366 -> 370 ;
371 [label=<squared_error = 0.0<br/>samples = 1<br/>value = 58473276.0>, fillcolor="#fffdfc"] ;
370 -> 371 ;
372 [label=<squared_error = 0.0<br/>samples = 1<br/>value = 143573775.0>, fillcolor="#fefaf7"] ;
370 -> 372 ;
373 [label=<energy_% &le; 43.0<br/>squared_error = 5.908964719987204e+17<br/>samples = 17<br/>value = 950522188.577>, fillcolor="#f8dfcc"] ;
5 -> 373 ;
374 [label=<speechiness_% &le; 24.5<br/>squared_error = 2855574172090368.0<br/>samples = 2<br/>value = 2161095792.0>, fillcolor="#f0b68c"] ;
373 -> 374 ;
375 [label=<squared_error = 0.0<br/>samples = 1<br/>value = 2236667932.0>, fillcolor="#efb387"] ;
374 -> 375 ;
376 [label=<squared_error = 512.0<br/>samples = 1<br/>value = 2123309722.0>, fillcolor="#f0b78e"] ;
374 -> 376 ;
377 [label=<liveness_% &le; 12.5<br/>squared_error = 4.5151409563628006e+17<br/>samples = 15<br/>value = 792621283.783>, fillcolor="#f9e4d5"] ;
373 -> 377 ;
378 [label=<liveness_% &le; 9.5<br/>squared_error = 1.5306085906256112e+17<br/>samples = 6<br/>value = 348478059.9>, fillcolor="#fdf3ec"] ;
377 -> 378 ;
379 [label=<squared_error = 0.0<br/>samples = 1<br/>value = 1116995633.0>, fillcolor="#f7d9c3"] ;
378 -> 379 ;
380 [label=<acousticness_% &le; 8.0<br/>squared_error = 6757555027103332.0<br/>samples = 5<br/>value = 156348666.625>, fillcolor="#fefaf7"] ;
378 -> 380 ;
381 [label=<squared_error = 0.0<br/>samples = 1<br/>value = 343197054.0>, fillcolor="#fdf3ed"] ;
380 -> 381 ;
382 [label=<acousticness_% &le; 23.0<br/>squared_error = 2022949440830276.0<br/>samples = 4<br/>value = 129656039.857>, fillcolor="#fefbf8"] ;
380 -> 382 ;
383 [label=<valence_% &le; 26.0<br/>squared_error = 21315576317520.0<br/>samples = 2<br/>value = 91390511.5>, fillcolor="#fefcfa"] ;
382 -> 383 ;
384 [label=<squared_error = 0.0<br/>samples = 1<br/>value = 86773632.0>, fillcolor="#fefcfa"] ;
383 -> 384 ;
385 [label=<squared_error = -2.0<br/>samples = 1<br/>value = 96007391.0>, fillcolor="#fefcfa"] ;
383 -> 385 ;
386 [label=<acousticness_% &le; 31.0<br/>squared_error = 136348094332108.0<br/>samples = 2<br/>value = 180676744.333>, fillcolor="#fef9f5"] ;
382 -> 386 ;
387 [label=<squared_error = 0.0<br/>samples = 1<br/>value = 164163229.0>, fillcolor="#fef9f6"] ;
386 -> 387 ;
388 [label=<squared_error = 0.0<br/>samples = 1<br/>value = 188933502.0>, fillcolor="#fef9f5"] ;
386 -> 388 ;
389 [label=<speechiness_% &le; 35.5<br/>squared_error = 4.126287938066409e+17<br/>samples = 9<br/>value = 1134269917.538>, fillcolor="#f7d8c2"] ;
377 -> 389 ;
390 [label=<valence_% &le; 84.0<br/>squared_error = 2.7294725042475034e+17<br/>samples = 7<br/>value = 1315826825.182>, fillcolor="#f6d2b9"] ;
389 -> 390 ;
391 [label=<valence_% &le; 64.5<br/>squared_error = 1.503424145482565e+17<br/>samples = 6<br/>value = 1432562564.4>, fillcolor="#f5ceb2"] ;
390 -> 391 ;
392 [label=<energy_% &le; 60.0<br/>squared_error = 1.58610092118262e+17<br/>samples = 5<br/>value = 1302757188.0>, fillcolor="#f6d3b9"] ;
391 -> 392 ;
393 [label=<squared_error = 0.0<br/>samples = 1<br/>value = 812019557.0>, fillcolor="#f9e3d4"] ;
392 -> 393 ;
394 [label=<energy_% &le; 66.5<br/>squared_error = 1.3821833087807104e+17<br/>samples = 4<br/>value = 1384546793.167>, fillcolor="#f5d0b5"] ;
392 -> 394 ;
395 [label=<valence_% &le; 35.5<br/>squared_error = 1.7990672208753408e+17<br/>samples = 2<br/>value = 1604236211.333>, fillcolor="#f4c8a9"] ;
394 -> 395 ;
396 [label=<squared_error = 0.0<br/>samples = 1<br/>value = 1304313953.0>, fillcolor="#f6d3b9"] ;
395 -> 396 ;
397 [label=<squared_error = 0.0<br/>samples = 1<br/>value = 2204080728.0>, fillcolor="#f0b489"] ;
395 -> 397 ;
398 [label=<speechiness_% &le; 4.5<br/>squared_error = 3058759791616.0<br/>samples = 2<br/>value = 1164857375.0>, fillcolor="#f7d7c1"] ;
394 -> 398 ;
399 [label=<squared_error = 0.0<br/>samples = 1<br/>value = 1163620694.0>, fillcolor="#f7d7c1"] ;
398 -> 399 ;
400 [label=<squared_error = 0.0<br/>samples = 1<br/>value = 1167330737.0>, fillcolor="#f7d7c1"] ;
398 -> 400 ;
401 [label=<squared_error = 0.0<br/>samples = 1<br/>value = 1735441776.0>, fillcolor="#f3c4a2"] ;
391 -> 401 ;
402 [label=<squared_error = -432.0<br/>samples = 1<br/>value = 148469433.0>, fillcolor="#fefaf7"] ;
390 -> 402 ;
403 [label=<energy_% &le; 66.5<br/>squared_error = 2453224416632040.0<br/>samples = 2<br/>value = 135706925.5>, fillcolor="#fefaf8"] ;
389 -> 403 ;
404 [label=<squared_error = 0.0<br/>samples = 1<br/>value = 185236961.0>, fillcolor="#fef9f5"] ;
403 -> 404 ;
405 [label=<squared_error = -4.0<br/>samples = 1<br/>value = 86176890.0>, fillcolor="#fefcfa"] ;
403 -> 405 ;
406 [label=<speechiness_% &le; 3.5<br/>squared_error = 2.3900068988110432e+17<br/>samples = 396<br/>value = 454367399.124>, fillcolor="#fcf0e7"] ;
0 -> 406 [labeldistance=2.5, labelangle=-45, headlabel="False"] ;
407 [label=<danceability_% &le; 71.5<br/>squared_error = 5.059859283131087e+17<br/>samples = 35<br/>value = 734377630.125>, fillcolor="#fae6d8"] ;
406 -> 407 ;
408 [label=<energy_% &le; 77.5<br/>squared_error = 1.2034298620674275e+17<br/>samples = 15<br/>value = 320999651.864>, fillcolor="#fdf4ee"] ;
407 -> 408 ;
409 [label=<valence_% &le; 22.5<br/>squared_error = 4.311607340709399e+16<br/>samples = 14<br/>value = 230918268.75>, fillcolor="#fdf7f3"] ;
408 -> 409 ;
410 [label=<energy_% &le; 54.5<br/>squared_error = 3271790407787904.0<br/>samples = 2<br/>value = 640886573.5>, fillcolor="#fbe9dd"] ;
409 -> 410 ;
411 [label=<squared_error = 0.0<br/>samples = 1<br/>value = 583687007.0>, fillcolor="#fbebe0"] ;
410 -> 411 ;
412 [label=<squared_error = -64.0<br/>samples = 1<br/>value = 698086140.0>, fillcolor="#fae7da"] ;
410 -> 412 ;
413 [label=<valence_% &le; 82.5<br/>squared_error = 2.6793338073734316e+16<br/>samples = 12<br/>value = 185366234.889>, fillcolor="#fef9f5"] ;
409 -> 413 ;
414 [label=<liveness_% &le; 13.5<br/>squared_error = 1.0166162270971504e+16<br/>samples = 11<br/>value = 153565418.588>, fillcolor="#fefaf7"] ;
413 -> 414 ;
415 [label=<acousticness_% &le; 5.5<br/>squared_error = 5441951170609544.0<br/>samples = 9<br/>value = 120913346.0>, fillcolor="#fefbf9"] ;
414 -> 415 ;
416 [label=<squared_error = 0.0<br/>samples = 1<br/>value = 350381515.0>, fillcolor="#fdf3ec"] ;
415 -> 416 ;
417 [label=<liveness_% &le; 8.0<br/>squared_error = 1498557070248290.0<br/>samples = 8<br/>value = 103261948.385>, fillcolor="#fefcfa"] ;
415 -> 417 ;
418 [label=<acousticness_% &le; 25.0<br/>squared_error = 699269803201.0<br/>samples = 2<br/>value = 53317846.667>, fillcolor="#fffdfc"] ;
417 -> 418 ;
419 [label=<squared_error = 0.0<br/>samples = 1<br/>value = 52135248.0>, fillcolor="#fffdfc"] ;
418 -> 419 ;
420 [label=<squared_error = 0.0<br/>samples = 1<br/>value = 53909146.0>, fillcolor="#fffdfc"] ;
418 -> 420 ;
421 [label=<acousticness_% &le; 75.0<br/>squared_error = 975093224780824.1<br/>samples = 6<br/>value = 118245178.9>, fillcolor="#fefbf9"] ;
417 -> 421 ;
422 [label=<valence_% &le; 45.0<br/>squared_error = 99053625748356.0<br/>samples = 4<br/>value = 142050308.667>, fillcolor="#fefaf7"] ;
421 -> 422 ;
423 [label=<liveness_% &le; 11.0<br/>squared_error = 27908418568888.0<br/>samples = 2<br/>value = 133388346.667>, fillcolor="#fefbf8"] ;
422 -> 423 ;
424 [label=<squared_error = 0.0<br/>samples = 1<br/>value = 137123880.0>, fillcolor="#fefaf8"] ;
423 -> 424 ;
425 [label=<squared_error = 0.0<br/>samples = 1<br/>value = 125917280.0>, fillcolor="#fefbf8"] ;
423 -> 425 ;
426 [label=<valence_% &le; 57.0<br/>squared_error = 20139661548932.0<br/>samples = 2<br/>value = 150712270.667>, fillcolor="#fefaf7"] ;
422 -> 426 ;
427 [label=<squared_error = 0.0<br/>samples = 1<br/>value = 147538971.0>, fillcolor="#fefaf7"] ;
426 -> 427 ;
428 [label=<squared_error = -4.0<br/>samples = 1<br/>value = 157058870.0>, fillcolor="#fefaf7"] ;
426 -> 428 ;
429 [label=<valence_% &le; 37.0<br/>squared_error = 164086861300134.03<br/>samples = 2<br/>value = 82537484.25>, fillcolor="#fefcfb"] ;
421 -> 429 ;
430 [label=<squared_error = 0.0<br/>samples = 1<br/>value = 60350538.0>, fillcolor="#fffdfc"] ;
429 -> 430 ;
431 [label=<squared_error = 0.0<br/>samples = 1<br/>value = 89933133.0>, fillcolor="#fefcfa"] ;
429 -> 431 ;
432 [label=<energy_% &le; 54.0<br/>squared_error = 4018528856531968.0<br/>samples = 2<br/>value = 305941757.333>, fillcolor="#fdf5ef"] ;
414 -> 432 ;
433 [label=<squared_error = 0.0<br/>samples = 1<br/>value = 395591396.0>, fillcolor="#fcf2ea"] ;
432 -> 433 ;
434 [label=<squared_error = 0.0<br/>samples = 1<br/>value = 261116938.0>, fillcolor="#fdf6f1"] ;
432 -> 434 ;
435 [label=<squared_error = 64.0<br/>samples = 1<br/>value = 725980112.0>, fillcolor="#fae6d8"] ;
413 -> 435 ;
436 [label=<squared_error = -256.0<br/>samples = 1<br/>value = 1221813483.0>, fillcolor="#f6d5be"] ;
408 -> 436 ;
437 [label=<energy_% &le; 54.5<br/>squared_error = 5.734038296181714e+17<br/>samples = 20<br/>value = 1001857498.412>, fillcolor="#f8ddc9"] ;
407 -> 437 ;
438 [label=<energy_% &le; 51.5<br/>squared_error = 6.679785683301852e+17<br/>samples = 5<br/>value = 1897594682.714>, fillcolor="#f2be9a"] ;
437 -> 438 ;
439 [label=<danceability_% &le; 78.0<br/>squared_error = 1.7157570565727757e+17<br/>samples = 3<br/>value = 1008225689.667>, fillcolor="#f8ddc9"] ;
438 -> 439 ;
440 [label=<energy_% &le; 44.0<br/>squared_error = 655277928969600.0<br/>samples = 2<br/>value = 715703166.0>, fillcolor="#fae7d9"] ;
439 -> 440 ;
441 [label=<squared_error = 0.0<br/>samples = 1<br/>value = 741301563.0>, fillcolor="#fae6d7"] ;
440 -> 441 ;
442 [label=<squared_error = 0.0<br/>samples = 1<br/>value = 690104769.0>, fillcolor="#fae8da"] ;
440 -> 442 ;
443 [label=<squared_error = 0.0<br/>samples = 1<br/>value = 1593270737.0>, fillcolor="#f4c9aa"] ;
439 -> 443 ;
444 [label=<valence_% &le; 70.5<br/>squared_error = 2123132729536512.0<br/>samples = 2<br/>value = 2564621427.5>, fillcolor="#eda876"] ;
438 -> 444 ;
445 [label=<squared_error = 0.0<br/>samples = 1<br/>value = 2591224264.0>, fillcolor="#eda775"] ;
444 -> 445 ;
446 [label=<squared_error = -2048.0<br/>samples = 1<br/>value = 2484812918.0>, fillcolor="#eeaa7a"] ;
444 -> 446 ;
447 [label=<acousticness_% &le; 16.5<br/>squared_error = 2.8693913796931494e+17<br/>samples = 15<br/>value = 769629339.519>, fillcolor="#fae5d6"] ;
437 -> 447 ;
448 [label=<valence_% &le; 61.5<br/>squared_error = 2.4519561798314112e+17<br/>samples = 6<br/>value = 1175671778.273>, fillcolor="#f7d7c0"] ;
447 -> 448 ;
449 [label=<acousticness_% &le; 3.0<br/>squared_error = 9012521717187328.0<br/>samples = 3<br/>value = 1449885246.143>, fillcolor="#f5ceb2"] ;
448 -> 449 ;
450 [label=<squared_error = 0.0<br/>samples = 1<br/>value = 1309887447.0>, fillcolor="#f6d2b9"] ;
449 -> 450 ;
451 [label=<energy_% &le; 83.0<br/>squared_error = 1641875495749632.0<br/>samples = 2<br/>value = 1505884365.8>, fillcolor="#f4ccaf"] ;
449 -> 451 ;
452 [label=<squared_error = 0.0<br/>samples = 1<br/>value = 1472799873.0>, fillcolor="#f5cdb0"] ;
451 -> 452 ;
453 [label=<squared_error = 0.0<br/>samples = 1<br/>value = 1555511105.0>, fillcolor="#f4caac"] ;
451 -> 453 ;
454 [label=<liveness_% &le; 12.0<br/>squared_error = 2.966495990095019e+17<br/>samples = 3<br/>value = 695798209.5>, fillcolor="#fae7da"] ;
448 -> 454 ;
455 [label=<squared_error = 0.0<br/>samples = 1<br/>value = 1605224506.0>, fillcolor="#f4c8a9"] ;
454 -> 455 ;
456 [label=<energy_% &le; 82.5<br/>squared_error = 2.7952270339021664e+16<br/>samples = 2<br/>value = 392656110.667>, fillcolor="#fcf2ea"] ;
454 -> 456 ;
457 [label=<squared_error = 0.0<br/>samples = 1<br/>value = 156214700.0>, fillcolor="#fefaf7"] ;
456 -> 457 ;
458 [label=<squared_error = 0.0<br/>samples = 1<br/>value = 510876816.0>, fillcolor="#fbeee4"] ;
456 -> 458 ;
459 [label=<liveness_% &le; 40.0<br/>squared_error = 1.2436231094953235e+17<br/>samples = 9<br/>value = 490475162.875>, fillcolor="#fceee5"] ;
447 -> 459 ;
460 [label=<valence_% &le; 77.5<br/>squared_error = 6.912248510991924e+16<br/>samples = 8<br/>value = 394946456.286>, fillcolor="#fcf2ea"] ;
459 -> 460 ;
461 [label=<acousticness_% &le; 24.5<br/>squared_error = 5.555505360896221e+16<br/>samples = 5<br/>value = 523292159.333>, fillcolor="#fbede3"] ;
460 -> 461 ;
462 [label=<squared_error = 0.0<br/>samples = 1<br/>value = 240918092.0>, fillcolor="#fdf7f2"] ;
461 -> 462 ;
463 [label=<liveness_% &le; 8.0<br/>squared_error = 4.213747606371341e+16<br/>samples = 4<br/>value = 603970464.286>, fillcolor="#fbeadf"] ;
461 -> 463 ;
464 [label=<squared_error = 0.0<br/>samples = 1<br/>value = 330346424.0>, fillcolor="#fdf4ed"] ;
463 -> 464 ;
465 [label=<liveness_% &le; 23.0<br/>squared_error = 1.70652018527232e+16<br/>samples = 3<br/>value = 713420080.4>, fillcolor="#fae7d9"] ;
463 -> 465 ;
466 [label=<energy_% &le; 63.0<br/>squared_error = 6667087238039168.0<br/>samples = 2<br/>value = 767576179.0>, fillcolor="#fae5d6"] ;
465 -> 466 ;
467 [label=<squared_error = 0.0<br/>samples = 1<br/>value = 720434240.0>, fillcolor="#fae7d9"] ;
466 -> 467 ;
468 [label=<squared_error = -128.0<br/>samples = 1<br/>value = 909001996.0>, fillcolor="#f9e0ce"] ;
466 -> 468 ;
469 [label=<squared_error = 96.0<br/>samples = 1<br/>value = 496795686.0>, fillcolor="#fceee5"] ;
465 -> 469 ;
470 [label=<acousticness_% &le; 39.0<br/>squared_error = 1.0521859578072392e+16<br/>samples = 3<br/>value = 163924190.8>, fillcolor="#fef9f6"] ;
460 -> 470 ;
471 [label=<squared_error = 0.0<br/>samples = 1<br/>value = 39058561.0>, fillcolor="#fffefd"] ;
470 -> 471 ;
472 [label=<energy_% &le; 72.0<br/>squared_error = 212626513064448.0<br/>samples = 2<br/>value = 247167944.0>, fillcolor="#fdf7f2"] ;
470 -> 472 ;
473 [label=<squared_error = 0.0<br/>samples = 1<br/>value = 236857112.0>, fillcolor="#fdf7f2"] ;
472 -> 473 ;
474 [label=<squared_error = 0.0<br/>samples = 1<br/>value = 267789608.0>, fillcolor="#fdf6f1"] ;
472 -> 474 ;
475 [label=<squared_error = -256.0<br/>samples = 1<br/>value = 1159176109.0>, fillcolor="#f7d8c1"] ;
459 -> 475 ;
476 [label=<acousticness_% &le; 3.5<br/>squared_error = 2.0455773306575034e+17<br/>samples = 361<br/>value = 427049327.807>, fillcolor="#fcf1e8"] ;
406 -> 476 ;
477 [label=<energy_% &le; 73.5<br/>squared_error = 3.006589361769457e+17<br/>samples = 54<br/>value = 587071249.186>, fillcolor="#fbebe0"] ;
476 -> 477 ;
478 [label=<valence_% &le; 30.5<br/>squared_error = 2.0519295512683386e+17<br/>samples = 35<br/>value = 476141094.379>, fillcolor="#fcefe6"] ;
477 -> 478 ;
479 [label=<energy_% &le; 50.0<br/>squared_error = 8.88611533373809e+16<br/>samples = 10<br/>value = 233798669.643>, fillcolor="#fdf7f3"] ;
478 -> 479 ;
480 [label=<energy_% &le; 44.0<br/>squared_error = 1.7519114017415635e+17<br/>samples = 2<br/>value = 638744914.0>, fillcolor="#fbe9dd"] ;
479 -> 480 ;
481 [label=<squared_error = 0.0<br/>samples = 1<br/>value = 342779426.0>, fillcolor="#fdf3ed"] ;
480 -> 481 ;
482 [label=<squared_error = 0.0<br/>samples = 1<br/>value = 1230675890.0>, fillcolor="#f6d5bd"] ;
480 -> 482 ;
483 [label=<acousticness_% &le; 2.5<br/>squared_error = 8397426725730548.0<br/>samples = 8<br/>value = 123358784.818>, fillcolor="#fefbf8"] ;
479 -> 483 ;
484 [label=<energy_% &le; 65.5<br/>squared_error = 965344946973966.0<br/>samples = 7<br/>value = 95936457.4>, fillcolor="#fefcfa"] ;
483 -> 484 ;
485 [label=<danceability_% &le; 71.5<br/>squared_error = 474755300336556.06<br/>samples = 4<br/>value = 122172527.4>, fillcolor="#fefbf9"] ;
484 -> 485 ;
486 [label=<liveness_% &le; 17.5<br/>squared_error = 4438555192352.0<br/>samples = 2<br/>value = 104759495.0>, fillcolor="#fefbf9"] ;
485 -> 486 ;
487 [label=<squared_error = 0.0<br/>samples = 1<br/>value = 101780047.0>, fillcolor="#fefcfa"] ;
486 -> 487 ;
488 [label=<squared_error = -2.0<br/>samples = 1<br/>value = 106249219.0>, fillcolor="#fefbf9"] ;
486 -> 488 ;
489 [label=<speechiness_% &le; 19.5<br/>squared_error = 43179052939928.0<br/>samples = 2<br/>value = 148292076.0>, fillcolor="#fefaf7"] ;
485 -> 489 ;
490 [label=<squared_error = 0.0<br/>samples = 1<br/>value = 141720999.0>, fillcolor="#fefaf7"] ;
489 -> 490 ;
491 [label=<squared_error = 0.0<br/>samples = 1<br/>value = 154863153.0>, fillcolor="#fefaf7"] ;
489 -> 491 ;
492 [label=<liveness_% &le; 28.5<br/>squared_error = 79271855521578.0<br/>samples = 3<br/>value = 69700387.4>, fillcolor="#fffdfb"] ;
484 -> 492 ;
493 [label=<danceability_% &le; 73.0<br/>squared_error = 3225387912032.0<br/>samples = 2<br/>value = 58885002.5>, fillcolor="#fffdfc"] ;
492 -> 493 ;
494 [label=<squared_error = 0.0<br/>samples = 1<br/>value = 60680939.0>, fillcolor="#fffdfc"] ;
493 -> 494 ;
495 [label=<squared_error = 0.0<br/>samples = 1<br/>value = 57089066.0>, fillcolor="#fffdfc"] ;
493 -> 495 ;
496 [label=<squared_error = 0.0<br/>samples = 1<br/>value = 76910644.0>, fillcolor="#fefcfb"] ;
492 -> 496 ;
497 [label=<squared_error = 0.0<br/>samples = 1<br/>value = 397582059.0>, fillcolor="#fcf2ea"] ;
483 -> 497 ;
498 [label=<energy_% &le; 63.5<br/>squared_error = 2.175750579319282e+17<br/>samples = 25<br/>value = 553250047.705>, fillcolor="#fbece1"] ;
478 -> 498 ;
499 [label=<energy_% &le; 62.5<br/>squared_error = 3.033718444400769e+17<br/>samples = 12<br/>value = 739493949.053>, fillcolor="#fae6d8"] ;
498 -> 499 ;
500 [label=<danceability_% &le; 79.5<br/>squared_error = 9.161786450500678e+16<br/>samples = 11<br/>value = 629803482.333>, fillcolor="#fbeadd"] ;
499 -> 500 ;
501 [label=<danceability_% &le; 77.0<br/>squared_error = 1.5966792241859458e+16<br/>samples = 3<br/>value = 1022318154.5>, fillcolor="#f8dcc8"] ;
500 -> 501 ;
502 [label=<acousticness_% &le; 1.5<br/>squared_error = 2491805625804160.0<br/>samples = 2<br/>value = 900988482.0>, fillcolor="#f9e0cf"] ;
501 -> 502 ;
503 [label=<squared_error = 0.0<br/>samples = 1<br/>value = 851070493.0>, fillcolor="#f9e2d2"] ;
502 -> 503 ;
504 [label=<squared_error = 0.0<br/>samples = 1<br/>value = 950906471.0>, fillcolor="#f8dfcc"] ;
502 -> 504 ;
505 [label=<squared_error = 256.0<br/>samples = 1<br/>value = 1143647827.0>, fillcolor="#f7d8c2"] ;
501 -> 505 ;
506 [label=<energy_% &le; 54.0<br/>squared_error = 5.663613369060195e+16<br/>samples = 8<br/>value = 517656433.143>, fillcolor="#fbede3"] ;
500 -> 506 ;
507 [label=<acousticness_% &le; 2.5<br/>squared_error = 8895473426761556.0<br/>samples = 3<br/>value = 171765227.5>, fillcolor="#fef9f6"] ;
506 -> 507 ;
508 [label=<speechiness_% &le; 28.5<br/>squared_error = 7293195242756.0<br/>samples = 2<br/>value = 117328709.333>, fillcolor="#fefbf9"] ;
507 -> 508 ;
509 [label=<squared_error = 0.0<br/>samples = 1<br/>value = 119238316.0>, fillcolor="#fefbf9"] ;
508 -> 509 ;
510 [label=<squared_error = 0.0<br/>samples = 1<br/>value = 113509496.0>, fillcolor="#fefbf9"] ;
508 -> 510 ;
511 [label=<squared_error = 0.0<br/>samples = 1<br/>value = 335074782.0>, fillcolor="#fdf4ed"] ;
507 -> 511 ;
512 [label=<liveness_% &le; 24.5<br/>squared_error = 8733591157139328.0<br/>samples = 5<br/>value = 656012915.4>, fillcolor="#fae9dc"] ;
506 -> 512 ;
513 [label=<liveness_% &le; 14.0<br/>squared_error = 2298781685251840.0<br/>samples = 4<br/>value = 697529676.5>, fillcolor="#fae7da"] ;
512 -> 513 ;
514 [label=<valence_% &le; 36.0<br/>squared_error = 87979649056256.0<br/>samples = 3<br/>value = 679713955.143>, fillcolor="#fae8db"] ;
513 -> 514 ;
515 [label=<squared_error = 0.0<br/>samples = 1<br/>value = 694525298.0>, fillcolor="#fae7da"] ;
514 -> 515 ;
516 [label=<energy_% &le; 60.5<br/>squared_error = 321017428992.0<br/>samples = 2<br/>value = 673789418.0>, fillcolor="#fae8db"] ;
514 -> 516 ;
517 [label=<squared_error = 0.0<br/>samples = 1<br/>value = 674072710.0>, fillcolor="#fae8db"] ;
516 -> 517 ;
518 [label=<squared_error = -64.0<br/>samples = 1<br/>value = 672656250.0>, fillcolor="#fae8db"] ;
516 -> 518 ;
519 [label=<squared_error = 128.0<br/>samples = 1<br/>value = 822239726.0>, fillcolor="#f9e3d3"] ;
513 -> 519 ;
520 [label=<squared_error = 32.0<br/>samples = 1<br/>value = 489945871.0>, fillcolor="#fceee5"] ;
512 -> 520 ;
521 [label=<squared_error = 3072.0<br/>samples = 1<br/>value = 2713922350.0>, fillcolor="#eca36e"] ;
499 -> 521 ;
522 [label=<danceability_% &le; 90.0<br/>squared_error = 1.0597244882589306e+17<br/>samples = 13<br/>value = 411704682.68>, fillcolor="#fcf1e9"] ;
498 -> 522 ;
523 [label=<energy_% &le; 71.5<br/>squared_error = 3.972510952534336e+16<br/>samples = 12<br/>value = 358539710.0>, fillcolor="#fcf3ec"] ;
522 -> 523 ;
524 [label=<liveness_% &le; 14.5<br/>squared_error = 1.837145541458443e+16<br/>samples = 9<br/>value = 283740081.588>, fillcolor="#fdf5f0"] ;
523 -> 524 ;
525 [label=<liveness_% &le; 6.0<br/>squared_error = 1.0045751713676896e+16<br/>samples = 5<br/>value = 198574499.667>, fillcolor="#fef8f4"] ;
524 -> 525 ;
526 [label=<squared_error = 0.0<br/>samples = 1<br/>value = 462791599.0>, fillcolor="#fcefe6"] ;
525 -> 526 ;
527 [label=<speechiness_% &le; 6.0<br/>squared_error = 1484344424432056.0<br/>samples = 4<br/>value = 165547362.25>, fillcolor="#fef9f6"] ;
525 -> 527 ;
528 [label=<liveness_% &le; 9.0<br/>squared_error = 241122375610984.0<br/>samples = 2<br/>value = 196737752.75>, fillcolor="#fef8f5"] ;
527 -> 528 ;
529 [label=<squared_error = 0.0<br/>samples = 1<br/>value = 187772591.0>, fillcolor="#fef9f5"] ;
528 -> 529 ;
530 [label=<squared_error = 0.0<br/>samples = 1<br/>value = 223633238.0>, fillcolor="#fdf7f3"] ;
528 -> 530 ;
531 [label=<valence_% &le; 46.5<br/>squared_error = 781885554168132.0<br/>samples = 2<br/>value = 134356971.75>, fillcolor="#fefaf8"] ;
527 -> 531 ;
532 [label=<squared_error = 0.0<br/>samples = 1<br/>value = 150500965.0>, fillcolor="#fefaf7"] ;
531 -> 532 ;
533 [label=<squared_error = -8.0<br/>samples = 1<br/>value = 85924992.0>, fillcolor="#fefcfa"] ;
531 -> 533 ;
534 [label=<danceability_% &le; 77.0<br/>squared_error = 1.0398247380636192e+16<br/>samples = 4<br/>value = 379551361.25>, fillcolor="#fcf2eb"] ;
524 -> 534 ;
535 [label=<valence_% &le; 61.0<br/>squared_error = 344601211816400.0<br/>samples = 2<br/>value = 324334500.5>, fillcolor="#fdf4ee"] ;
534 -> 535 ;
536 [label=<squared_error = 0.0<br/>samples = 1<br/>value = 305771063.0>, fillcolor="#fdf5ef"] ;
535 -> 536 ;
537 [label=<squared_error = -16.0<br/>samples = 1<br/>value = 342897938.0>, fillcolor="#fdf3ed"] ;
535 -> 537 ;
538 [label=<acousticness_% &le; 1.0<br/>squared_error = 3972365354076864.0<br/>samples = 2<br/>value = 545201943.5>, fillcolor="#fbece2"] ;
534 -> 538 ;
539 [label=<squared_error = 0.0<br/>samples = 1<br/>value = 482175240.0>, fillcolor="#fcefe5"] ;
538 -> 539 ;
540 [label=<squared_error = -64.0<br/>samples = 1<br/>value = 608228647.0>, fillcolor="#fbeadf"] ;
538 -> 540 ;
541 [label=<danceability_% &le; 67.5<br/>squared_error = 4.499717482495098e+16<br/>samples = 3<br/>value = 540195950.429>, fillcolor="#fbede2"] ;
523 -> 541 ;
542 [label=<squared_error = 0.0<br/>samples = 1<br/>value = 363369738.0>, fillcolor="#fcf3ec"] ;
541 -> 542 ;
543 [label=<valence_% &le; 66.0<br/>squared_error = 7716712008067968.0<br/>samples = 2<br/>value = 775964233.667>, fillcolor="#fae5d6"] ;
541 -> 543 ;
544 [label=<squared_error = 0.0<br/>samples = 1<br/>value = 838079900.0>, fillcolor="#f9e3d2"] ;
543 -> 544 ;
545 [label=<squared_error = -64.0<br/>samples = 1<br/>value = 651732901.0>, fillcolor="#fae9dc"] ;
543 -> 545 ;
546 [label=<squared_error = 0.0<br/>samples = 1<br/>value = 1687664027.0>, fillcolor="#f3c6a5"] ;
522 -> 546 ;
547 [label=<liveness_% &le; 10.5<br/>squared_error = 4.201192971324237e+17<br/>samples = 19<br/>value = 816855141.286>, fillcolor="#f9e3d3"] ;
477 -> 547 ;
548 [label=<acousticness_% &le; 1.5<br/>squared_error = 3.678949464522506e+17<br/>samples = 6<br/>value = 1354572812.5>, fillcolor="#f5d1b7"] ;
547 -> 548 ;
549 [label=<danceability_% &le; 77.0<br/>squared_error = 1.0002909316510976e+17<br/>samples = 3<br/>value = 1916363854.8>, fillcolor="#f2be99"] ;
548 -> 549 ;
550 [label=<speechiness_% &le; 7.5<br/>squared_error = 588732709847552.0<br/>samples = 2<br/>value = 1658583776.0>, fillcolor="#f3c7a6"] ;
549 -> 550 ;
551 [label=<squared_error = 0.0<br/>samples = 1<br/>value = 1641426668.0>, fillcolor="#f3c7a7"] ;
550 -> 551 ;
552 [label=<squared_error = 0.0<br/>samples = 1<br/>value = 1692897992.0>, fillcolor="#f3c5a5"] ;
550 -> 552 ;
553 [label=<squared_error = 0.0<br/>samples = 1<br/>value = 2303033973.0>, fillcolor="#efb184"] ;
549 -> 553 ;
554 [label=<energy_% &le; 88.0<br/>squared_error = 4542449322350976.0<br/>samples = 3<br/>value = 792781770.2>, fillcolor="#f9e4d5"] ;
548 -> 554 ;
555 [label=<valence_% &le; 61.5<br/>squared_error = 1782353064651904.0<br/>samples = 2<br/>value = 716990859.5>, fillcolor="#fae7d9"] ;
554 -> 555 ;
556 [label=<squared_error = 0.0<br/>samples = 1<br/>value = 759208783.0>, fillcolor="#fae5d6"] ;
555 -> 556 ;
557 [label=<squared_error = 64.0<br/>samples = 1<br/>value = 674772936.0>, fillcolor="#fae8db"] ;
555 -> 557 ;
558 [label=<squared_error = 0.0<br/>samples = 1<br/>value = 843309044.0>, fillcolor="#f9e2d2"] ;
554 -> 558 ;
559 [label=<energy_% &le; 82.5<br/>squared_error = 1.992584971951366e+17<br/>samples = 13<br/>value = 518123101.722>, fillcolor="#fbede3"] ;
547 -> 559 ;
560 [label=<valence_% &le; 61.0<br/>squared_error = 2.0645514251776128e+17<br/>samples = 5<br/>value = 907540150.429>, fillcolor="#f9e0cf"] ;
559 -> 560 ;
561 [label=<valence_% &le; 55.5<br/>squared_error = 1.3258317292411392e+16<br/>samples = 2<br/>value = 1397844823.667>, fillcolor="#f5cfb4"] ;
560 -> 561 ;
562 [label=<squared_error = 0.0<br/>samples = 1<br/>value = 1479264469.0>, fillcolor="#f5cdb0"] ;
561 -> 562 ;
563 [label=<squared_error = 0.0<br/>samples = 1<br/>value = 1235005533.0>, fillcolor="#f6d5bd"] ;
561 -> 563 ;
564 [label=<valence_% &le; 63.5<br/>squared_error = 3.582950365043488e+16<br/>samples = 3<br/>value = 539811645.5>, fillcolor="#fbede2"] ;
560 -> 564 ;
565 [label=<squared_error = 0.0<br/>samples = 1<br/>value = 221752937.0>, fillcolor="#fdf8f3"] ;
564 -> 565 ;
566 [label=<valence_% &le; 71.0<br/>squared_error = 2812075066051712.0<br/>samples = 2<br/>value = 645831215.0>, fillcolor="#fae9dd"] ;
564 -> 566 ;
567 [label=<squared_error = 0.0<br/>samples = 1<br/>value = 608334048.0>, fillcolor="#fbeadf"] ;
566 -> 567 ;
568 [label=<squared_error = -64.0<br/>samples = 1<br/>value = 720825549.0>, fillcolor="#fae7d9"] ;
566 -> 568 ;
569 [label=<liveness_% &le; 30.5<br/>squared_error = 3.676682731447032e+16<br/>samples = 8<br/>value = 270312252.545>, fillcolor="#fdf6f1"] ;
559 -> 569 ;
570 [label=<energy_% &le; 93.5<br/>squared_error = 1.6490621011703716e+16<br/>samples = 5<br/>value = 171007248.571>, fillcolor="#fef9f6"] ;
569 -> 570 ;
571 [label=<instrumentalness_% &le; 5.0<br/>squared_error = 4229289079057152.0<br/>samples = 4<br/>value = 124701172.5>, fillcolor="#fefbf8"] ;
570 -> 571 ;
572 [label=<acousticness_% &le; 0.5<br/>squared_error = 1260004761995622.0<br/>samples = 3<br/>value = 83535131.25>, fillcolor="#fefcfb"] ;
571 -> 572 ;
573 [label=<squared_error = 0.0<br/>samples = 1<br/>value = 22581161.0>, fillcolor="#fffefe"] ;
572 -> 573 ;
574 [label=<liveness_% &le; 22.0<br/>squared_error = 28723465221772.0<br/>samples = 2<br/>value = 103853121.333>, fillcolor="#fefcfa"] ;
572 -> 574 ;
575 [label=<squared_error = -2.0<br/>samples = 1<br/>value = 107642809.0>, fillcolor="#fefbf9"] ;
574 -> 575 ;
576 [label=<squared_error = 0.0<br/>samples = 1<br/>value = 96273746.0>, fillcolor="#fefcfa"] ;
574 -> 576 ;
577 [label=<squared_error = 0.0<br/>samples = 1<br/>value = 207033255.0>, fillcolor="#fef8f4"] ;
571 -> 577 ;
578 [label=<squared_error = 64.0<br/>samples = 1<br/>value = 448843705.0>, fillcolor="#fcf0e7"] ;
570 -> 578 ;
579 [label=<acousticness_% &le; 2.5<br/>squared_error = 2.4791797488082976e+16<br/>samples = 3<br/>value = 444096009.5>, fillcolor="#fcf0e7"] ;
569 -> 579 ;
580 [label=<squared_error = 0.0<br/>samples = 1<br/>value = 194902696.0>, fillcolor="#fef8f5"] ;
579 -> 580 ;
581 [label=<speechiness_% &le; 5.0<br/>squared_error = 5456926653839809.0<br/>samples = 2<br/>value = 527160447.333>, fillcolor="#fbede3"] ;
579 -> 581 ;
582 [label=<squared_error = 0.0<br/>samples = 1<br/>value = 579395142.0>, fillcolor="#fbebe0"] ;
581 -> 582 ;
583 [label=<squared_error = -64.0<br/>samples = 1<br/>value = 422691058.0>, fillcolor="#fcf1e8"] ;
581 -> 583 ;
584 [label=<danceability_% &le; 66.5<br/>squared_error = 1.823138806213299e+17<br/>samples = 307<br/>value = 398848743.301>, fillcolor="#fcf1ea"] ;
476 -> 584 ;
585 [label=<valence_% &le; 54.5<br/>squared_error = 2.249644808189494e+17<br/>samples = 47<br/>value = 526055956.932>, fillcolor="#fbede3"] ;
584 -> 585 ;
586 [label=<energy_% &le; 54.5<br/>squared_error = 2.8011011848526995e+17<br/>samples = 29<br/>value = 673920786.239>, fillcolor="#fae8db"] ;
585 -> 586 ;
587 [label=<valence_% &le; 20.5<br/>squared_error = 1.3041593894965648e+16<br/>samples = 9<br/>value = 184498020.3>, fillcolor="#fef9f5"] ;
586 -> 587 ;
588 [label=<danceability_% &le; 65.0<br/>squared_error = 7708022736405728.0<br/>samples = 3<br/>value = 325038096.667>, fillcolor="#fdf4ee"] ;
587 -> 588 ;
589 [label=<squared_error = 0.0<br/>samples = 1<br/>value = 433356509.0>, fillcolor="#fcf0e8"] ;
588 -> 589 ;
590 [label=<energy_% &le; 33.5<br/>squared_error = 2762375266798096.0<br/>samples = 2<br/>value = 270878890.5>, fillcolor="#fdf6f1"] ;
588 -> 590 ;
591 [label=<squared_error = 0.0<br/>samples = 1<br/>value = 323437194.0>, fillcolor="#fdf4ee"] ;
590 -> 591 ;
592 [label=<squared_error = 8.0<br/>samples = 1<br/>value = 218320587.0>, fillcolor="#fdf8f3"] ;
590 -> 592 ;
593 [label=<speechiness_% &le; 9.5<br/>squared_error = 3234647004665720.0<br/>samples = 6<br/>value = 124266559.0>, fillcolor="#fefbf8"] ;
587 -> 593 ;
594 [label=<energy_% &le; 42.5<br/>squared_error = 820251800398676.0<br/>samples = 4<br/>value = 92555117.4>, fillcolor="#fefcfa"] ;
593 -> 594 ;
595 [label=<squared_error = 0.0<br/>samples = 1<br/>value = 39709092.0>, fillcolor="#fffefd"] ;
594 -> 595 ;
596 [label=<liveness_% &le; 38.0<br/>squared_error = 152595250317896.0<br/>samples = 3<br/>value = 105766623.75>, fillcolor="#fefbf9"] ;
594 -> 596 ;
597 [label=<valence_% &le; 25.5<br/>squared_error = 6172188874272.0<br/>samples = 2<br/>value = 112789588.667>, fillcolor="#fefbf9"] ;
596 -> 597 ;
598 [label=<squared_error = 0.0<br/>samples = 1<br/>value = 109276132.0>, fillcolor="#fefbf9"] ;
597 -> 598 ;
599 [label=<squared_error = 0.0<br/>samples = 1<br/>value = 114546317.0>, fillcolor="#fefbf9"] ;
597 -> 599 ;
600 [label=<squared_error = -1.0<br/>samples = 1<br/>value = 84697729.0>, fillcolor="#fefcfb"] ;
596 -> 600 ;
601 [label=<speechiness_% &le; 13.0<br/>squared_error = 471499142268960.0<br/>samples = 2<br/>value = 203545163.0>, fillcolor="#fef8f4"] ;
593 -> 601 ;
602 [label=<squared_error = 0.0<br/>samples = 1<br/>value = 181831132.0>, fillcolor="#fef9f5"] ;
601 -> 602 ;
603 [label=<squared_error = 0.0<br/>samples = 1<br/>value = 225259194.0>, fillcolor="#fdf7f3"] ;
601 -> 603 ;
604 [label=<energy_% &le; 72.5<br/>squared_error = 2.6927580729355354e+17<br/>samples = 20<br/>value = 809871554.556>, fillcolor="#f9e3d4"] ;
586 -> 604 ;
605 [label=<liveness_% &le; 10.5<br/>squared_error = 2.25867741638411e+17<br/>samples = 13<br/>value = 1006202998.52>, fillcolor="#f8ddc9"] ;
604 -> 605 ;
606 [label=<valence_% &le; 24.5<br/>squared_error = 1.7719787806886515e+17<br/>samples = 5<br/>value = 693306188.7>, fillcolor="#fae7da"] ;
605 -> 606 ;
607 [label=<speechiness_% &le; 7.5<br/>squared_error = 1.384356421527693e+16<br/>samples = 3<br/>value = 961215146.0>, fillcolor="#f8decc"] ;
606 -> 607 ;
608 [label=<liveness_% &le; 7.5<br/>squared_error = 75275272566272.0<br/>samples = 2<br/>value = 1035484375.6>, fillcolor="#f8dcc8"] ;
607 -> 608 ;
609 [label=<squared_error = 0.0<br/>samples = 1<br/>value = 1024858327.0>, fillcolor="#f8dcc8"] ;
608 -> 609 ;
610 [label=<squared_error = 128.0<br/>samples = 1<br/>value = 1042568408.0>, fillcolor="#f8dcc7"] ;
608 -> 610 ;
611 [label=<squared_error = 0.0<br/>samples = 1<br/>value = 775542072.0>, fillcolor="#fae5d6"] ;
607 -> 611 ;
612 [label=<energy_% &le; 64.5<br/>squared_error = 106315048335163.02<br/>samples = 2<br/>value = 68185288.333>, fillcolor="#fffdfb"] ;
606 -> 612 ;
613 [label=<squared_error = 0.0<br/>samples = 1<br/>value = 75476209.0>, fillcolor="#fefcfb"] ;
612 -> 613 ;
614 [label=<squared_error = 1.0<br/>samples = 1<br/>value = 53603447.0>, fillcolor="#fffdfc"] ;
612 -> 614 ;
615 [label=<energy_% &le; 62.5<br/>squared_error = 1.4953163557862707e+17<br/>samples = 8<br/>value = 1214800871.733>, fillcolor="#f6d6be"] ;
605 -> 615 ;
616 [label=<squared_error = 0.0<br/>samples = 1<br/>value = 46142772.0>, fillcolor="#fffdfd"] ;
615 -> 616 ;
617 [label=<liveness_% &le; 12.5<br/>squared_error = 5.5689883471565304e+16<br/>samples = 7<br/>value = 1298276450.286>, fillcolor="#f6d3ba"] ;
615 -> 617 ;
618 [label=<squared_error = 0.0<br/>samples = 1<br/>value = 2011464183.0>, fillcolor="#f1bb94"] ;
617 -> 618 ;
619 [label=<acousticness_% &le; 33.0<br/>squared_error = 1.7838132559212544e+16<br/>samples = 6<br/>value = 1243415855.462>, fillcolor="#f6d5bd"] ;
617 -> 619 ;
620 [label=<speechiness_% &le; 8.5<br/>squared_error = 7193058582465792.0<br/>samples = 5<br/>value = 1182658113.8>, fillcolor="#f7d7c0"] ;
619 -> 620 ;
621 [label=<energy_% &le; 66.0<br/>squared_error = 2878001081093888.0<br/>samples = 2<br/>value = 1107042285.8>, fillcolor="#f7d9c4"] ;
620 -> 621 ;
622 [label=<squared_error = 0.0<br/>samples = 1<br/>value = 999748277.0>, fillcolor="#f8ddca"] ;
621 -> 622 ;
623 [label=<squared_error = 0.0<br/>samples = 1<br/>value = 1133865788.0>, fillcolor="#f7d8c2"] ;
621 -> 623 ;
624 [label=<danceability_% &le; 63.0<br/>squared_error = 72609195586560.0<br/>samples = 3<br/>value = 1258273941.8>, fillcolor="#f6d4bc"] ;
620 -> 624 ;
625 [label=<squared_error = 0.0<br/>samples = 1<br/>value = 1241559043.0>, fillcolor="#f6d5bd"] ;
624 -> 625 ;
626 [label=<acousticness_% &le; 19.0<br/>squared_error = 3452793891072.0<br/>samples = 2<br/>value = 1262452666.5>, fillcolor="#f6d4bc"] ;
624 -> 626 ;
627 [label=<squared_error = 0.0<br/>samples = 1<br/>value = 1264310836.0>, fillcolor="#f6d4bb"] ;
626 -> 627 ;
628 [label=<squared_error = 256.0<br/>samples = 1<br/>value = 1260594497.0>, fillcolor="#f6d4bc"] ;
626 -> 628 ;
629 [label=<squared_error = -512.0<br/>samples = 1<br/>value = 1445941661.0>, fillcolor="#f5ceb2"] ;
619 -> 629 ;
630 [label=<valence_% &le; 53.0<br/>squared_error = 8.122444989617117e+16<br/>samples = 7<br/>value = 363663727.364>, fillcolor="#fcf3ec"] ;
604 -> 630 ;
631 [label=<liveness_% &le; 52.5<br/>squared_error = 1.1307517648608752e+16<br/>samples = 6<br/>value = 279434938.7>, fillcolor="#fdf6f0"] ;
630 -> 631 ;
632 [label=<instrumentalness_% &le; 33.5<br/>squared_error = 3782822609093560.0<br/>samples = 5<br/>value = 233934225.625>, fillcolor="#fdf7f3"] ;
631 -> 632 ;
633 [label=<danceability_% &le; 63.5<br/>squared_error = 2909194340138168.0<br/>samples = 4<br/>value = 210833526.833>, fillcolor="#fef8f4"] ;
632 -> 633 ;
634 [label=<squared_error = 0.0<br/>samples = 1<br/>value = 322336177.0>, fillcolor="#fdf4ee"] ;
633 -> 634 ;
635 [label=<energy_% &le; 78.5<br/>squared_error = 507151369560192.0<br/>samples = 3<br/>value = 188532996.8>, fillcolor="#fef9f5"] ;
633 -> 635 ;
636 [label=<squared_error = 0.0<br/>samples = 1<br/>value = 149778242.0>, fillcolor="#fefaf7"] ;
635 -> 636 ;
637 [label=<danceability_% &le; 64.5<br/>squared_error = 164585768322704.0<br/>samples = 2<br/>value = 198221685.5>, fillcolor="#fef8f4"] ;
635 -> 637 ;
638 [label=<squared_error = 0.0<br/>samples = 1<br/>value = 211050784.0>, fillcolor="#fef8f4"] ;
637 -> 638 ;
639 [label=<squared_error = 8.0<br/>samples = 1<br/>value = 185392587.0>, fillcolor="#fef9f5"] ;
637 -> 639 ;
640 [label=<squared_error = 16.0<br/>samples = 1<br/>value = 303236322.0>, fillcolor="#fdf5ef"] ;
632 -> 640 ;
641 [label=<squared_error = 0.0<br/>samples = 1<br/>value = 461437791.0>, fillcolor="#fcefe6"] ;
631 -> 641 ;
642 [label=<squared_error = 256.0<br/>samples = 1<br/>value = 1205951614.0>, fillcolor="#f7d6bf"] ;
630 -> 642 ;
643 [label=<energy_% &le; 81.0<br/>squared_error = 3.943812408264726e+16<br/>samples = 18<br/>value = 283135165.929>, fillcolor="#fdf5f0"] ;
585 -> 643 ;
644 [label=<danceability_% &le; 65.5<br/>squared_error = 1.9728384978349984e+16<br/>samples = 15<br/>value = 247724039.0>, fillcolor="#fdf7f2"] ;
643 -> 644 ;
645 [label=<valence_% &le; 77.5<br/>squared_error = 1.2345774215425224e+16<br/>samples = 12<br/>value = 215992498.3>, fillcolor="#fdf8f4"] ;
644 -> 645 ;
646 [label=<danceability_% &le; 62.5<br/>squared_error = 4953820178323704.0<br/>samples = 7<br/>value = 142871476.222>, fillcolor="#fefaf7"] ;
645 -> 646 ;
647 [label=<valence_% &le; 57.5<br/>squared_error = 703682708711047.0<br/>samples = 3<br/>value = 72744536.333>, fillcolor="#fefdfb"] ;
646 -> 647 ;
648 [label=<energy_% &le; 73.0<br/>squared_error = 10449415060580.5<br/>samples = 2<br/>value = 54080179.5>, fillcolor="#fffdfc"] ;
647 -> 648 ;
649 [label=<squared_error = 0.0<br/>samples = 1<br/>value = 50847624.0>, fillcolor="#fffdfc"] ;
648 -> 649 ;
650 [label=<squared_error = 0.0<br/>samples = 1<br/>value = 57312735.0>, fillcolor="#fffdfc"] ;
648 -> 650 ;
651 [label=<squared_error = 0.0<br/>samples = 1<br/>value = 110073250.0>, fillcolor="#fefbf9"] ;
647 -> 651 ;
652 [label=<danceability_% &le; 64.5<br/>squared_error = 3390548139495156.0<br/>samples = 4<br/>value = 177934946.167>, fillcolor="#fef9f6"] ;
646 -> 652 ;
653 [label=<energy_% &le; 72.5<br/>squared_error = 186208892255360.0<br/>samples = 3<br/>value = 203372611.4>, fillcolor="#fef8f4"] ;
652 -> 653 ;
654 [label=<instrumentalness_% &le; 4.5<br/>squared_error = 17548957693888.0<br/>samples = 2<br/>value = 209933284.5>, fillcolor="#fef8f4"] ;
653 -> 654 ;
655 [label=<squared_error = 0.0<br/>samples = 1<br/>value = 212351890.0>, fillcolor="#fef8f4"] ;
654 -> 655 ;
656 [label=<squared_error = 0.0<br/>samples = 1<br/>value = 202677468.0>, fillcolor="#fef8f4"] ;
654 -> 656 ;
657 [label=<squared_error = 0.0<br/>samples = 1<br/>value = 177129919.0>, fillcolor="#fef9f6"] ;
653 -> 657 ;
658 [label=<squared_error = 16.0<br/>samples = 1<br/>value = 50746620.0>, fillcolor="#fffdfc"] ;
652 -> 658 ;
659 [label=<liveness_% &le; 38.5<br/>squared_error = 1.0439992009865376e+16<br/>samples = 5<br/>value = 275818789.091>, fillcolor="#fdf6f0"] ;
645 -> 659 ;
660 [label=<liveness_% &le; 27.0<br/>squared_error = 3019560352682496.0<br/>samples = 4<br/>value = 317901888.444>, fillcolor="#fdf4ee"] ;
659 -> 660 ;
661 [label=<speechiness_% &le; 6.0<br/>squared_error = 257988080869240.0<br/>samples = 2<br/>value = 245125830.667>, fillcolor="#fdf7f2"] ;
660 -> 661 ;
662 [label=<squared_error = 0.0<br/>samples = 1<br/>value = 256483385.0>, fillcolor="#fdf6f1"] ;
661 -> 662 ;
663 [label=<squared_error = 0.0<br/>samples = 1<br/>value = 222410722.0>, fillcolor="#fdf7f3"] ;
661 -> 663 ;
664 [label=<valence_% &le; 83.5<br/>squared_error = 428080549333264.0<br/>samples = 2<br/>value = 354289917.333>, fillcolor="#fdf3ec"] ;
660 -> 664 ;
665 [label=<squared_error = 0.0<br/>samples = 1<br/>value = 339659802.0>, fillcolor="#fdf3ed"] ;
664 -> 665 ;
666 [label=<squared_error = -32.0<br/>samples = 1<br/>value = 383550148.0>, fillcolor="#fcf2eb"] ;
664 -> 666 ;
667 [label=<squared_error = -36.0<br/>samples = 1<br/>value = 86444842.0>, fillcolor="#fefcfa"] ;
659 -> 667 ;
668 [label=<valence_% &le; 74.0<br/>squared_error = 1.7482488887842912e+16<br/>samples = 3<br/>value = 459267643.667>, fillcolor="#fcefe7"] ;
644 -> 668 ;
669 [label=<acousticness_% &le; 22.0<br/>squared_error = 4250385547590400.0<br/>samples = 2<br/>value = 544850640.0>, fillcolor="#fbede2"] ;
668 -> 669 ;
670 [label=<squared_error = 0.0<br/>samples = 1<br/>value = 610045621.0>, fillcolor="#fbeade"] ;
669 -> 670 ;
671 [label=<squared_error = 64.0<br/>samples = 1<br/>value = 479655659.0>, fillcolor="#fcefe5"] ;
669 -> 671 ;
672 [label=<squared_error = -112.0<br/>samples = 1<br/>value = 288101651.0>, fillcolor="#fdf5f0"] ;
668 -> 672 ;
673 [label=<valence_% &le; 78.0<br/>squared_error = 9.780122579176202e+16<br/>samples = 3<br/>value = 446026349.8>, fillcolor="#fcf0e7"] ;
643 -> 673 ;
674 [label=<danceability_% &le; 65.5<br/>squared_error = 2299301970990624.0<br/>samples = 2<br/>value = 291137854.25>, fillcolor="#fdf5f0"] ;
673 -> 674 ;
675 [label=<squared_error = 0.0<br/>samples = 1<br/>value = 263453310.0>, fillcolor="#fdf6f1"] ;
674 -> 675 ;
676 [label=<squared_error = 0.0<br/>samples = 1<br/>value = 374191487.0>, fillcolor="#fcf2eb"] ;
674 -> 676 ;
677 [label=<squared_error = -128.0<br/>samples = 1<br/>value = 1065580332.0>, fillcolor="#f8dbc6"] ;
673 -> 677 ;
678 [label=<energy_% &le; 80.5<br/>squared_error = 1.7128097178757702e+17<br/>samples = 260<br/>value = 376111222.024>, fillcolor="#fcf2eb"] ;
584 -> 678 ;
679 [label=<liveness_% &le; 6.5<br/>squared_error = 1.893887055927378e+17<br/>samples = 223<br/>value = 399373701.368>, fillcolor="#fcf1ea"] ;
678 -> 679 ;
680 [label=<danceability_% &le; 72.5<br/>squared_error = 2.8466467554140134e+17<br/>samples = 7<br/>value = 902763271.111>, fillcolor="#f9e0cf"] ;
679 -> 680 ;
681 [label=<speechiness_% &le; 20.0<br/>squared_error = 4.995852057215078e+16<br/>samples = 2<br/>value = 1474904000.667>, fillcolor="#f5cdb0"] ;
680 -> 681 ;
682 [label=<squared_error = 0.0<br/>samples = 1<br/>value = 1316855716.0>, fillcolor="#f6d2b9"] ;
681 -> 682 ;
683 [label=<squared_error = -512.0<br/>samples = 1<br/>value = 1791000570.0>, fillcolor="#f2c29f"] ;
681 -> 683 ;
684 [label=<liveness_% &le; 5.5<br/>squared_error = 1.565089922137538e+17<br/>samples = 5<br/>value = 616692906.333>, fillcolor="#fbeade"] ;
680 -> 684 ;
685 [label=<energy_% &le; 63.0<br/>squared_error = 3.4563013070268176e+16<br/>samples = 3<br/>value = 360519474.5>, fillcolor="#fcf3ec"] ;
684 -> 685 ;
686 [label=<squared_error = 0.0<br/>samples = 1<br/>value = 682475162.0>, fillcolor="#fae8db"] ;
685 -> 686 ;
687 [label=<energy_% &le; 76.5<br/>squared_error = 14921998758592.0<br/>samples = 2<br/>value = 253200912.0>, fillcolor="#fdf6f2"] ;
685 -> 687 ;
688 [label=<squared_error = -8.0<br/>samples = 1<br/>value = 247737946.0>, fillcolor="#fdf7f2"] ;
687 -> 688 ;
689 [label=<squared_error = -8.0<br/>samples = 1<br/>value = 255932395.0>, fillcolor="#fdf6f1"] ;
687 -> 689 ;
690 [label=<speechiness_% &le; 14.5<br/>squared_error = 6651987437120000.0<br/>samples = 2<br/>value = 1129039770.0>, fillcolor="#f7d9c3"] ;
684 -> 690 ;
691 [label=<squared_error = 0.0<br/>samples = 1<br/>value = 1047480053.0>, fillcolor="#f8dbc7"] ;
690 -> 691 ;
692 [label=<squared_error = 0.0<br/>samples = 1<br/>value = 1210599487.0>, fillcolor="#f7d6be"] ;
690 -> 692 ;
693 [label=<energy_% &le; 79.5<br/>squared_error = 1.8017474445238157e+17<br/>samples = 216<br/>value = 386317487.744>, fillcolor="#fcf2ea"] ;
679 -> 693 ;
694 [label=<valence_% &le; 86.5<br/>squared_error = 1.6936395693530592e+17<br/>samples = 210<br/>value = 370371865.707>, fillcolor="#fcf2eb"] ;
693 -> 694 ;
695 [label=<acousticness_% &le; 53.0<br/>squared_error = 1.3816980946734411e+17<br/>samples = 190<br/>value = 347515776.289>, fillcolor="#fdf3ec"] ;
694 -> 695 ;
696 [label=<speechiness_% &le; 27.5<br/>squared_error = 1.0758189400396269e+17<br/>samples = 158<br/>value = 327715553.405>, fillcolor="#fdf4ee"] ;
695 -> 696 ;
697 [label=<instrumentalness_% &le; 3.5<br/>squared_error = 8.416493532941842e+16<br/>samples = 134<br/>value = 309306216.342>, fillcolor="#fdf5ef"] ;
696 -> 697 ;
698 [label=<speechiness_% &le; 23.5<br/>squared_error = 8.51985381909093e+16<br/>samples = 130<br/>value = 317691448.745>, fillcolor="#fdf4ee"] ;
697 -> 698 ;
699 [label=<energy_% &le; 48.5<br/>squared_error = 8.955169219683366e+16<br/>samples = 119<br/>value = 331435089.08>, fillcolor="#fdf4ed"] ;
698 -> 699 ;
700 [label=<valence_% &le; 14.0<br/>squared_error = 1.2377041847408002e+16<br/>samples = 12<br/>value = 210917212.545>, fillcolor="#fef8f4"] ;
699 -> 700 ;
701 [label=<squared_error = 0.0<br/>samples = 1<br/>value = 488386797.0>, fillcolor="#fceee5"] ;
700 -> 701 ;
702 [label=<energy_% &le; 45.5<br/>squared_error = 5145915299437196.0<br/>samples = 11<br/>value = 183170254.1>, fillcolor="#fef9f5"] ;
700 -> 702 ;
703 [label=<energy_% &le; 44.5<br/>squared_error = 2818546855969720.0<br/>samples = 7<br/>value = 214394459.429>, fillcolor="#fef8f4"] ;
702 -> 703 ;
704 [label=<liveness_% &le; 34.5<br/>squared_error = 1191096689376072.0<br/>samples = 5<br/>value = 191836549.273>, fillcolor="#fef9f5"] ;
703 -> 704 ;
705 [label=<energy_% &le; 42.5<br/>squared_error = 49092513204288.0<br/>samples = 3<br/>value = 166092138.714>, fillcolor="#fef9f6"] ;
704 -> 705 ;
706 [label=<squared_error = 0.0<br/>samples = 1<br/>value = 160035717.0>, fillcolor="#fefaf7"] ;
705 -> 706 ;
707 [label=<speechiness_% &le; 14.0<br/>squared_error = 432882868268.0<br/>samples = 2<br/>value = 174167367.667>, fillcolor="#fef9f6"] ;
705 -> 707 ;
708 [label=<squared_error = 0.0<br/>samples = 1<br/>value = 175097833.0>, fillcolor="#fef9f6"] ;
707 -> 708 ;
709 [label=<squared_error = 0.0<br/>samples = 1<br/>value = 173702135.0>, fillcolor="#fef9f6"] ;
707 -> 709 ;
710 [label=<acousticness_% &le; 39.0<br/>squared_error = 874231528.0<br/>samples = 2<br/>value = 236889267.75>, fillcolor="#fdf7f2"] ;
704 -> 710 ;
711 [label=<squared_error = 0.0<br/>samples = 1<br/>value = 236872197.0>, fillcolor="#fdf7f2"] ;
710 -> 711 ;
712 [label=<squared_error = 0.0<br/>samples = 1<br/>value = 236940480.0>, fillcolor="#fdf7f2"] ;
710 -> 712 ;
713 [label=<instrumentalness_% &le; 1.5<br/>squared_error = 78715929894496.0<br/>samples = 2<br/>value = 297106796.667>, fillcolor="#fdf5ef"] ;
703 -> 713 ;
714 [label=<squared_error = 0.0<br/>samples = 1<br/>value = 290833204.0>, fillcolor="#fdf5f0"] ;
713 -> 714 ;
715 [label=<squared_error = 0.0<br/>samples = 1<br/>value = 309653982.0>, fillcolor="#fdf5ef"] ;
713 -> 715 ;
716 [label=<liveness_% &le; 11.5<br/>squared_error = 2993489457744072.0<br/>samples = 4<br/>value = 110313775.0>, fillcolor="#fefbf9"] ;
702 -> 716 ;
717 [label=<valence_% &le; 49.5<br/>squared_error = 267254210411832.0<br/>samples = 2<br/>value = 73218600.5>, fillcolor="#fefdfb"] ;
716 -> 717 ;
718 [label=<squared_error = 0.0<br/>samples = 1<br/>value = 89566512.0>, fillcolor="#fefcfa"] ;
717 -> 718 ;
719 [label=<squared_error = -1.0<br/>samples = 1<br/>value = 56870689.0>, fillcolor="#fffdfc"] ;
717 -> 719 ;
720 [label=<valence_% &le; 47.5<br/>squared_error = 189648125295840.0<br/>samples = 2<br/>value = 184504124.0>, fillcolor="#fef9f5"] ;
716 -> 720 ;
721 [label=<squared_error = 0.0<br/>samples = 1<br/>value = 170732845.0>, fillcolor="#fef9f6"] ;
720 -> 721 ;
722 [label=<squared_error = 0.0<br/>samples = 1<br/>value = 198275403.0>, fillcolor="#fef8f4"] ;
720 -> 722 ;
723 [label=<instrumentalness_% &le; 0.5<br/>squared_error = 9.703230063928875e+16<br/>samples = 107<br/>value = 346247342.061>, fillcolor="#fdf3ed"] ;
699 -> 723 ;
724 [label=<danceability_% &le; 90.5<br/>squared_error = 9.341156584128298e+16<br/>samples = 102<br/>value = 338441584.006>, fillcolor="#fdf4ed"] ;
723 -> 724 ;
725 [label=<acousticness_% &le; 51.5<br/>squared_error = 8.281065210031357e+16<br/>samples = 96<br/>value = 328337094.755>, fillcolor="#fdf4ee"] ;
724 -> 725 ;
726 [label=<acousticness_% &le; 27.5<br/>squared_error = 8.074454669063672e+16<br/>samples = 95<br/>value = 324360721.068>, fillcolor="#fdf4ee"] ;
725 -> 726 ;
727 [label=<valence_% &le; 35.5<br/>squared_error = 7.76542530495251e+16<br/>samples = 68<br/>value = 352316533.154>, fillcolor="#fdf3ec"] ;
726 -> 727 ;
728 [label=<acousticness_% &le; 24.5<br/>squared_error = 1.84680635373718e+16<br/>samples = 12<br/>value = 199307032.087>, fillcolor="#fef8f4"] ;
727 -> 728 ;
729 [label=<danceability_% &le; 69.5<br/>squared_error = 5749140651191532.0<br/>samples = 11<br/>value = 154359044.15>, fillcolor="#fefaf7"] ;
728 -> 729 ;
730 [label=<valence_% &le; 24.5<br/>squared_error = 45385700345880.0<br/>samples = 2<br/>value = 257042139.0>, fillcolor="#fdf6f1"] ;
729 -> 730 ;
731 [label=<squared_error = 0.0<br/>samples = 1<br/>value = 250305248.0>, fillcolor="#fdf7f2"] ;
730 -> 731 ;
732 [label=<squared_error = 0.0<br/>samples = 1<br/>value = 263779030.0>, fillcolor="#fdf6f1"] ;
730 -> 732 ;
733 [label=<valence_% &le; 13.0<br/>squared_error = 3880136273911044.0<br/>samples = 9<br/>value = 128688270.438>, fillcolor="#fefbf8"] ;
729 -> 733 ;
734 [label=<speechiness_% &le; 15.5<br/>squared_error = 239887755786040.0<br/>samples = 2<br/>value = 204095044.4>, fillcolor="#fef8f4"] ;
733 -> 734 ;
735 [label=<squared_error = 0.0<br/>samples = 1<br/>value = 191448892.0>, fillcolor="#fef9f5"] ;
734 -> 735 ;
736 [label=<squared_error = 8.0<br/>samples = 1<br/>value = 223064273.0>, fillcolor="#fdf7f3"] ;
734 -> 736 ;
737 [label=<liveness_% &le; 33.0<br/>squared_error = 1775335808971779.0<br/>samples = 7<br/>value = 94412464.091>, fillcolor="#fefcfa"] ;
733 -> 737 ;
738 [label=<valence_% &le; 23.5<br/>squared_error = 850744551569174.0<br/>samples = 5<br/>value = 68928889.429>, fillcolor="#fffdfb"] ;
737 -> 738 ;
739 [label=<acousticness_% &le; 9.5<br/>squared_error = 34925491068050.0<br/>samples = 2<br/>value = 99396160.0>, fillcolor="#fefcfa"] ;
738 -> 739 ;
740 [label=<squared_error = 0.0<br/>samples = 1<br/>value = 107753850.0>, fillcolor="#fefbf9"] ;
739 -> 740 ;
741 [label=<squared_error = 0.0<br/>samples = 1<br/>value = 95217315.0>, fillcolor="#fefcfa"] ;
739 -> 741 ;
742 [label=<liveness_% &le; 15.5<br/>squared_error = 244274715849682.75<br/>samples = 3<br/>value = 46078436.5>, fillcolor="#fffdfd"] ;
738 -> 742 ;
743 [label=<squared_error = 0.0<br/>samples = 1<br/>value = 61105704.0>, fillcolor="#fffdfc"] ;
742 -> 743 ;
744 [label=<liveness_% &le; 22.5<br/>squared_error = 36911894666256.0<br/>samples = 2<br/>value = 31051169.0>, fillcolor="#fffefd"] ;
742 -> 744 ;
745 [label=<squared_error = 0.0<br/>samples = 1<br/>value = 37126685.0>, fillcolor="#fffefd"] ;
744 -> 745 ;
746 [label=<squared_error = 0.0<br/>samples = 1<br/>value = 24975653.0>, fillcolor="#fffefe"] ;
744 -> 746 ;
747 [label=<acousticness_% &le; 8.5<br/>squared_error = 268072479866204.0<br/>samples = 2<br/>value = 139008719.75>, fillcolor="#fefaf8"] ;
737 -> 747 ;
748 [label=<squared_error = 0.0<br/>samples = 1<br/>value = 148461629.0>, fillcolor="#fefaf7"] ;
747 -> 748 ;
749 [label=<squared_error = 8.0<br/>samples = 1<br/>value = 110649992.0>, fillcolor="#fefbf9"] ;
747 -> 749 ;
750 [label=<squared_error = -64.0<br/>samples = 1<br/>value = 498960285.0>, fillcolor="#fceee4"] ;
728 -> 750 ;
751 [label=<liveness_% &le; 12.5<br/>squared_error = 8.500589393531414e+16<br/>samples = 56<br/>value = 389755028.096>, fillcolor="#fcf2ea"] ;
727 -> 751 ;
752 [label=<speechiness_% &le; 17.5<br/>squared_error = 3.335687934428701e+16<br/>samples = 29<br/>value = 316050635.894>, fillcolor="#fdf4ee"] ;
751 -> 752 ;
753 [label=<acousticness_% &le; 11.5<br/>squared_error = 3.0964311231860864e+16<br/>samples = 26<br/>value = 341553066.071>, fillcolor="#fdf3ed"] ;
752 -> 753 ;
754 [label=<danceability_% &le; 78.5<br/>squared_error = 2.1680514633408136e+16<br/>samples = 11<br/>value = 266805733.0>, fillcolor="#fdf6f1"] ;
753 -> 754 ;
