digraph Tree {
node [shape=box, style="filled, rounded", color="black", fontname="helvetica"] ;
edge [fontname="helvetica"] ;
0 [label=<speechiness_% &le; 3.5<br/>squared_error = 3.15692455257247e+17<br/>samples = 599<br/>value = 507491584.23>, fillcolor="#fbede3"] ;
1 [label=<danceability_% &le; 73.5<br/>squared_error = 5.321122788900746e+17<br/>samples = 95<br/>value = 707943337.614>, fillcolor="#fae6d8"] ;
0 -> 1 [labeldistance=2.5, labelangle=45, headlabel="True"] ;
2 [label=<speechiness_% &le; 2.5<br/>squared_error = 3.6662537997916224e+17<br/>samples = 84<br/>value = 616078477.836>, fillcolor="#fbe9dd"] ;
1 -> 2 ;
3 [label=<danceability_% &le; 66.5<br/>squared_error = 9.05017708977771e+17<br/>samples = 3<br/>value = 1741019893.0>, fillcolor="#f2c19e"] ;
2 -> 3 ;
4 [label=<energy_% &le; 44.5<br/>squared_error = 2.0113220230562714e+17<br/>samples = 2<br/>value = 2242407486.667>, fillcolor="#efb082"] ;
3 -> 4 ;
5 [label=<squared_error = 0.0<br/>samples = 1<br/>value = 1608164312.0>, fillcolor="#f3c6a6"] ;
4 -> 5 ;
6 [label=<squared_error = 0.0<br/>samples = 1<br/>value = 2559529074.0>, fillcolor="#eca471"] ;
4 -> 6 ;
7 [label=<squared_error = -576.0<br/>samples = 1<br/>value = 236857112.0>, fillcolor="#fdf7f2"] ;
3 -> 7 ;
8 [label=<danceability_% &le; 49.5<br/>squared_error = 3.0402254639597856e+17<br/>samples = 81<br/>value = 577944870.542>, fillcolor="#fbebdf"] ;
2 -> 8 ;
9 [label=<danceability_% &le; 41.0<br/>squared_error = 4.374184115412321e+17<br/>samples = 23<br/>value = 833065568.057>, fillcolor="#f9e2d1"] ;
8 -> 9 ;
10 [label=<instrumentalness_% &le; 2.5<br/>squared_error = 5.076529629947626e+16<br/>samples = 12<br/>value = 373257431.667>, fillcolor="#fcf2ea"] ;
9 -> 10 ;
11 [label=<valence_% &le; 30.0<br/>squared_error = 2.8142585024527216e+16<br/>samples = 10<br/>value = 292409002.25>, fillcolor="#fdf5ef"] ;
10 -> 11 ;
12 [label=<liveness_% &le; 18.5<br/>squared_error = 1.9152506502983256e+16<br/>samples = 8<br/>value = 244743838.4>, fillcolor="#fdf6f1"] ;
11 -> 12 ;
13 [label=<danceability_% &le; 38.5<br/>squared_error = 1.2557345798074736e+16<br/>samples = 6<br/>value = 310903184.429>, fillcolor="#fdf4ee"] ;
12 -> 13 ;
14 [label=<danceability_% &le; 36.5<br/>squared_error = 1655018927360136.0<br/>samples = 4<br/>value = 263546983.4>, fillcolor="#fdf6f0"] ;
13 -> 14 ;
15 [label=<energy_% &le; 43.0<br/>squared_error = 126334907697296.0<br/>samples = 3<br/>value = 283257076.0>, fillcolor="#fdf5ef"] ;
14 -> 15 ;
16 [label=<energy_% &le; 29.0<br/>squared_error = 34282754972160.0<br/>samples = 2<br/>value = 289048530.667>, fillcolor="#fdf5ef"] ;
15 -> 16 ;
17 [label=<squared_error = 0.0<br/>samples = 1<br/>value = 284908316.0>, fillcolor="#fdf5ef"] ;
16 -> 17 ;
18 [label=<squared_error = 0.0<br/>samples = 1<br/>value = 297328960.0>, fillcolor="#fdf4ee"] ;
16 -> 18 ;
19 [label=<squared_error = 32.0<br/>samples = 1<br/>value = 265882712.0>, fillcolor="#fdf6f0"] ;
15 -> 19 ;
20 [label=<squared_error = 8.0<br/>samples = 1<br/>value = 184706613.0>, fillcolor="#fef8f5"] ;
14 -> 20 ;
21 [label=<liveness_% &le; 10.5<br/>squared_error = 2.019032743609955e+16<br/>samples = 2<br/>value = 429293687.0>, fillcolor="#fcf0e7"] ;
13 -> 21 ;
22 [label=<squared_error = 0.0<br/>samples = 1<br/>value = 287201015.0>, fillcolor="#fdf5ef"] ;
21 -> 22 ;
23 [label=<squared_error = 0.0<br/>samples = 1<br/>value = 571386359.0>, fillcolor="#fbebdf"] ;
21 -> 23 ;
24 [label=<valence_% &le; 19.5<br/>squared_error = 497422071661226.0<br/>samples = 2<br/>value = 90372031.0>, fillcolor="#fefcfa"] ;
12 -> 24 ;
25 [label=<squared_error = 0.0<br/>samples = 1<br/>value = 74601456.0>, fillcolor="#fefcfb"] ;
24 -> 25 ;
26 [label=<squared_error = 0.0<br/>samples = 1<br/>value = 121913181.0>, fillcolor="#fefbf8"] ;
24 -> 26 ;
27 [label=<valence_% &le; 35.5<br/>squared_error = 4933942286826624.0<br/>samples = 2<br/>value = 530734821.5>, fillcolor="#fbece2"] ;
11 -> 27 ;
28 [label=<squared_error = 0.0<br/>samples = 1<br/>value = 600976848.0>, fillcolor="#fbeade"] ;
27 -> 28 ;
29 [label=<squared_error = -32.0<br/>samples = 1<br/>value = 460492795.0>, fillcolor="#fcefe5"] ;
27 -> 29 ;
30 [label=<liveness_% &le; 10.5<br/>squared_error = 1.0526770616437886e+16<br/>samples = 2<br/>value = 696651149.333>, fillcolor="#fae6d8"] ;
10 -> 30 ;
31 [label=<squared_error = 0.0<br/>samples = 1<br/>value = 624101957.0>, fillcolor="#fae9dc"] ;
30 -> 31 ;
32 [label=<squared_error = -128.0<br/>samples = 1<br/>value = 841749534.0>, fillcolor="#f9e1d0"] ;
30 -> 32 ;
33 [label=<valence_% &le; 24.5<br/>squared_error = 4.499148749657654e+17<br/>samples = 11<br/>value = 1177921670.35>, fillcolor="#f6d5be"] ;
9 -> 33 ;
34 [label=<acousticness_% &le; 78.0<br/>squared_error = 4.079375147825107e+16<br/>samples = 5<br/>value = 323691503.0>, fillcolor="#fdf4ed"] ;
33 -> 34 ;
35 [label=<energy_% &le; 59.5<br/>squared_error = 1.2176684240737952e+16<br/>samples = 3<br/>value = 467701000.667>, fillcolor="#fceee5"] ;
34 -> 35 ;
36 [label=<instrumentalness_% &le; 21.0<br/>squared_error = 487267855406848.0<br/>samples = 2<br/>value = 390721006.5>, fillcolor="#fcf1e9"] ;
35 -> 36 ;
37 [label=<squared_error = 0.0<br/>samples = 1<br/>value = 412795151.0>, fillcolor="#fcf0e8"] ;
36 -> 37 ;
38 [label=<squared_error = -32.0<br/>samples = 1<br/>value = 368646862.0>, fillcolor="#fcf2eb"] ;
36 -> 38 ;
39 [label=<squared_error = 0.0<br/>samples = 1<br/>value = 621660989.0>, fillcolor="#fae9dc"] ;
35 -> 39 ;
40 [label=<danceability_% &le; 46.5<br/>squared_error = 5949094516249464.0<br/>samples = 2<br/>value = 107677256.5>, fillcolor="#fefbf9"] ;
34 -> 40 ;
41 [label=<squared_error = 0.0<br/>samples = 1<br/>value = 30546883.0>, fillcolor="#fffefd"] ;
40 -> 41 ;
42 [label=<squared_error = 0.0<br/>samples = 1<br/>value = 184807630.0>, fillcolor="#fef8f5"] ;
40 -> 42 ;
43 [label=<valence_% &le; 45.0<br/>squared_error = 2.6197339221235504e+17<br/>samples = 6<br/>value = 1462665059.467>, fillcolor="#f4cbae"] ;
33 -> 43 ;
44 [label=<danceability_% &le; 44.0<br/>squared_error = 1.2936894545271194e+17<br/>samples = 5<br/>value = 1563103044.286>, fillcolor="#f4c8a8"] ;
43 -> 44 ;
45 [label=<acousticness_% &le; 46.0<br/>squared_error = 2.737531996309248e+16<br/>samples = 2<br/>value = 1920669309.0>, fillcolor="#f1bb94"] ;
44 -> 45 ;
46 [label=<squared_error = 0.0<br/>samples = 1<br/>value = 1755214421.0>, fillcolor="#f2c19d"] ;
45 -> 46 ;
47 [label=<squared_error = 512.0<br/>samples = 1<br/>value = 2086124197.0>, fillcolor="#f0b58b"] ;
45 -> 47 ;
48 [label=<valence_% &le; 37.5<br/>squared_error = 3.805627038891034e+16<br/>samples = 3<br/>value = 1294928345.75>, fillcolor="#f6d1b7"] ;
44 -> 48 ;
49 [label=<energy_% &le; 51.0<br/>squared_error = 1.1278164731279616e+16<br/>samples = 2<br/>value = 1195601198.0>, fillcolor="#f6d5bd"] ;
48 -> 49 ;
50 [label=<squared_error = -256.0<br/>samples = 1<br/>value = 1301799902.0>, fillcolor="#f5d1b7"] ;
49 -> 50 ;
51 [label=<squared_error = 256.0<br/>samples = 1<br/>value = 1089402494.0>, fillcolor="#f7d8c2"] ;
49 -> 51 ;
52 [label=<squared_error = -1024.0<br/>samples = 1<br/>value = 1592909789.0>, fillcolor="#f3c7a6"] ;
48 -> 52 ;
53 [label=<squared_error = 3520.0<br/>samples = 1<br/>value = 56533272.0>, fillcolor="#fffdfc"] ;
43 -> 53 ;
54 [label=<danceability_% &le; 68.5<br/>squared_error = 2.087514586346616e+17<br/>samples = 58<br/>value = 470363853.518>, fillcolor="#fceee5"] ;
8 -> 54 ;
55 [label=<danceability_% &le; 67.5<br/>squared_error = 2.4942925314171738e+17<br/>samples = 47<br/>value = 536901560.587>, fillcolor="#fbece1"] ;
54 -> 55 ;
56 [label=<energy_% &le; 69.5<br/>squared_error = 2.3523417161089718e+17<br/>samples = 46<br/>value = 519896363.435>, fillcolor="#fbede2"] ;
55 -> 56 ;
57 [label=<energy_% &le; 39.5<br/>squared_error = 2.7052830050627488e+17<br/>samples = 36<br/>value = 599835666.447>, fillcolor="#fbeade"] ;
56 -> 57 ;
58 [label=<acousticness_% &le; 89.0<br/>squared_error = 1.930888168640679e+16<br/>samples = 7<br/>value = 264955744.111>, fillcolor="#fdf6f0"] ;
57 -> 58 ;
59 [label=<liveness_% &le; 10.5<br/>squared_error = 1.5623416691826528e+16<br/>samples = 5<br/>value = 331499575.667>, fillcolor="#fdf3ed"] ;
58 -> 59 ;
60 [label=<acousticness_% &le; 71.5<br/>squared_error = 5884312794316348.0<br/>samples = 2<br/>value = 168182637.5>, fillcolor="#fef9f6"] ;
59 -> 60 ;
61 [label=<squared_error = 0.0<br/>samples = 1<br/>value = 91473363.0>, fillcolor="#fefcfa"] ;
60 -> 61 ;
62 [label=<squared_error = 0.0<br/>samples = 1<br/>value = 244891912.0>, fillcolor="#fdf6f1"] ;
60 -> 62 ;
63 [label=<energy_% &le; 37.0<br/>squared_error = 488651921480512.0<br/>samples = 3<br/>value = 413158044.75>, fillcolor="#fcf0e8"] ;
59 -> 63 ;
64 [label=<liveness_% &le; 23.0<br/>squared_error = 58005195569664.0<br/>samples = 2<br/>value = 400976802.0>, fillcolor="#fcf1e9"] ;
63 -> 64 ;
65 [label=<squared_error = 0.0<br/>samples = 1<br/>value = 395591396.0>, fillcolor="#fcf1e9"] ;
64 -> 65 ;
66 [label=<squared_error = 0.0<br/>samples = 1<br/>value = 411747614.0>, fillcolor="#fcf0e8"] ;
64 -> 66 ;
67 [label=<squared_error = -32.0<br/>samples = 1<br/>value = 449701773.0>, fillcolor="#fcefe6"] ;
63 -> 67 ;
68 [label=<danceability_% &le; 58.0<br/>squared_error = 111322567002400.0<br/>samples = 2<br/>value = 131868081.0>, fillcolor="#fefaf8"] ;
58 -> 68 ;
69 [label=<squared_error = 0.0<br/>samples = 1<br/>value = 146789379.0>, fillcolor="#fefaf7"] ;
68 -> 69 ;
70 [label=<squared_error = 0.0<br/>samples = 1<br/>value = 124407432.0>, fillcolor="#fefbf8"] ;
68 -> 70 ;
71 [label=<energy_% &le; 42.0<br/>squared_error = 2.971764247085932e+17<br/>samples = 29<br/>value = 679149332.263>, fillcolor="#fae7d9"] ;
57 -> 71 ;
72 [label=<squared_error = 0.0<br/>samples = 1<br/>value = 2159346687.0>, fillcolor="#efb387"] ;
71 -> 72 ;
73 [label=<liveness_% &le; 35.0<br/>squared_error = 1.8520258419725274e+17<br/>samples = 28<br/>value = 596916145.889>, fillcolor="#fbeade"] ;
71 -> 73 ;
74 [label=<danceability_% &le; 54.0<br/>squared_error = 1.7861747770678957e+17<br/>samples = 26<br/>value = 641085947.909>, fillcolor="#fae8db"] ;
73 -> 74 ;
75 [label=<acousticness_% &le; 45.5<br/>squared_error = 1.8219804812262867e+17<br/>samples = 7<br/>value = 361188330.889>, fillcolor="#fcf2eb"] ;
74 -> 75 ;
76 [label=<valence_% &le; 38.0<br/>squared_error = 1583524249997471.5<br/>samples = 3<br/>value = 55718180.8>, fillcolor="#fffdfc"] ;
75 -> 76 ;
77 [label=<acousticness_% &le; 19.5<br/>squared_error = 11229140682081.0<br/>samples = 2<br/>value = 35877938.0>, fillcolor="#fffefd"] ;
76 -> 77 ;
78 [label=<squared_error = 0.0<br/>samples = 1<br/>value = 39228929.0>, fillcolor="#fffefd"] ;
77 -> 78 ;
79 [label=<squared_error = 0.0<br/>samples = 1<br/>value = 32526947.0>, fillcolor="#fffefd"] ;
77 -> 79 ;
80 [label=<squared_error = -4.0<br/>samples = 1<br/>value = 135079152.0>, fillcolor="#fefaf7"] ;
76 -> 80 ;
81 [label=<danceability_% &le; 51.5<br/>squared_error = 1.4552616753905677e+17<br/>samples = 4<br/>value = 743026018.5>, fillcolor="#fae5d6"] ;
75 -> 81 ;
82 [label=<energy_% &le; 52.5<br/>squared_error = 4.568147084288208e+16<br/>samples = 2<br/>value = 393391535.0>, fillcolor="#fcf1e9"] ;
81 -> 82 ;
83 [label=<squared_error = 0.0<br/>samples = 1<br/>value = 179659294.0>, fillcolor="#fef9f5"] ;
82 -> 83 ;
84 [label=<squared_error = 0.0<br/>samples = 1<br/>value = 607123776.0>, fillcolor="#fbeadd"] ;
82 -> 84 ;
85 [label=<acousticness_% &le; 52.5<br/>squared_error = 882320130607872.0<br/>samples = 2<br/>value = 1092660502.0>, fillcolor="#f7d8c2"] ;
81 -> 85 ;
86 [label=<squared_error = 0.0<br/>samples = 1<br/>value = 1062956628.0>, fillcolor="#f7d9c4"] ;
85 -> 86 ;
87 [label=<squared_error = 0.0<br/>samples = 1<br/>value = 1122364376.0>, fillcolor="#f7d7c1"] ;
85 -> 87 ;
88 [label=<danceability_% &le; 55.5<br/>squared_error = 1.3687932148134374e+17<br/>samples = 19<br/>value = 746047554.292>, fillcolor="#fae5d6"] ;
74 -> 88 ;
89 [label=<squared_error = 0.0<br/>samples = 1<br/>value = 1788326445.0>, fillcolor="#f2c09c"] ;
88 -> 89 ;
90 [label=<energy_% &le; 47.0<br/>squared_error = 9.354460981722682e+16<br/>samples = 18<br/>value = 700731080.783>, fillcolor="#fae6d8"] ;
88 -> 90 ;
91 [label=<energy_% &le; 45.0<br/>squared_error = 1.1213482159206628e+16<br/>samples = 2<br/>value = 176989438.5>, fillcolor="#fef9f5"] ;
90 -> 91 ;
92 [label=<squared_error = 0.0<br/>samples = 1<br/>value = 71095708.0>, fillcolor="#fefcfb"] ;
91 -> 92 ;
93 [label=<squared_error = 0.0<br/>samples = 1<br/>value = 282883169.0>, fillcolor="#fdf5ef"] ;
91 -> 93 ;
94 [label=<acousticness_% &le; 61.5<br/>squared_error = 7.277332455653818e+16<br/>samples = 16<br/>value = 750611237.19>, fillcolor="#fae4d5"] ;
90 -> 94 ;
95 [label=<energy_% &le; 65.0<br/>squared_error = 5.597172054267258e+16<br/>samples = 15<br/>value = 719412740.4>, fillcolor="#fae6d7"] ;
94 -> 95 ;
96 [label=<valence_% &le; 70.5<br/>squared_error = 3.660410176715917e+16<br/>samples = 12<br/>value = 654352998.412>, fillcolor="#fae8db"] ;
95 -> 96 ;
97 [label=<instrumentalness_% &le; 8.5<br/>squared_error = 2.4746798307911428e+16<br/>samples = 11<br/>value = 625507507.562>, fillcolor="#fae9dc"] ;
96 -> 97 ;
98 [label=<valence_% &le; 20.5<br/>squared_error = 8854564611797248.0<br/>samples = 9<br/>value = 588126070.571>, fillcolor="#fbeade"] ;
97 -> 98 ;
99 [label=<acousticness_% &le; 27.5<br/>squared_error = 68087367771072.0<br/>samples = 2<br/>value = 689834633.0>, fillcolor="#fae7d9"] ;
98 -> 99 ;
100 [label=<squared_error = 0.0<br/>samples = 1<br/>value = 698086140.0>, fillcolor="#fae6d8"] ;
99 -> 100 ;
101 [label=<squared_error = 0.0<br/>samples = 1<br/>value = 681583126.0>, fillcolor="#fae7d9"] ;
99 -> 101 ;
102 [label=<liveness_% &le; 12.5<br/>squared_error = 6576161773487104.0<br/>samples = 7<br/>value = 547442645.6>, fillcolor="#fbece1"] ;
98 -> 102 ;
103 [label=<energy_% &le; 50.0<br/>squared_error = 784511038087744.0<br/>samples = 3<br/>value = 596538035.333>, fillcolor="#fbeade"] ;
102 -> 103 ;
104 [label=<squared_error = 0.0<br/>samples = 1<br/>value = 635412045.0>, fillcolor="#fae9dc"] ;
103 -> 104 ;
105 [label=<energy_% &le; 58.0<br/>squared_error = 43375086458624.0<br/>samples = 2<br/>value = 577101030.5>, fillcolor="#fbebdf"] ;
103 -> 105 ;
106 [label=<squared_error = 0.0<br/>samples = 1<br/>value = 583687007.0>, fillcolor="#fbeadf"] ;
105 -> 106 ;
107 [label=<squared_error = 0.0<br/>samples = 1<br/>value = 570515054.0>, fillcolor="#fbebdf"] ;
105 -> 107 ;
108 [label=<energy_% &le; 57.5<br/>squared_error = 6224798027581472.0<br/>samples = 4<br/>value = 473799561.0>, fillcolor="#fceee5"] ;
102 -> 108 ;
109 [label=<danceability_% &le; 59.5<br/>squared_error = 1247018080457248.0<br/>samples = 3<br/>value = 431809346.0>, fillcolor="#fcf0e7"] ;
108 -> 109 ;
110 [label=<energy_% &le; 55.0<br/>squared_error = 3912549274272.0<br/>samples = 2<br/>value = 406865311.5>, fillcolor="#fcf1e8"] ;
109 -> 110 ;
111 [label=<squared_error = 0.0<br/>samples = 1<br/>value = 404887295.0>, fillcolor="#fcf1e8"] ;
110 -> 111 ;
112 [label=<squared_error = 0.0<br/>samples = 1<br/>value = 408843328.0>, fillcolor="#fcf1e8"] ;
110 -> 112 ;
113 [label=<squared_error = 0.0<br/>samples = 1<br/>value = 481697415.0>, fillcolor="#fbeee4"] ;
109 -> 113 ;
114 [label=<squared_error = 64.0<br/>samples = 1<br/>value = 599770206.0>, fillcolor="#fbeade"] ;
108 -> 114 ;
115 [label=<energy_% &le; 56.0<br/>squared_error = 5.7739611615734264e+16<br/>samples = 2<br/>value = 887177566.5>, fillcolor="#f9e0ce"] ;
97 -> 115 ;
116 [label=<squared_error = 0.0<br/>samples = 1<br/>value = 1127468248.0>, fillcolor="#f7d7c0"] ;
115 -> 116 ;
117 [label=<squared_error = 64.0<br/>samples = 1<br/>value = 646886885.0>, fillcolor="#fae8db"] ;
115 -> 117 ;
118 [label=<squared_error = 512.0<br/>samples = 1<br/>value = 1115880852.0>, fillcolor="#f7d8c1"] ;
96 -> 118 ;
119 [label=<energy_% &le; 67.0<br/>squared_error = 5816914784386304.0<br/>samples = 3<br/>value = 1088084611.667>, fillcolor="#f7d9c3"] ;
95 -> 119 ;
120 [label=<squared_error = 0.0<br/>samples = 1<br/>value = 983637508.0>, fillcolor="#f8dcc8"] ;
119 -> 120 ;
121 [label=<valence_% &le; 46.0<br/>squared_error = 543474078313472.0<br/>samples = 2<br/>value = 1140308163.5>, fillcolor="#f7d7c0"] ;
119 -> 121 ;
122 [label=<squared_error = 0.0<br/>samples = 1<br/>value = 1116995633.0>, fillcolor="#f7d7c1"] ;
121 -> 122 ;
123 [label=<squared_error = 0.0<br/>samples = 1<br/>value = 1163620694.0>, fillcolor="#f7d6be"] ;
121 -> 123 ;
124 [label=<squared_error = -512.0<br/>samples = 1<br/>value = 1374581173.0>, fillcolor="#f5ceb3"] ;
94 -> 124 ;
125 [label=<acousticness_% &le; 2.0<br/>squared_error = 110529405841478.0<br/>samples = 2<br/>value = 111048323.667>, fillcolor="#fefbf9"] ;
73 -> 125 ;
126 [label=<squared_error = -2.0<br/>samples = 1<br/>value = 96180277.0>, fillcolor="#fefcfa"] ;
125 -> 126 ;
127 [label=<squared_error = -2.0<br/>samples = 1<br/>value = 118482347.0>, fillcolor="#fefbf8"] ;
125 -> 127 ;
128 [label=<instrumentalness_% &le; 6.5<br/>squared_error = 4.188451719854261e+16<br/>samples = 10<br/>value = 269419880.667>, fillcolor="#fdf5f0"] ;
56 -> 128 ;
129 [label=<valence_% &le; 77.5<br/>squared_error = 2.415579895709565e+16<br/>samples = 9<br/>value = 232253166.643>, fillcolor="#fdf7f2"] ;
128 -> 129 ;
130 [label=<liveness_% &le; 10.0<br/>squared_error = 5820279634246608.0<br/>samples = 8<br/>value = 194274170.846>, fillcolor="#fef8f4"] ;
129 -> 130 ;
131 [label=<acousticness_% &le; 2.5<br/>squared_error = 4981393608838816.0<br/>samples = 2<br/>value = 300474633.667>, fillcolor="#fdf4ee"] ;
130 -> 131 ;
132 [label=<squared_error = 0.0<br/>samples = 1<br/>value = 200660871.0>, fillcolor="#fef8f4"] ;
131 -> 132 ;
133 [label=<squared_error = 0.0<br/>samples = 1<br/>value = 350381515.0>, fillcolor="#fcf3ec"] ;
131 -> 133 ;
134 [label=<valence_% &le; 70.0<br/>squared_error = 1673315503585400.0<br/>samples = 6<br/>value = 162414032.0>, fillcolor="#fef9f6"] ;
130 -> 134 ;
135 [label=<danceability_% &le; 63.5<br/>squared_error = 697574946512544.0<br/>samples = 5<br/>value = 179111753.0>, fillcolor="#fef9f5"] ;
134 -> 135 ;
136 [label=<valence_% &le; 59.5<br/>squared_error = 335244517198384.0<br/>samples = 4<br/>value = 186710963.429>, fillcolor="#fef8f5"] ;
135 -> 136 ;
137 [label=<liveness_% &le; 12.5<br/>squared_error = 46054839051600.0<br/>samples = 3<br/>value = 193731990.667>, fillcolor="#fef8f4"] ;
136 -> 137 ;
138 [label=<squared_error = 0.0<br/>samples = 1<br/>value = 188933502.0>, fillcolor="#fef8f4"] ;
137 -> 138 ;
139 [label=<energy_% &le; 73.0<br/>squared_error = 11556250008.0<br/>samples = 2<br/>value = 203328968.0>, fillcolor="#fef8f4"] ;
137 -> 139 ;
140 [label=<squared_error = 0.0<br/>samples = 1<br/>value = 203221468.0>, fillcolor="#fef8f4"] ;
139 -> 140 ;
141 [label=<squared_error = 0.0<br/>samples = 1<br/>value = 203436468.0>, fillcolor="#fef8f4"] ;
139 -> 141 ;
142 [label=<squared_error = 0.0<br/>samples = 1<br/>value = 144584800.0>, fillcolor="#fefaf7"] ;
136 -> 142 ;
143 [label=<squared_error = -64.0<br/>samples = 1<br/>value = 125917280.0>, fillcolor="#fefbf8"] ;
135 -> 143 ;
144 [label=<squared_error = 16.0<br/>samples = 1<br/>value = 95623148.0>, fillcolor="#fefcfa"] ;
134 -> 144 ;
145 [label=<squared_error = -128.0<br/>samples = 1<br/>value = 725980112.0>, fillcolor="#fae5d7"] ;
129 -> 145 ;
146 [label=<squared_error = 0.0<br/>samples = 1<br/>value = 789753877.0>, fillcolor="#f9e3d3"] ;
128 -> 146 ;
147 [label=<squared_error = -4608.0<br/>samples = 1<br/>value = 1591223784.0>, fillcolor="#f3c7a7"] ;
55 -> 147 ;
148 [label=<danceability_% &le; 71.5<br/>squared_error = 2.274096511254272e+16<br/>samples = 11<br/>value = 260770076.25>, fillcolor="#fdf6f1"] ;
54 -> 148 ;
149 [label=<liveness_% &le; 14.0<br/>squared_error = 1.24043724255592e+16<br/>samples = 7<br/>value = 198315340.0>, fillcolor="#fef8f4"] ;
148 -> 149 ;
150 [label=<liveness_% &le; 8.0<br/>squared_error = 863946184489240.1<br/>samples = 5<br/>value = 130827524.111>, fillcolor="#fefaf8"] ;
149 -> 150 ;
151 [label=<squared_error = 0.0<br/>samples = 1<br/>value = 52135248.0>, fillcolor="#fffdfc"] ;
150 -> 151 ;
152 [label=<energy_% &le; 59.5<br/>squared_error = 101122756364048.0<br/>samples = 4<br/>value = 140664058.625>, fillcolor="#fefaf7"] ;
150 -> 152 ;
153 [label=<danceability_% &le; 70.5<br/>squared_error = 15368190697916.0<br/>samples = 3<br/>value = 135199121.5>, fillcolor="#fefaf7"] ;
152 -> 153 ;
154 [label=<energy_% &le; 50.0<br/>squared_error = 45274420216.0<br/>samples = 2<br/>value = 136950147.6>, fillcolor="#fefaf7"] ;
153 -> 154 ;
155 [label=<squared_error = 0.0<br/>samples = 1<br/>value = 137123880.0>, fillcolor="#fefaf7"] ;
154 -> 155 ;
156 [label=<squared_error = 0.0<br/>samples = 1<br/>value = 136689549.0>, fillcolor="#fefaf7"] ;
154 -> 156 ;
157 [label=<squared_error = 0.0<br/>samples = 1<br/>value = 126443991.0>, fillcolor="#fefbf8"] ;
153 -> 157 ;
158 [label=<squared_error = -4.0<br/>samples = 1<br/>value = 157058870.0>, fillcolor="#fef9f6"] ;
152 -> 158 ;
159 [label=<liveness_% &le; 32.5<br/>squared_error = 5064780259594736.0<br/>samples = 2<br/>value = 350162925.75>, fillcolor="#fcf3ec"] ;
149 -> 159 ;
160 [label=<squared_error = 0.0<br/>samples = 1<br/>value = 391251368.0>, fillcolor="#fcf1e9"] ;
159 -> 160 ;
161 [label=<squared_error = 0.0<br/>samples = 1<br/>value = 226897599.0>, fillcolor="#fdf7f2"] ;
159 -> 161 ;
162 [label=<liveness_% &le; 10.0<br/>squared_error = 2.124046457581981e+16<br/>samples = 4<br/>value = 376757443.571>, fillcolor="#fcf2ea"] ;
148 -> 162 ;
163 [label=<squared_error = 0.0<br/>samples = 1<br/>value = 690104769.0>, fillcolor="#fae7d9"] ;
162 -> 163 ;
164 [label=<instrumentalness_% &le; 12.0<br/>squared_error = 5688713547548848.0<br/>samples = 3<br/>value = 324532889.333>, fillcolor="#fdf4ed"] ;
162 -> 164 ;
165 [label=<danceability_% &le; 72.5<br/>squared_error = 62810916804080.0<br/>samples = 2<br/>value = 358107794.0>, fillcolor="#fcf2eb"] ;
164 -> 165 ;
166 [label=<squared_error = 0.0<br/>samples = 1<br/>value = 351636786.0>, fillcolor="#fcf3eb"] ;
165 -> 166 ;
167 [label=<squared_error = -32.0<br/>samples = 1<br/>value = 367814306.0>, fillcolor="#fcf2eb"] ;
165 -> 167 ;
168 [label=<squared_error = -4.0<br/>samples = 1<br/>value = 156658366.0>, fillcolor="#fef9f6"] ;
164 -> 168 ;
169 [label=<energy_% &le; 55.0<br/>squared_error = 1.2088669269029555e+18<br/>samples = 11<br/>value = 1330582942.778>, fillcolor="#f5d0b5"] ;
1 -> 169 ;
170 [label=<liveness_% &le; 14.5<br/>squared_error = 9254266529778688.0<br/>samples = 3<br/>value = 2499186319.5>, fillcolor="#eda774"] ;
169 -> 170 ;
171 [label=<acousticness_% &le; 22.5<br/>squared_error = 2773071320211456.0<br/>samples = 2<br/>value = 2530417780.571>, fillcolor="#eda672"] ;
170 -> 171 ;
172 [label=<squared_error = 0.0<br/>samples = 1<br/>value = 2484812918.0>, fillcolor="#eda775"] ;
171 -> 172 ;
173 [label=<squared_error = 0.0<br/>samples = 1<br/>value = 2591224264.0>, fillcolor="#eca36f"] ;
171 -> 173 ;
174 [label=<squared_error = 4096.0<br/>samples = 1<br/>value = 2280566092.0>, fillcolor="#eeae80"] ;
170 -> 174 ;
175 [label=<liveness_% &le; 13.5<br/>squared_error = 2.0204430819682688e+17<br/>samples = 8<br/>value = 395700241.4>, fillcolor="#fcf1e9"] ;
169 -> 175 ;
176 [label=<energy_% &le; 73.5<br/>squared_error = 6737112938886656.0<br/>samples = 2<br/>value = 1227807529.0>, fillcolor="#f6d4bb"] ;
175 -> 176 ;
177 [label=<squared_error = 0.0<br/>samples = 1<br/>value = 1145727611.0>, fillcolor="#f7d6bf"] ;
176 -> 177 ;
178 [label=<squared_error = 0.0<br/>samples = 1<br/>value = 1309887447.0>, fillcolor="#f5d1b6"] ;
176 -> 178 ;
179 [label=<valence_% &le; 68.5<br/>squared_error = 3.4495313862238908e+16<br/>samples = 6<br/>value = 187673419.5>, fillcolor="#fef8f5"] ;
175 -> 179 ;
180 [label=<liveness_% &le; 19.5<br/>squared_error = 78657937082760.98<br/>samples = 2<br/>value = 54934598.0>, fillcolor="#fffdfc"] ;
179 -> 180 ;
181 [label=<squared_error = 0.0<br/>samples = 1<br/>value = 46065667.0>, fillcolor="#fffdfc"] ;
180 -> 181 ;
182 [label=<squared_error = 0.0<br/>samples = 1<br/>value = 63803529.0>, fillcolor="#fffdfb"] ;
180 -> 182 ;
183 [label=<valence_% &le; 93.5<br/>squared_error = 3.3672780320977344e+16<br/>samples = 4<br/>value = 320412241.0>, fillcolor="#fdf4ed"] ;
179 -> 183 ;
184 [label=<energy_% &le; 72.5<br/>squared_error = 49569555519200.0<br/>samples = 2<br/>value = 503836251.0>, fillcolor="#fbede3"] ;
183 -> 184 ;
185 [label=<squared_error = 0.0<br/>samples = 1<br/>value = 496795686.0>, fillcolor="#fbede3"] ;
184 -> 185 ;
186 [label=<squared_error = -32.0<br/>samples = 1<br/>value = 510876816.0>, fillcolor="#fbede3"] ;
184 -> 186 ;
187 [label=<valence_% &le; 95.5<br/>squared_error = 7256197475280.0<br/>samples = 2<br/>value = 136988231.0>, fillcolor="#fefaf7"] ;
183 -> 187 ;
188 [label=<squared_error = 0.0<br/>samples = 1<br/>value = 139681964.0>, fillcolor="#fefaf7"] ;
187 -> 188 ;
189 [label=<squared_error = -4.0<br/>samples = 1<br/>value = 134294498.0>, fillcolor="#fefaf8"] ;
187 -> 189 ;
190 [label=<acousticness_% &le; 4.5<br/>squared_error = 2.702565119151793e+17<br/>samples = 504<br/>value = 472930937.095>, fillcolor="#fceee5"] ;
0 -> 190 [labeldistance=2.5, labelangle=-45, headlabel="False"] ;
191 [label=<valence_% &le; 39.5<br/>squared_error = 3.85746637770535e+17<br/>samples = 107<br/>value = 619770308.528>, fillcolor="#fae9dd"] ;
190 -> 191 ;
192 [label=<danceability_% &le; 57.0<br/>squared_error = 1.878681909307765e+17<br/>samples = 37<br/>value = 358476288.491>, fillcolor="#fcf2eb"] ;
191 -> 192 ;
193 [label=<valence_% &le; 18.5<br/>squared_error = 3.318677163788796e+17<br/>samples = 9<br/>value = 836280890.583>, fillcolor="#f9e1d1"] ;
192 -> 193 ;
194 [label=<speechiness_% &le; 6.5<br/>squared_error = 1.7824508320660534e+17<br/>samples = 5<br/>value = 454192718.571>, fillcolor="#fcefe6"] ;
193 -> 194 ;
195 [label=<speechiness_% &le; 4.5<br/>squared_error = 3.983142358779712e+16<br/>samples = 2<br/>value = 1071715129.0>, fillcolor="#f7d9c3"] ;
194 -> 195 ;
196 [label=<squared_error = 0.0<br/>samples = 1<br/>value = 1271293243.0>, fillcolor="#f6d2b8"] ;
195 -> 196 ;
197 [label=<squared_error = 0.0<br/>samples = 1<br/>value = 872137015.0>, fillcolor="#f9e0cf"] ;
195 -> 197 ;
198 [label=<liveness_% &le; 23.5<br/>squared_error = 2.0063547720481376e+16<br/>samples = 3<br/>value = 207183754.4>, fillcolor="#fdf8f3"] ;
194 -> 198 ;
199 [label=<squared_error = 0.0<br/>samples = 1<br/>value = 51985779.0>, fillcolor="#fffdfc"] ;
198 -> 199 ;
200 [label=<energy_% &le; 76.5<br/>squared_error = 6676566680514480.0<br/>samples = 2<br/>value = 310649071.333>, fillcolor="#fdf4ee"] ;
198 -> 200 ;
201 [label=<squared_error = 0.0<br/>samples = 1<br/>value = 426204830.0>, fillcolor="#fcf0e7"] ;
200 -> 201 ;
202 [label=<squared_error = 0.0<br/>samples = 1<br/>value = 252871192.0>, fillcolor="#fdf6f1"] ;
200 -> 202 ;
203 [label=<speechiness_% &le; 6.5<br/>squared_error = 5.640839561696333e+16<br/>samples = 4<br/>value = 1371204331.4>, fillcolor="#f5cfb3"] ;
193 -> 203 ;
204 [label=<danceability_% &le; 51.0<br/>squared_error = 1.1265242946545664e+16<br/>samples = 3<br/>value = 1262350988.25>, fillcolor="#f6d2b9"] ;
203 -> 204 ;
205 [label=<squared_error = 0.0<br/>samples = 1<br/>value = 1361425037.0>, fillcolor="#f5cfb3"] ;
204 -> 205 ;
206 [label=<liveness_% &le; 21.0<br/>squared_error = 2899151621656576.0<br/>samples = 2<br/>value = 1163276939.5>, fillcolor="#f7d6be"] ;
204 -> 206 ;
207 [label=<squared_error = 0.0<br/>samples = 1<br/>value = 1217120710.0>, fillcolor="#f6d4bb"] ;
206 -> 207 ;
208 [label=<squared_error = -256.0<br/>samples = 1<br/>value = 1109433169.0>, fillcolor="#f7d8c1"] ;
206 -> 208 ;
209 [label=<squared_error = -512.0<br/>samples = 1<br/>value = 1806617704.0>, fillcolor="#f2bf9b"] ;
203 -> 209 ;
210 [label=<valence_% &le; 8.5<br/>squared_error = 7.235458382768214e+16<br/>samples = 28<br/>value = 231061727.933>, fillcolor="#fdf7f2"] ;
192 -> 210 ;
211 [label=<squared_error = 0.0<br/>samples = 1<br/>value = 1829992958.0>, fillcolor="#f2be99"] ;
210 -> 211 ;
212 [label=<valence_% &le; 21.5<br/>squared_error = 1.4574342689616696e+16<br/>samples = 27<br/>value = 194722381.795>, fillcolor="#fef8f4"] ;
210 -> 212 ;
213 [label=<danceability_% &le; 59.5<br/>squared_error = 1.47116700667322e+16<br/>samples = 8<br/>value = 264060555.812>, fillcolor="#fdf6f0"] ;
212 -> 213 ;
214 [label=<squared_error = 0.0<br/>samples = 1<br/>value = 497225336.0>, fillcolor="#fbede3"] ;
213 -> 214 ;
215 [label=<liveness_% &le; 28.0<br/>squared_error = 7937285836284112.0<br/>samples = 7<br/>value = 230751301.5>, fillcolor="#fdf7f2"] ;
213 -> 215 ;
216 [label=<energy_% &le; 63.0<br/>squared_error = 3881768124272960.0<br/>samples = 5<br/>value = 166080028.125>, fillcolor="#fef9f6"] ;
215 -> 216 ;
217 [label=<liveness_% &le; 14.5<br/>squared_error = 301727896927008.0<br/>samples = 3<br/>value = 107824663.75>, fillcolor="#fefbf9"] ;
216 -> 217 ;
218 [label=<squared_error = 0.0<br/>samples = 1<br/>value = 136676504.0>, fillcolor="#fefaf7"] ;
217 -> 218 ;
219 [label=<valence_% &le; 12.0<br/>squared_error = 32335557764222.0<br/>samples = 2<br/>value = 98207383.667>, fillcolor="#fefcfa"] ;
217 -> 219 ;
220 [label=<squared_error = -2.0<br/>samples = 1<br/>value = 106249219.0>, fillcolor="#fefbf9"] ;
219 -> 220 ;
221 [label=<squared_error = 0.0<br/>samples = 1<br/>value = 94186466.0>, fillcolor="#fefcfa"] ;
219 -> 221 ;
222 [label=<liveness_% &le; 13.0<br/>squared_error = 674433394690880.0<br/>samples = 2<br/>value = 224335392.5>, fillcolor="#fdf7f3"] ;
216 -> 222 ;
223 [label=<squared_error = 0.0<br/>samples = 1<br/>value = 250305248.0>, fillcolor="#fdf6f1"] ;
222 -> 223 ;
224 [label=<squared_error = 0.0<br/>samples = 1<br/>value = 198365537.0>, fillcolor="#fef8f4"] ;
222 -> 224 ;
225 [label=<instrumentalness_% &le; 2.0<br/>squared_error = 332813808028784.0<br/>samples = 2<br/>value = 316979666.0>, fillcolor="#fdf4ed"] ;
215 -> 225 ;
226 [label=<squared_error = 0.0<br/>samples = 1<br/>value = 342779426.0>, fillcolor="#fcf3ec"] ;
225 -> 226 ;
227 [label=<squared_error = 0.0<br/>samples = 1<br/>value = 304079786.0>, fillcolor="#fdf4ee"] ;
225 -> 227 ;
228 [label=<energy_% &le; 60.5<br/>squared_error = 1.0178677565044612e+16<br/>samples = 19<br/>value = 155100568.071>, fillcolor="#fefaf6"] ;
212 -> 228 ;
229 [label=<danceability_% &le; 82.0<br/>squared_error = 2.384699423431197e+16<br/>samples = 3<br/>value = 271740967.0>, fillcolor="#fdf5f0"] ;
228 -> 229 ;
230 [label=<squared_error = 0.0<br/>samples = 1<br/>value = 489945871.0>, fillcolor="#fbeee4"] ;
229 -> 230 ;
231 [label=<energy_% &le; 45.5<br/>squared_error = 60456254231048.0<br/>samples = 2<br/>value = 162638515.0>, fillcolor="#fef9f6"] ;
229 -> 231 ;
232 [label=<squared_error = 0.0<br/>samples = 1<br/>value = 170413877.0>, fillcolor="#fef9f6"] ;
231 -> 232 ;
233 [label=<squared_error = 0.0<br/>samples = 1<br/>value = 154863153.0>, fillcolor="#fefaf6"] ;
231 -> 233 ;
234 [label=<valence_% &le; 35.5<br/>squared_error = 6709969894930668.0<br/>samples = 16<br/>value = 141103720.2>, fillcolor="#fefaf7"] ;
228 -> 234 ;
235 [label=<energy_% &le; 85.5<br/>squared_error = 4376855666740542.0<br/>samples = 11<br/>value = 111035501.556>, fillcolor="#fefbf9"] ;
234 -> 235 ;
236 [label=<valence_% &le; 33.5<br/>squared_error = 2883725822978204.0<br/>samples = 9<br/>value = 91167371.867>, fillcolor="#fefcfa"] ;
235 -> 236 ;
237 [label=<valence_% &le; 30.0<br/>squared_error = 2134635928395610.0<br/>samples = 8<br/>value = 108313924.583>, fillcolor="#fefbf9"] ;
236 -> 237 ;
238 [label=<energy_% &le; 67.0<br/>squared_error = 1782298250414056.0<br/>samples = 6<br/>value = 97034395.8>, fillcolor="#fefcfa"] ;
237 -> 238 ;
239 [label=<danceability_% &le; 68.0<br/>squared_error = 466293559990387.94<br/>samples = 3<br/>value = 134037027.8>, fillcolor="#fefaf8"] ;
238 -> 239 ;
240 [label=<squared_error = 0.0<br/>samples = 1<br/>value = 91781263.0>, fillcolor="#fefcfa"] ;
239 -> 240 ;
241 [label=<energy_% &le; 63.0<br/>squared_error = 24882681602700.0<br/>samples = 2<br/>value = 144600969.0>, fillcolor="#fefaf7"] ;
239 -> 241 ;
242 [label=<squared_error = 0.0<br/>samples = 1<br/>value = 141720999.0>, fillcolor="#fefaf7"] ;
241 -> 242 ;
243 [label=<squared_error = 0.0<br/>samples = 1<br/>value = 153240879.0>, fillcolor="#fefaf6"] ;
241 -> 243 ;
244 [label=<acousticness_% &le; 2.5<br/>squared_error = 359913390982875.5<br/>samples = 3<br/>value = 60031763.8>, fillcolor="#fffdfc"] ;
238 -> 244 ;
245 [label=<energy_% &le; 71.5<br/>squared_error = 65850831096756.0<br/>samples = 2<br/>value = 68795791.5>, fillcolor="#fefdfb"] ;
244 -> 245 ;
246 [label=<squared_error = 0.0<br/>samples = 1<br/>value = 76910644.0>, fillcolor="#fefcfb"] ;
245 -> 246 ;
247 [label=<squared_error = -1.0<br/>samples = 1<br/>value = 60680939.0>, fillcolor="#fffdfc"] ;
245 -> 247 ;
248 [label=<squared_error = -1.0<br/>samples = 1<br/>value = 24975653.0>, fillcolor="#fffefe"] ;
244 -> 248 ;
249 [label=<danceability_% &le; 70.0<br/>squared_error = 79491231082016.0<br/>samples = 2<br/>value = 164711568.5>, fillcolor="#fef9f6"] ;
237 -> 249 ;
250 [label=<squared_error = 0.0<br/>samples = 1<br/>value = 173627354.0>, fillcolor="#fef9f5"] ;
249 -> 250 ;
251 [label=<squared_error = -4.0<br/>samples = 1<br/>value = 155795783.0>, fillcolor="#fef9f6"] ;
249 -> 251 ;
252 [label=<squared_error = 4.312<br/>samples = 1<br/>value = 22581161.0>, fillcolor="#fffefe"] ;
236 -> 252 ;
253 [label=<acousticness_% &le; 2.0<br/>squared_error = 227565516992.0<br/>samples = 2<br/>value = 210376150.0>, fillcolor="#fdf8f3"] ;
235 -> 253 ;
254 [label=<squared_error = 0.0<br/>samples = 1<br/>value = 210038833.0>, fillcolor="#fdf8f3"] ;
253 -> 254 ;
255 [label=<squared_error = 0.0<br/>samples = 1<br/>value = 211050784.0>, fillcolor="#fdf8f3"] ;
253 -> 255 ;
256 [label=<acousticness_% &le; 0.5<br/>squared_error = 4406467755122568.0<br/>samples = 5<br/>value = 218421996.714>, fillcolor="#fdf7f3"] ;
234 -> 256 ;
257 [label=<squared_error = 0.0<br/>samples = 1<br/>value = 363369738.0>, fillcolor="#fcf2eb"] ;
256 -> 257 ;
258 [label=<danceability_% &le; 68.5<br/>squared_error = 1055630883009344.0<br/>samples = 4<br/>value = 194264039.833>, fillcolor="#fef8f4"] ;
256 -> 258 ;
259 [label=<squared_error = 0.0<br/>samples = 1<br/>value = 123132751.0>, fillcolor="#fefbf8"] ;
258 -> 259 ;
260 [label=<valence_% &le; 37.5<br/>squared_error = 52438599349352.0<br/>samples = 3<br/>value = 208490297.6>, fillcolor="#fdf8f3"] ;
258 -> 260 ;
261 [label=<instrumentalness_% &le; 5.0<br/>squared_error = 7853587549088.0<br/>samples = 2<br/>value = 211887198.0>, fillcolor="#fdf8f3"] ;
260 -> 261 ;
262 [label=<squared_error = 0.0<br/>samples = 1<br/>value = 213505179.0>, fillcolor="#fdf7f3"] ;
261 -> 262 ;
263 [label=<squared_error = 0.0<br/>samples = 1<br/>value = 207033255.0>, fillcolor="#fdf8f3"] ;
261 -> 263 ;
264 [label=<squared_error = 0.0<br/>samples = 1<br/>value = 194902696.0>, fillcolor="#fef8f4"] ;
260 -> 264 ;
265 [label=<liveness_% &le; 25.0<br/>squared_error = 4.3627065318427366e+17<br/>samples = 70<br/>value = 762979531.048>, fillcolor="#f9e4d5"] ;
191 -> 265 ;
266 [label=<danceability_% &le; 79.5<br/>squared_error = 4.684404839519487e+17<br/>samples = 54<br/>value = 869977472.662>, fillcolor="#f9e0cf"] ;
265 -> 266 ;
267 [label=<danceability_% &le; 78.5<br/>squared_error = 4.954403091106363e+17<br/>samples = 40<br/>value = 995361266.742>, fillcolor="#f8dcc8"] ;
266 -> 267 ;
268 [label=<valence_% &le; 72.5<br/>squared_error = 4.3088519381706445e+17<br/>samples = 37<br/>value = 910469480.625>, fillcolor="#f8dfcc"] ;
267 -> 268 ;
269 [label=<valence_% &le; 66.5<br/>squared_error = 3.017865249261162e+17<br/>samples = 27<br/>value = 797291435.829>, fillcolor="#f9e3d3"] ;
268 -> 269 ;
270 [label=<danceability_% &le; 69.5<br/>squared_error = 3.025242651226984e+17<br/>samples = 20<br/>value = 939072373.226>, fillcolor="#f8decb"] ;
269 -> 270 ;
271 [label=<acousticness_% &le; 3.0<br/>squared_error = 3.982629533455969e+17<br/>samples = 12<br/>value = 1228307189.667>, fillcolor="#f6d4bb"] ;
270 -> 271 ;
272 [label=<energy_% &le; 69.5<br/>squared_error = 2.686688859767675e+17<br/>samples = 11<br/>value = 1125661708.786>, fillcolor="#f7d7c0"] ;
271 -> 272 ;
273 [label=<energy_% &le; 65.5<br/>squared_error = 4.997394258257856e+16<br/>samples = 2<br/>value = 395337008.0>, fillcolor="#fcf1e9"] ;
272 -> 273 ;
274 [label=<squared_error = 0.0<br/>samples = 1<br/>value = 171788484.0>, fillcolor="#fef9f5"] ;
273 -> 274 ;
275 [label=<squared_error = 0.0<br/>samples = 1<br/>value = 618885532.0>, fillcolor="#fae9dd"] ;
273 -> 275 ;
276 [label=<energy_% &le; 86.0<br/>squared_error = 2.0140639931901568e+17<br/>samples = 9<br/>value = 1247382492.25>, fillcolor="#f6d3ba"] ;
272 -> 276 ;
277 [label=<speechiness_% &le; 4.5<br/>squared_error = 7.97123872999022e+16<br/>samples = 7<br/>value = 1411527774.2>, fillcolor="#f5cdb1"] ;
276 -> 277 ;
278 [label=<valence_% &le; 48.5<br/>squared_error = 5.187814557684966e+16<br/>samples = 4<br/>value = 1270799173.833>, fillcolor="#f6d2b8"] ;
277 -> 278 ;
279 [label=<squared_error = 0.0<br/>samples = 1<br/>value = 786181836.0>, fillcolor="#f9e3d3"] ;
278 -> 279 ;
280 [label=<valence_% &le; 60.5<br/>squared_error = 5888823301339392.0<br/>samples = 3<br/>value = 1367722641.4>, fillcolor="#f5cfb3"] ;
278 -> 280 ;
281 [label=<danceability_% &le; 47.0<br/>squared_error = 1139951190572288.0<br/>samples = 2<br/>value = 1308816769.667>, fillcolor="#f5d1b6"] ;
280 -> 281 ;
282 [label=<squared_error = 0.0<br/>samples = 1<br/>value = 1284942608.0>, fillcolor="#f6d2b8"] ;
281 -> 282 ;
283 [label=<squared_error = 512.0<br/>samples = 1<br/>value = 1356565093.0>, fillcolor="#f5cfb4"] ;
281 -> 283 ;
284 [label=<squared_error = -768.0<br/>samples = 1<br/>value = 1456081449.0>, fillcolor="#f4ccae"] ;
280 -> 284 ;
285 [label=<danceability_% &le; 58.0<br/>squared_error = 4.719672878012775e+16<br/>samples = 3<br/>value = 1622620674.75>, fillcolor="#f3c6a5"] ;
277 -> 285 ;
286 [label=<squared_error = 0.0<br/>samples = 1<br/>value = 1970673297.0>, fillcolor="#f1b991"] ;
285 -> 286 ;
287 [label=<energy_% &le; 81.0<br/>squared_error = 9088692660124928.0<br/>samples = 2<br/>value = 1506603134.0>, fillcolor="#f4caab"] ;
285 -> 287 ;
288 [label=<squared_error = 0.0<br/>samples = 1<br/>value = 1439191367.0>, fillcolor="#f4ccaf"] ;
287 -> 288 ;
289 [label=<squared_error = 512.0<br/>samples = 1<br/>value = 1641426668.0>, fillcolor="#f3c5a4"] ;
287 -> 289 ;
290 [label=<instrumentalness_% &le; 0.5<br/>squared_error = 1566251821232224.0<br/>samples = 2<br/>value = 426656082.5>, fillcolor="#fcf0e7"] ;
276 -> 290 ;
291 [label=<squared_error = 0.0<br/>samples = 1<br/>value = 387080183.0>, fillcolor="#fcf1e9"] ;
290 -> 291 ;
292 [label=<squared_error = -32.0<br/>samples = 1<br/>value = 466231982.0>, fillcolor="#fcefe5"] ;
290 -> 292 ;
293 [label=<squared_error = 2048.0<br/>samples = 1<br/>value = 2665343922.0>, fillcolor="#eca16b"] ;
271 -> 293 ;
294 [label=<energy_% &le; 75.0<br/>squared_error = 6.081454860773946e+16<br/>samples = 8<br/>value = 667914732.812>, fillcolor="#fae7da"] ;
270 -> 294 ;
295 [label=<speechiness_% &le; 4.5<br/>squared_error = 2.1238574149890016e+16<br/>samples = 3<br/>value = 412269500.25>, fillcolor="#fcf0e8"] ;
294 -> 295 ;
296 [label=<squared_error = 0.0<br/>samples = 1<br/>value = 187772591.0>, fillcolor="#fef8f5"] ;
295 -> 296 ;
297 [label=<acousticness_% &le; 3.0<br/>squared_error = 5918604527496608.0<br/>samples = 2<br/>value = 487101803.333>, fillcolor="#fbeee4"] ;
295 -> 297 ;
298 [label=<squared_error = 0.0<br/>samples = 1<br/>value = 432702334.0>, fillcolor="#fcf0e7"] ;
297 -> 298 ;
299 [label=<squared_error = -64.0<br/>samples = 1<br/>value = 595900742.0>, fillcolor="#fbeade"] ;
297 -> 299 ;
300 [label=<valence_% &le; 59.5<br/>squared_error = 4.49601023461632e+16<br/>samples = 5<br/>value = 753129810.333>, fillcolor="#fae4d5"] ;
294 -> 300 ;
301 [label=<liveness_% &le; 8.5<br/>squared_error = 2.601886747559725e+16<br/>samples = 4<br/>value = 709322926.455>, fillcolor="#fae6d8"] ;
300 -> 301 ;
302 [label=<liveness_% &le; 6.5<br/>squared_error = 6266595108868992.0<br/>samples = 2<br/>value = 856161826.6>, fillcolor="#f9e1cf"] ;
301 -> 302 ;
303 [label=<squared_error = 0.0<br/>samples = 1<br/>value = 920797189.0>, fillcolor="#f8decc"] ;
302 -> 303 ;
304 [label=<squared_error = -128.0<br/>samples = 1<br/>value = 759208783.0>, fillcolor="#f9e4d5"] ;
302 -> 304 ;
305 [label=<energy_% &le; 86.5<br/>squared_error = 9537665481871680.0<br/>samples = 2<br/>value = 586957176.333>, fillcolor="#fbeade"] ;
301 -> 305 ;
306 [label=<squared_error = 0.0<br/>samples = 1<br/>value = 656013912.0>, fillcolor="#fae8db"] ;
305 -> 306 ;
307 [label=<squared_error = -64.0<br/>samples = 1<br/>value = 448843705.0>, fillcolor="#fcefe6"] ;
305 -> 307 ;
308 [label=<squared_error = 512.0<br/>samples = 1<br/>value = 1235005533.0>, fillcolor="#f6d3ba"] ;
300 -> 308 ;
309 [label=<energy_% &le; 83.0<br/>squared_error = 4.400521751979923e+16<br/>samples = 7<br/>value = 357770529.9>, fillcolor="#fcf2eb"] ;
269 -> 309 ;
310 [label=<energy_% &le; 81.5<br/>squared_error = 9384371834788672.0<br/>samples = 5<br/>value = 484167364.714>, fillcolor="#fbeee4"] ;
309 -> 310 ;
311 [label=<liveness_% &le; 13.5<br/>squared_error = 6379638043474432.0<br/>samples = 4<br/>value = 509715067.333>, fillcolor="#fbede3"] ;
310 -> 311 ;
312 [label=<valence_% &le; 69.5<br/>squared_error = 2794410431253376.0<br/>samples = 2<br/>value = 576974484.333>, fillcolor="#fbebdf"] ;
311 -> 312 ;
313 [label=<squared_error = 0.0<br/>samples = 1<br/>value = 651732901.0>, fillcolor="#fae8db"] ;
312 -> 313 ;
314 [label=<squared_error = 0.0<br/>samples = 1<br/>value = 539595276.0>, fillcolor="#fbece1"] ;
312 -> 314 ;
315 [label=<speechiness_% &le; 4.5<br/>squared_error = 917207305335616.0<br/>samples = 2<br/>value = 442455650.333>, fillcolor="#fcefe6"] ;
311 -> 315 ;
316 [label=<squared_error = 0.0<br/>samples = 1<br/>value = 421040617.0>, fillcolor="#fcf0e8"] ;
315 -> 316 ;
317 [label=<squared_error = 0.0<br/>samples = 1<br/>value = 485285717.0>, fillcolor="#fbeee4"] ;
315 -> 317 ;
318 [label=<squared_error = -16.0<br/>samples = 1<br/>value = 330881149.0>, fillcolor="#fdf3ed"] ;
310 -> 318 ;
319 [label=<energy_% &le; 86.5<br/>squared_error = 528169720946609.5<br/>samples = 2<br/>value = 62844582.0>, fillcolor="#fffdfc"] ;
309 -> 319 ;
320 [label=<squared_error = 0.0<br/>samples = 1<br/>value = 79095270.0>, fillcolor="#fefcfb"] ;
319 -> 320 ;
321 [label=<squared_error = 0.0<br/>samples = 1<br/>value = 30343206.0>, fillcolor="#fffefd"] ;
319 -> 321 ;
322 [label=<valence_% &le; 90.0<br/>squared_error = 6.530434064949473e+17<br/>samples = 10<br/>value = 1219822803.067>, fillcolor="#f6d4bb"] ;
268 -> 322 ;
323 [label=<speechiness_% &le; 10.0<br/>squared_error = 4.626902936554803e+17<br/>samples = 7<br/>value = 1624669640.3>, fillcolor="#f3c6a5"] ;
322 -> 323 ;
324 [label=<liveness_% &le; 14.0<br/>squared_error = 2.847131320326505e+17<br/>samples = 6<br/>value = 1382327017.125>, fillcolor="#f5ceb2"] ;
323 -> 324 ;
325 [label=<speechiness_% &le; 5.5<br/>squared_error = 6.010972959759974e+16<br/>samples = 5<br/>value = 1564424761.143>, fillcolor="#f4c8a8"] ;
324 -> 325 ;
326 [label=<speechiness_% &le; 4.5<br/>squared_error = 1.1212872749067776e+16<br/>samples = 2<br/>value = 1373224203.0>, fillcolor="#f5ceb3"] ;
325 -> 326 ;
327 [label=<squared_error = 0.0<br/>samples = 1<br/>value = 1267333350.0>, fillcolor="#f6d2b9"] ;
326 -> 327 ;
328 [label=<squared_error = 0.0<br/>samples = 1<br/>value = 1479115056.0>, fillcolor="#f4cbad"] ;
326 -> 328 ;
329 [label=<energy_% &le; 92.0<br/>squared_error = 1.157061693387264e+16<br/>samples = 3<br/>value = 1819358838.667>, fillcolor="#f2bf9a"] ;
325 -> 329 ;
330 [label=<acousticness_% &le; 1.0<br/>squared_error = 3853729981382656.0<br/>samples = 2<br/>value = 1752271345.0>, fillcolor="#f2c19e"] ;
329 -> 330 ;
331 [label=<squared_error = 0.0<br/>samples = 1<br/>value = 1690192927.0>, fillcolor="#f3c3a1"] ;
330 -> 331 ;
332 [label=<squared_error = -512.0<br/>samples = 1<br/>value = 1814349763.0>, fillcolor="#f2bf9a"] ;
330 -> 332 ;
333 [label=<squared_error = 512.0<br/>samples = 1<br/>value = 1953533826.0>, fillcolor="#f1ba92"] ;
329 -> 333 ;
334 [label=<squared_error = -946.0<br/>samples = 1<br/>value = 107642809.0>, fillcolor="#fefbf9"] ;
324 -> 334 ;
335 [label=<squared_error = -1024.0<br/>samples = 1<br/>value = 2594040133.0>, fillcolor="#eca36f"] ;
323 -> 335 ;
336 [label=<speechiness_% &le; 7.0<br/>squared_error = 5.034386246688045e+16<br/>samples = 3<br/>value = 410129128.6>, fillcolor="#fcf0e8"] ;
322 -> 336 ;
337 [label=<squared_error = 0.0<br/>samples = 1<br/>value = 851070493.0>, fillcolor="#f9e1d0"] ;
336 -> 337 ;
338 [label=<acousticness_% &le; 2.5<br/>squared_error = 2170675946433200.2<br/>samples = 2<br/>value = 299893787.5>, fillcolor="#fdf4ee"] ;
336 -> 338 ;
339 [label=<squared_error = 0.0<br/>samples = 1<br/>value = 219196651.0>, fillcolor="#fdf7f3"] ;
338 -> 339 ;
340 [label=<squared_error = 0.0<br/>samples = 1<br/>value = 326792833.0>, fillcolor="#fdf3ed"] ;
338 -> 340 ;
341 [label=<speechiness_% &le; 6.5<br/>squared_error = 4.029167047498373e+17<br/>samples = 3<br/>value = 1787684603.833>, fillcolor="#f2c09c"] ;
267 -> 341 ;
342 [label=<squared_error = 0.0<br/>samples = 1<br/>value = 427486004.0>, fillcolor="#fcf0e7"] ;
341 -> 342 ;
343 [label=<valence_% &le; 63.5<br/>squared_error = 3.946639026255155e+16<br/>samples = 2<br/>value = 2059724323.8>, fillcolor="#f0b68d"] ;
341 -> 343 ;
344 [label=<squared_error = -512.0<br/>samples = 1<br/>value = 1897517891.0>, fillcolor="#f1bc96"] ;
343 -> 344 ;
345 [label=<squared_error = 1024.0<br/>samples = 1<br/>value = 2303033973.0>, fillcolor="#eeae7f"] ;
343 -> 345 ;
346 [label=<liveness_% &le; 4.5<br/>squared_error = 1.3477245884961395e+17<br/>samples = 14<br/>value = 438099959.722>, fillcolor="#fcf0e7"] ;
266 -> 346 ;
347 [label=<squared_error = 0.0<br/>samples = 1<br/>value = 1424589568.0>, fillcolor="#f5cdb0"] ;
346 -> 347 ;
348 [label=<danceability_% &le; 82.5<br/>squared_error = 8.208810019952118e+16<br/>samples = 13<br/>value = 380071159.235>, fillcolor="#fcf2ea"] ;
346 -> 348 ;
349 [label=<acousticness_% &le; 0.5<br/>squared_error = 3.017486053911956e+16<br/>samples = 6<br/>value = 193883921.25>, fillcolor="#fef8f4"] ;
348 -> 349 ;
350 [label=<squared_error = 0.0<br/>samples = 1<br/>value = 482175240.0>, fillcolor="#fbeee4"] ;
349 -> 350 ;
351 [label=<speechiness_% &le; 5.5<br/>squared_error = 3294532066997590.0<br/>samples = 5<br/>value = 97786815.0>, fillcolor="#fefcfa"] ;
349 -> 351 ;
352 [label=<squared_error = 0.0<br/>samples = 1<br/>value = 31873544.0>, fillcolor="#fffefd"] ;
351 -> 352 ;
353 [label=<valence_% &le; 48.5<br/>squared_error = 1683378630056810.0<br/>samples = 4<br/>value = 130743450.5>, fillcolor="#fefaf8"] ;
351 -> 353 ;
354 [label=<squared_error = 0.0<br/>samples = 1<br/>value = 199386237.0>, fillcolor="#fef8f4"] ;
353 -> 354 ;
355 [label=<acousticness_% &le; 3.0<br/>squared_error = 150357222971486.03<br/>samples = 3<br/>value = 107862521.667>, fillcolor="#fefbf9"] ;
353 -> 355 ;
356 [label=<danceability_% &le; 81.0<br/>squared_error = 8204844648100.0<br/>samples = 2<br/>value = 116373906.0>, fillcolor="#fefbf9"] ;
355 -> 356 ;
357 [label=<squared_error = 0.0<br/>samples = 1<br/>value = 119238316.0>, fillcolor="#fefbf8"] ;
356 -> 357 ;
358 [label=<squared_error = 0.0<br/>samples = 1<br/>value = 113509496.0>, fillcolor="#fefbf9"] ;
356 -> 358 ;
359 [label=<squared_error = -1.0<br/>samples = 1<br/>value = 90839753.0>, fillcolor="#fefcfa"] ;
355 -> 359 ;
360 [label=<acousticness_% &le; 1.0<br/>squared_error = 7.002908468717946e+16<br/>samples = 7<br/>value = 545570926.333>, fillcolor="#fbece1"] ;
348 -> 360 ;
361 [label=<speechiness_% &le; 26.0<br/>squared_error = 6.935724073776101e+16<br/>samples = 3<br/>value = 303499555.667>, fillcolor="#fdf4ee"] ;
360 -> 361 ;
362 [label=<energy_% &le; 67.0<br/>squared_error = 1042514072224182.0<br/>samples = 2<br/>value = 118212978.5>, fillcolor="#fefbf8"] ;
361 -> 362 ;
363 [label=<squared_error = 0.0<br/>samples = 1<br/>value = 150500965.0>, fillcolor="#fefaf7"] ;
362 -> 363 ;
364 [label=<squared_error = 0.0<br/>samples = 1<br/>value = 85924992.0>, fillcolor="#fefcfa"] ;
362 -> 364 ;
365 [label=<squared_error = 0.0<br/>samples = 1<br/>value = 674072710.0>, fillcolor="#fae7da"] ;
361 -> 365 ;
366 [label=<energy_% &le; 56.5<br/>squared_error = 2.641609528955968e+16<br/>samples = 4<br/>value = 666606611.667>, fillcolor="#fae7da"] ;
360 -> 366 ;
367 [label=<squared_error = 0.0<br/>samples = 1<br/>value = 335074782.0>, fillcolor="#fdf3ec"] ;
366 -> 367 ;
368 [label=<speechiness_% &le; 15.5<br/>squared_error = 5320109367760959.0<br/>samples = 3<br/>value = 732912977.6>, fillcolor="#fae5d6"] ;
366 -> 368 ;
369 [label=<liveness_% &le; 7.5<br/>squared_error = 995635471744.0<br/>samples = 2<br/>value = 673361812.0>, fillcolor="#fae7da"] ;
368 -> 369 ;
370 [label=<squared_error = 0.0<br/>samples = 1<br/>value = 674772936.0>, fillcolor="#fae7d9"] ;
369 -> 370 ;
371 [label=<squared_error = 64.0<br/>samples = 1<br/>value = 672656250.0>, fillcolor="#fae7da"] ;
369 -> 371 ;
372 [label=<squared_error = 0.0<br/>samples = 1<br/>value = 822239726.0>, fillcolor="#f9e2d1"] ;
368 -> 372 ;
373 [label=<valence_% &le; 40.5<br/>squared_error = 1.636698021515714e+17<br/>samples = 16<br/>value = 406319725.667>, fillcolor="#fcf1e8"] ;
265 -> 373 ;
374 [label=<squared_error = 0.0<br/>samples = 1<br/>value = 1624165576.0>, fillcolor="#f3c6a5"] ;
373 -> 374 ;
375 [label=<danceability_% &le; 69.0<br/>squared_error = 1.0349747906141387e+17<br/>samples = 15<br/>value = 353369906.087>, fillcolor="#fcf3eb"] ;
373 -> 375 ;
376 [label=<acousticness_% &le; 1.0<br/>squared_error = 5090304472068588.0<br/>samples = 6<br/>value = 133334919.889>, fillcolor="#fefaf8"] ;
375 -> 376 ;
377 [label=<speechiness_% &le; 6.0<br/>squared_error = 2229287457121551.0<br/>samples = 3<br/>value = 72071601.333>, fillcolor="#fefcfb"] ;
376 -> 377 ;
378 [label=<danceability_% &le; 48.5<br/>squared_error = 790580928487441.0<br/>samples = 2<br/>value = 42897696.0>, fillcolor="#fffdfd"] ;
377 -> 378 ;
379 [label=<squared_error = 0.0<br/>samples = 1<br/>value = 71014967.0>, fillcolor="#fefcfb"] ;
378 -> 379 ;
380 [label=<squared_error = 0.0<br/>samples = 1<br/>value = 14780425.0>, fillcolor="#fffefe"] ;
378 -> 380 ;
381 [label=<squared_error = -2.0<br/>samples = 1<br/>value = 130419412.0>, fillcolor="#fefaf8"] ;
377 -> 381 ;
382 [label=<acousticness_% &le; 2.5<br/>squared_error = 3705917329212500.0<br/>samples = 3<br/>value = 163966579.167>, fillcolor="#fef9f6"] ;
376 -> 382 ;
383 [label=<speechiness_% &le; 7.5<br/>squared_error = 26679492483184.0<br/>samples = 2<br/>value = 249955231.5>, fillcolor="#fdf6f1"] ;
382 -> 383 ;
384 [label=<squared_error = 0.0<br/>samples = 1<br/>value = 255120451.0>, fillcolor="#fdf6f1"] ;
383 -> 384 ;
385 [label=<squared_error = 8.0<br/>samples = 1<br/>value = 244790012.0>, fillcolor="#fdf6f1"] ;
383 -> 385 ;
386 [label=<squared_error = 0.0<br/>samples = 1<br/>value = 120972253.0>, fillcolor="#fefbf8"] ;
382 -> 386 ;
387 [label=<valence_% &le; 55.0<br/>squared_error = 1.1562664845918154e+17<br/>samples = 9<br/>value = 494820968.643>, fillcolor="#fbede3"] ;
375 -> 387 ;
388 [label=<squared_error = 0.0<br/>samples = 1<br/>value = 1479264469.0>, fillcolor="#f4cbad"] ;
387 -> 388 ;
389 [label=<acousticness_% &le; 2.5<br/>squared_error = 4.423812984636154e+16<br/>samples = 8<br/>value = 419094545.538>, fillcolor="#fcf0e8"] ;
387 -> 389 ;
390 [label=<energy_% &le; 80.0<br/>squared_error = 1.471494302116512e+16<br/>samples = 3<br/>value = 625201661.2>, fillcolor="#fae9dc"] ;
389 -> 390 ;
391 [label=<acousticness_% &le; 1.5<br/>squared_error = 609789418985920.0<br/>samples = 2<br/>value = 565562933.25>, fillcolor="#fbebe0"] ;
390 -> 391 ;
392 [label=<squared_error = 0.0<br/>samples = 1<br/>value = 608334048.0>, fillcolor="#fbe9dd"] ;
391 -> 392 ;
393 [label=<squared_error = 0.0<br/>samples = 1<br/>value = 551305895.0>, fillcolor="#fbece0"] ;
391 -> 393 ;
394 [label=<squared_error = -128.0<br/>samples = 1<br/>value = 863756573.0>, fillcolor="#f9e0cf"] ;
390 -> 394 ;
395 [label=<danceability_% &le; 78.0<br/>squared_error = 1.954622624944181e+16<br/>samples = 5<br/>value = 290277598.25>, fillcolor="#fdf5ef"] ;
389 -> 395 ;
396 [label=<energy_% &le; 89.5<br/>squared_error = 9333859582438014.0<br/>samples = 4<br/>value = 354945549.0>, fillcolor="#fcf2eb"] ;
395 -> 396 ;
397 [label=<liveness_% &le; 26.5<br/>squared_error = 3054337707050143.5<br/>samples = 3<br/>value = 391792742.0>, fillcolor="#fcf1e9"] ;
396 -> 397 ;
398 [label=<valence_% &le; 77.5<br/>squared_error = 30508599618832.0<br/>samples = 2<br/>value = 346803613.333>, fillcolor="#fcf3ec"] ;
397 -> 398 ;
399 [label=<squared_error = 0.0<br/>samples = 1<br/>value = 342897938.0>, fillcolor="#fcf3ec"] ;
398 -> 399 ;
400 [label=<squared_error = -16.0<br/>samples = 1<br/>value = 354614964.0>, fillcolor="#fcf2eb"] ;
398 -> 400 ;
401 [label=<squared_error = 32.0<br/>samples = 1<br/>value = 459276435.0>, fillcolor="#fcefe5"] ;
397 -> 401 ;
402 [label=<squared_error = 0.0<br/>samples = 1<br/>value = 170709584.0>, fillcolor="#fef9f6"] ;
396 -> 402 ;
403 [label=<squared_error = -4.0<br/>samples = 1<br/>value = 96273746.0>, fillcolor="#fefcfa"] ;
395 -> 403 ;
404 [label=<energy_% &le; 75.5<br/>squared_error = 2.350431619001173e+17<br/>samples = 397<br/>value = 436615823.73>, fillcolor="#fcf0e7"] ;
190 -> 404 ;
405 [label=<danceability_% &le; 76.5<br/>squared_error = 2.7928845596591014e+17<br/>samples = 297<br/>value = 489042254.479>, fillcolor="#fbeee4"] ;
404 -> 405 ;
406 [label=<valence_% &le; 76.5<br/>squared_error = 3.1763601845151123e+17<br/>samples = 200<br/>value = 548569210.199>, fillcolor="#fbece1"] ;
405 -> 406 ;
407 [label=<danceability_% &le; 75.5<br/>squared_error = 3.440057793844591e+17<br/>samples = 173<br/>value = 590281144.894>, fillcolor="#fbeade"] ;
406 -> 407 ;
408 [label=<speechiness_% &le; 32.5<br/>squared_error = 3.1886077944393536e+17<br/>samples = 171<br/>value = 576600445.022>, fillcolor="#fbebdf"] ;
407 -> 408 ;
409 [label=<valence_% &le; 75.5<br/>squared_error = 3.3213094355104256e+17<br/>samples = 159<br/>value = 610431297.0>, fillcolor="#fbe9dd"] ;
408 -> 409 ;
410 [label=<valence_% &le; 54.5<br/>squared_error = 3.233196222413347e+17<br/>samples = 155<br/>value = 592350277.347>, fillcolor="#fbeade"] ;
409 -> 410 ;
411 [label=<acousticness_% &le; 62.5<br/>squared_error = 3.259656799732356e+17<br/>samples = 120<br/>value = 642744178.134>, fillcolor="#fae8db"] ;
410 -> 411 ;
412 [label=<valence_% &le; 39.5<br/>squared_error = 2.511682636019131e+17<br/>samples = 89<br/>value = 571276841.515>, fillcolor="#fbebdf"] ;
411 -> 412 ;
413 [label=<valence_% &le; 28.5<br/>squared_error = 1.9354447848553987e+17<br/>samples = 49<br/>value = 453236227.61>, fillcolor="#fcefe6"] ;
412 -> 413 ;
414 [label=<acousticness_% &le; 20.5<br/>squared_error = 2.4660020657670886e+17<br/>samples = 32<br/>value = 553197436.538>, fillcolor="#fbebe0"] ;
413 -> 414 ;
415 [label=<valence_% &le; 26.5<br/>squared_error = 7.456401455044278e+16<br/>samples = 15<br/>value = 397478363.143>, fillcolor="#fcf1e9"] ;
414 -> 415 ;
416 [label=<danceability_% &le; 53.5<br/>squared_error = 3.1327805373730044e+16<br/>samples = 13<br/>value = 326334434.6>, fillcolor="#fdf3ed"] ;
415 -> 416 ;
417 [label=<valence_% &le; 22.0<br/>squared_error = 2346738136026240.0<br/>samples = 3<br/>value = 196831451.444>, fillcolor="#fef8f4"] ;
416 -> 417 ;
418 [label=<speechiness_% &le; 7.0<br/>squared_error = 536007713222432.0<br/>samples = 2<br/>value = 228370313.667>, fillcolor="#fdf7f2"] ;
417 -> 418 ;
419 [label=<squared_error = 0.0<br/>samples = 1<br/>value = 195628667.0>, fillcolor="#fef8f4"] ;
418 -> 419 ;
420 [label=<squared_error = 0.0<br/>samples = 1<br/>value = 244741137.0>, fillcolor="#fdf6f1"] ;
418 -> 420 ;
421 [label=<squared_error = 0.0<br/>samples = 1<br/>value = 133753727.0>, fillcolor="#fefaf8"] ;
417 -> 421 ;
422 [label=<danceability_% &le; 67.0<br/>squared_error = 3.2889499072312224e+16<br/>samples = 10<br/>value = 399179862.625>, fillcolor="#fcf1e9"] ;
416 -> 422 ;
423 [label=<liveness_% &le; 15.5<br/>squared_error = 2.917043458521283e+16<br/>samples = 7<br/>value = 456306783.917>, fillcolor="#fcefe6"] ;
422 -> 423 ;
424 [label=<acousticness_% &le; 7.5<br/>squared_error = 1.7815433466813248e+16<br/>samples = 4<br/>value = 573483382.0>, fillcolor="#fbebdf"] ;
423 -> 424 ;
425 [label=<squared_error = 0.0<br/>samples = 1<br/>value = 317726339.0>, fillcolor="#fdf4ed"] ;
424 -> 425 ;
426 [label=<danceability_% &le; 58.0<br/>squared_error = 5679720549590977.0<br/>samples = 3<br/>value = 624634790.6>, fillcolor="#fae9dc"] ;
424 -> 426 ;
427 [label=<squared_error = 0.0<br/>samples = 1<br/>value = 532336353.0>, fillcolor="#fbece1"] ;
426 -> 427 ;
428 [label=<energy_% &le; 60.5<br/>squared_error = 643601094848.0<br/>samples = 2<br/>value = 686167082.333>, fillcolor="#fae7d9"] ;
426 -> 428 ;
429 [label=<squared_error = 0.0<br/>samples = 1<br/>value = 685032533.0>, fillcolor="#fae7d9"] ;
428 -> 429 ;
430 [label=<squared_error = 64.0<br/>samples = 1<br/>value = 686734357.0>, fillcolor="#fae7d9"] ;
428 -> 430 ;
431 [label=<liveness_% &le; 49.5<br/>squared_error = 1.30647254268464e+16<br/>samples = 3<br/>value = 339130185.833>, fillcolor="#fdf3ec"] ;
423 -> 431 ;
432 [label=<valence_% &le; 7.0<br/>squared_error = 141060490556544.0<br/>samples = 2<br/>value = 390016677.2>, fillcolor="#fcf1e9"] ;
431 -> 432 ;
433 [label=<squared_error = 0.0<br/>samples = 1<br/>value = 380319238.0>, fillcolor="#fcf2ea"] ;
432 -> 433 ;
434 [label=<squared_error = 0.0<br/>samples = 1<br/>value = 404562836.0>, fillcolor="#fcf1e9"] ;
432 -> 434 ;
435 [label=<squared_error = -1.0<br/>samples = 1<br/>value = 84697729.0>, fillcolor="#fefcfa"] ;
431 -> 435 ;
436 [label=<instrumentalness_% &le; 41.5<br/>squared_error = 4884870898438792.0<br/>samples = 3<br/>value = 227799098.75>, fillcolor="#fdf7f2"] ;
422 -> 436 ;
437 [label=<valence_% &le; 14.0<br/>squared_error = 891430047874599.9<br/>samples = 2<br/>value = 265288201.0>, fillcolor="#fdf6f0"] ;
436 -> 437 ;
438 [label=<squared_error = 0.0<br/>samples = 1<br/>value = 223064273.0>, fillcolor="#fdf7f3"] ;
437 -> 438 ;
439 [label=<squared_error = 0.0<br/>samples = 1<br/>value = 286400165.0>, fillcolor="#fdf5ef"] ;
437 -> 439 ;
440 [label=<squared_error = 0.0<br/>samples = 1<br/>value = 115331792.0>, fillcolor="#fefbf9"] ;
436 -> 440 ;
441 [label=<liveness_% &le; 31.0<br/>squared_error = 4.119675791662477e+16<br/>samples = 2<br/>value = 990344434.333>, fillcolor="#f8dcc8"] ;
415 -> 441 ;
442 [label=<squared_error = 0.0<br/>samples = 1<br/>value = 703301727.0>, fillcolor="#fae6d8"] ;
441 -> 442 ;
443 [label=<squared_error = 0.0<br/>samples = 1<br/>value = 1133865788.0>, fillcolor="#f7d7c0"] ;
441 -> 443 ;
444 [label=<speechiness_% &le; 19.0<br/>squared_error = 3.860144552310778e+17<br/>samples = 17<br/>value = 734869688.833>, fillcolor="#fae5d6"] ;
414 -> 444 ;
445 [label=<danceability_% &le; 60.0<br/>squared_error = 2.9326090106964294e+17<br/>samples = 16<br/>value = 667312061.783>, fillcolor="#fae7da"] ;
444 -> 445 ;
446 [label=<acousticness_% &le; 22.0<br/>squared_error = 1.9140469636072128e+17<br/>samples = 10<br/>value = 420906843.846>, fillcolor="#fcf0e8"] ;
445 -> 446 ;
447 [label=<squared_error = 0.0<br/>samples = 1<br/>value = 1449799467.0>, fillcolor="#f4ccae"] ;
446 -> 447 ;
448 [label=<energy_% &le; 55.0<br/>squared_error = 1.1178522390643955e+17<br/>samples = 9<br/>value = 335165791.917>, fillcolor="#fdf3ec"] ;
446 -> 448 ;
449 [label=<liveness_% &le; 23.5<br/>squared_error = 4374696172528680.0<br/>samples = 4<br/>value = 91512558.2>, fillcolor="#fefcfa"] ;
448 -> 449 ;
450 [label=<energy_% &le; 40.5<br/>squared_error = 1234850699095804.0<br/>samples = 2<br/>value = 167312417.5>, fillcolor="#fef9f6"] ;
449 -> 450 ;
451 [label=<squared_error = 0.0<br/>samples = 1<br/>value = 202452860.0>, fillcolor="#fef8f4"] ;
450 -> 451 ;
452 [label=<squared_error = 0.0<br/>samples = 1<br/>value = 132171975.0>, fillcolor="#fefaf8"] ;
450 -> 452 ;
453 [label=<liveness_% &le; 43.0<br/>squared_error = 83905743817491.75<br/>samples = 2<br/>value = 40979318.667>, fillcolor="#fffefd"] ;
449 -> 453 ;
454 [label=<squared_error = 0.0<br/>samples = 1<br/>value = 34502215.0>, fillcolor="#fffefd"] ;
453 -> 454 ;
455 [label=<squared_error = 0.0<br/>samples = 1<br/>value = 53933526.0>, fillcolor="#fffdfc"] ;
453 -> 455 ;
456 [label=<liveness_% &le; 33.5<br/>squared_error = 1.1581286824626746e+17<br/>samples = 5<br/>value = 509203816.0>, fillcolor="#fbede3"] ;
448 -> 456 ;
457 [label=<energy_% &le; 60.5<br/>squared_error = 2.641655156580717e+16<br/>samples = 4<br/>value = 384591009.167>, fillcolor="#fcf1ea"] ;
456 -> 457 ;
458 [label=<squared_error = 0.0<br/>samples = 1<br/>value = 39666245.0>, fillcolor="#fffefd"] ;
457 -> 458 ;
459 [label=<liveness_% &le; 16.0<br/>squared_error = 3146319574465280.0<br/>samples = 3<br/>value = 453575962.0>, fillcolor="#fcefe6"] ;
457 -> 459 ;
460 [label=<energy_% &le; 65.5<br/>squared_error = 1017119245782240.0<br/>samples = 2<br/>value = 389472859.0>, fillcolor="#fcf1e9"] ;
459 -> 460 ;
461 [label=<squared_error = 0.0<br/>samples = 1<br/>value = 357580552.0>, fillcolor="#fcf2eb"] ;
460 -> 461 ;
462 [label=<squared_error = 0.0<br/>samples = 1<br/>value = 421365166.0>, fillcolor="#fcf0e8"] ;
460 -> 462 ;
463 [label=<squared_error = 0.0<br/>samples = 1<br/>value = 496311364.0>, fillcolor="#fbede3"] ;
459 -> 463 ;
464 [label=<squared_error = 256.0<br/>samples = 1<br/>value = 1256880657.0>, fillcolor="#f6d3b9"] ;
456 -> 464 ;
465 [label=<acousticness_% &le; 58.0<br/>squared_error = 2.4413452822656883e+17<br/>samples = 6<br/>value = 987638845.1>, fillcolor="#f8dcc8"] ;
445 -> 465 ;
466 [label=<valence_% &le; 14.5<br/>squared_error = 7.865890050825562e+16<br/>samples = 5<br/>value = 848857835.444>, fillcolor="#f9e1d0"] ;
465 -> 466 ;
467 [label=<danceability_% &le; 66.5<br/>squared_error = 1.96896600233828e+16<br/>samples = 2<br/>value = 358640436.0>, fillcolor="#fcf2eb"] ;
466 -> 467 ;
468 [label=<squared_error = 0.0<br/>samples = 1<br/>value = 218320587.0>, fillcolor="#fdf7f3"] ;
467 -> 468 ;
469 [label=<squared_error = 0.0<br/>samples = 1<br/>value = 498960285.0>, fillcolor="#fbede3"] ;
467 -> 469 ;
470 [label=<danceability_% &le; 68.5<br/>squared_error = 7228973770763520.0<br/>samples = 3<br/>value = 988919949.571>, fillcolor="#f8dcc8"] ;
466 -> 470 ;
471 [label=<squared_error = 128.0<br/>samples = 1<br/>value = 1042568408.0>, fillcolor="#f7dac5"] ;
470 -> 471 ;
472 [label=<instrumentalness_% &le; 2.0<br/>squared_error = 117533644753024.0<br/>samples = 2<br/>value = 854798803.5>, fillcolor="#f9e1cf"] ;
470 -> 472 ;
473 [label=<squared_error = 0.0<br/>samples = 1<br/>value = 843957510.0>, fillcolor="#f9e1d0"] ;
472 -> 473 ;
474 [label=<squared_error = 128.0<br/>samples = 1<br/>value = 865640097.0>, fillcolor="#f9e0cf"] ;
472 -> 474 ;
475 [label=<squared_error = 1024.0<br/>samples = 1<br/>value = 2236667932.0>, fillcolor="#efb083"] ;
465 -> 475 ;
476 [label=<squared_error = 3072.0<br/>samples = 1<br/>value = 2288695111.0>, fillcolor="#eeae80"] ;
444 -> 476 ;
477 [label=<danceability_% &le; 46.5<br/>squared_error = 1.917425664053545e+16<br/>samples = 17<br/>value = 245316913.04>, fillcolor="#fdf6f1"] ;
413 -> 477 ;
478 [label=<instrumentalness_% &le; 13.5<br/>squared_error = 1.013657751720864e+16<br/>samples = 3<br/>value = 464033298.75>, fillcolor="#fcefe5"] ;
477 -> 478 ;
479 [label=<liveness_% &le; 11.0<br/>squared_error = 325293310056208.0<br/>samples = 2<br/>value = 364163729.5>, fillcolor="#fcf2eb"] ;
478 -> 479 ;
480 [label=<squared_error = 0.0<br/>samples = 1<br/>value = 346127840.0>, fillcolor="#fcf3ec"] ;
479 -> 480 ;
481 [label=<squared_error = 0.0<br/>samples = 1<br/>value = 382199619.0>, fillcolor="#fcf1ea"] ;
479 -> 481 ;
482 [label=<squared_error = 0.0<br/>samples = 1<br/>value = 563902868.0>, fillcolor="#fbebe0"] ;
478 -> 482 ;
483 [label=<acousticness_% &le; 14.5<br/>squared_error = 1.0048359381023106e+16<br/>samples = 14<br/>value = 203656649.095>, fillcolor="#fef8f4"] ;
477 -> 483 ;
484 [label=<acousticness_% &le; 11.0<br/>squared_error = 2591737062766176.5<br/>samples = 4<br/>value = 316680950.2>, fillcolor="#fdf4ed"] ;
483 -> 484 ;
485 [label=<liveness_% &le; 28.5<br/>squared_error = 1086557538291936.0<br/>samples = 3<br/>value = 295929498.25>, fillcolor="#fdf5ef"] ;
484 -> 485 ;
486 [label=<valence_% &le; 38.0<br/>squared_error = 96489794100896.0<br/>samples = 2<br/>value = 314315998.667>, fillcolor="#fdf4ee"] ;
485 -> 486 ;
487 [label=<squared_error = 0.0<br/>samples = 1<br/>value = 307370144.0>, fillcolor="#fdf4ee"] ;
486 -> 487 ;
488 [label=<squared_error = -16.0<br/>samples = 1<br/>value = 328207708.0>, fillcolor="#fdf3ed"] ;
486 -> 488 ;
489 [label=<squared_error = 24.0<br/>samples = 1<br/>value = 240769997.0>, fillcolor="#fdf6f2"] ;
485 -> 489 ;
490 [label=<squared_error = -32.0<br/>samples = 1<br/>value = 399686758.0>, fillcolor="#fcf1e9"] ;
484 -> 490 ;
491 [label=<energy_% &le; 69.5<br/>squared_error = 7139015858513204.0<br/>samples = 10<br/>value = 168336555.0>, fillcolor="#fef9f6"] ;
483 -> 491 ;
492 [label=<energy_% &le; 59.0<br/>squared_error = 5698383287039848.0<br/>samples = 9<br/>value = 157391901.733>, fillcolor="#fef9f6"] ;
491 -> 492 ;
493 [label=<danceability_% &le; 66.5<br/>squared_error = 3617093069035504.0<br/>samples = 5<br/>value = 196859459.0>, fillcolor="#fef8f4"] ;
492 -> 493 ;
494 [label=<liveness_% &le; 18.5<br/>squared_error = 936338778234316.0<br/>samples = 3<br/>value = 152431667.333>, fillcolor="#fefaf7"] ;
493 -> 494 ;
495 [label=<squared_error = 0.0<br/>samples = 1<br/>value = 181831132.0>, fillcolor="#fef9f5"] ;
494 -> 495 ;
496 [label=<acousticness_% &le; 30.0<br/>squared_error = 144020511095474.0<br/>samples = 2<br/>value = 123032202.667>, fillcolor="#fefbf8"] ;
494 -> 496 ;
497 [label=<squared_error = 0.0<br/>samples = 1<br/>value = 140003974.0>, fillcolor="#fefaf7"] ;
496 -> 497 ;
498 [label=<squared_error = -2.0<br/>samples = 1<br/>value = 114546317.0>, fillcolor="#fefbf9"] ;
496 -> 498 ;
499 [label=<acousticness_% &le; 40.5<br/>squared_error = 236366983824520.0<br/>samples = 2<br/>value = 263501146.5>, fillcolor="#fdf6f0"] ;
493 -> 499 ;
500 [label=<squared_error = 0.0<br/>samples = 1<br/>value = 236872197.0>, fillcolor="#fdf7f2"] ;
499 -> 500 ;
501 [label=<squared_error = 0.0<br/>samples = 1<br/>value = 272377463.0>, fillcolor="#fdf5f0"] ;
499 -> 501 ;
502 [label=<danceability_% &le; 65.5<br/>squared_error = 514835263462850.0<br/>samples = 4<br/>value = 78456787.2>, fillcolor="#fefcfb"] ;
492 -> 502 ;
503 [label=<valence_% &le; 33.5<br/>squared_error = 1622326434632.0<br/>samples = 2<br/>value = 96908037.0>, fillcolor="#fefcfa"] ;
502 -> 503 ;
504 [label=<squared_error = -2.0<br/>samples = 1<br/>value = 96007391.0>, fillcolor="#fefcfa"] ;
503 -> 504 ;
505 [label=<squared_error = 0.0<br/>samples = 1<br/>value = 98709329.0>, fillcolor="#fefcfa"] ;
503 -> 505 ;
506 [label=<acousticness_% &le; 24.5<br/>squared_error = 7972347072690.0<br/>samples = 2<br/>value = 50779912.5>, fillcolor="#fffdfc"] ;
502 -> 506 ;
507 [label=<squared_error = 0.0<br/>samples = 1<br/>value = 53603447.0>, fillcolor="#fffdfc"] ;
506 -> 507 ;
508 [label=<squared_error = 0.0<br/>samples = 1<br/>value = 47956378.0>, fillcolor="#fffdfc"] ;
506 -> 508 ;
509 [label=<squared_error = 64.0<br/>samples = 1<br/>value = 332506354.0>, fillcolor="#fdf3ed"] ;
491 -> 509 ;
510 [label=<speechiness_% &le; 26.0<br/>squared_error = 2.8476138365402765e+17<br/>samples = 40<br/>value = 730735214.684>, fillcolor="#fae5d6"] ;
412 -> 510 ;
511 [label=<liveness_% &le; 13.5<br/>squared_error = 2.1625483767545146e+17<br/>samples = 38<br/>value = 670668934.185>, fillcolor="#fae7da"] ;
510 -> 511 ;
512 [label=<liveness_% &le; 8.5<br/>squared_error = 1.1672972889088304e+17<br/>samples = 15<br/>value = 377684856.4>, fillcolor="#fcf2ea"] ;
511 -> 512 ;
513 [label=<energy_% &le; 46.0<br/>squared_error = 3.2447830670961075e+17<br/>samples = 2<br/>value = 1037356979.5>, fillcolor="#f7dac5"] ;
512 -> 513 ;
514 [label=<squared_error = 0.0<br/>samples = 1<br/>value = 467727006.0>, fillcolor="#fceee5"] ;
513 -> 514 ;
515 [label=<squared_error = 0.0<br/>samples = 1<br/>value = 1606986953.0>, fillcolor="#f3c6a6"] ;
513 -> 515 ;
516 [label=<acousticness_% &le; 13.5<br/>squared_error = 3.992219431901678e+16<br/>samples = 13<br/>value = 304387953.833>, fillcolor="#fdf4ee"] ;
512 -> 516 ;
517 [label=<squared_error = 0.0<br/>samples = 1<br/>value = 609293408.0>, fillcolor="#fbe9dd"] ;
516 -> 517 ;
518 [label=<instrumentalness_% &le; 2.5<br/>squared_error = 2.559447254748069e+16<br/>samples = 12<br/>value = 243406863.0>, fillcolor="#fdf6f1"] ;
516 -> 518 ;
519 [label=<valence_% &le; 42.0<br/>squared_error = 1.7042018441900568e+16<br/>samples = 11<br/>value = 217100170.929>, fillcolor="#fdf7f3"] ;
518 -> 519 ;
520 [label=<acousticness_% &le; 25.5<br/>squared_error = 3582503572062751.5<br/>samples = 4<br/>value = 321554183.167>, fillcolor="#fdf4ed"] ;
519 -> 520 ;
521 [label=<squared_error = 0.0<br/>samples = 1<br/>value = 190981339.0>, fillcolor="#fef8f4"] ;
520 -> 521 ;
522 [label=<acousticness_% &le; 38.0<br/>squared_error = 207180054369872.0<br/>samples = 3<br/>value = 347668752.0>, fillcolor="#fcf3ec"] ;
520 -> 522 ;
523 [label=<squared_error = 0.0<br/>samples = 1<br/>value = 319566866.0>, fillcolor="#fdf4ed"] ;
522 -> 523 ;
524 [label=<speechiness_% &le; 11.0<br/>squared_error = 12188818975808.0<br/>samples = 2<br/>value = 354694223.5>, fillcolor="#fcf2eb"] ;
522 -> 524 ;
525 [label=<squared_error = 0.0<br/>samples = 1<br/>value = 348647203.0>, fillcolor="#fcf3ec"] ;
524 -> 525 ;
526 [label=<squared_error = 0.0<br/>samples = 1<br/>value = 356709897.0>, fillcolor="#fcf2eb"] ;
524 -> 526 ;
527 [label=<liveness_% &le; 9.5<br/>squared_error = 1.2816438711443988e+16<br/>samples = 7<br/>value = 138759661.75>, fillcolor="#fefaf7"] ;
519 -> 527 ;
528 [label=<squared_error = 0.0<br/>samples = 1<br/>value = 415932686.0>, fillcolor="#fcf0e8"] ;
527 -> 528 ;
529 [label=<acousticness_% &le; 27.0<br/>squared_error = 2104520099300664.0<br/>samples = 6<br/>value = 99163515.429>, fillcolor="#fefbf9"] ;
527 -> 529 ;
530 [label=<danceability_% &le; 64.0<br/>squared_error = 1165931864704040.0<br/>samples = 3<br/>value = 143823252.333>, fillcolor="#fefaf7"] ;
529 -> 530 ;
531 [label=<squared_error = 0.0<br/>samples = 1<br/>value = 97610446.0>, fillcolor="#fefcfa"] ;
530 -> 531 ;
532 [label=<liveness_% &le; 11.5<br/>squared_error = 147180195154440.0<br/>samples = 2<br/>value = 166929655.5>, fillcolor="#fef9f6"] ;
530 -> 532 ;
533 [label=<squared_error = 0.0<br/>samples = 1<br/>value = 154797871.0>, fillcolor="#fefaf6"] ;
532 -> 533 ;
534 [label=<squared_error = 0.0<br/>samples = 1<br/>value = 179061440.0>, fillcolor="#fef9f5"] ;
532 -> 534 ;
535 [label=<speechiness_% &le; 9.5<br/>squared_error = 190690393469779.5<br/>samples = 3<br/>value = 65668712.75>, fillcolor="#fffdfb"] ;
529 -> 535 ;
536 [label=<liveness_% &le; 11.0<br/>squared_error = 36275725892898.0<br/>samples = 2<br/>value = 73050754.0>, fillcolor="#fefcfb"] ;
535 -> 536 ;
537 [label=<squared_error = 0.0<br/>samples = 1<br/>value = 77309611.0>, fillcolor="#fefcfb"] ;
536 -> 537 ;
538 [label=<squared_error = 0.0<br/>samples = 1<br/>value = 64533040.0>, fillcolor="#fffdfb"] ;
536 -> 538 ;
539 [label=<squared_error = 1.0<br/>samples = 1<br/>value = 43522589.0>, fillcolor="#fffdfd"] ;
535 -> 539 ;
540 [label=<squared_error = -320.0<br/>samples = 1<br/>value = 611700552.0>, fillcolor="#fbe9dd"] ;
518 -> 540 ;
541 [label=<energy_% &le; 60.0<br/>squared_error = 1.9460278797910234e+17<br/>samples = 23<br/>value = 843012509.353>, fillcolor="#f9e1d0"] ;
511 -> 541 ;
542 [label=<valence_% &le; 50.5<br/>squared_error = 1.367329391631874e+17<br/>samples = 11<br/>value = 649850476.25>, fillcolor="#fae8db"] ;
541 -> 542 ;
543 [label=<acousticness_% &le; 53.5<br/>squared_error = 7.635567195138906e+16<br/>samples = 9<br/>value = 566971261.571>, fillcolor="#fbebdf"] ;
542 -> 543 ;
544 [label=<speechiness_% &le; 5.5<br/>squared_error = 6.058603621892358e+16<br/>samples = 7<br/>value = 626887440.333>, fillcolor="#fae9dc"] ;
543 -> 544 ;
545 [label=<squared_error = 0.0<br/>samples = 1<br/>value = 1007612429.0>, fillcolor="#f8dbc7"] ;
544 -> 545 ;
546 [label=<danceability_% &le; 72.5<br/>squared_error = 3.791487938385229e+16<br/>samples = 6<br/>value = 550742442.6>, fillcolor="#fbece0"] ;
544 -> 546 ;
547 [label=<liveness_% &le; 18.0<br/>squared_error = 1.6577267668450496e+16<br/>samples = 5<br/>value = 601289822.444>, fillcolor="#fbeade"] ;
546 -> 547 ;
548 [label=<danceability_% &le; 57.0<br/>squared_error = 8725677924408192.0<br/>samples = 2<br/>value = 750727604.0>, fillcolor="#fae4d5"] ;
547 -> 548 ;
549 [label=<squared_error = 0.0<br/>samples = 1<br/>value = 882831184.0>, fillcolor="#f9e0ce"] ;
548 -> 549 ;
550 [label=<squared_error = -64.0<br/>samples = 1<br/>value = 684675814.0>, fillcolor="#fae7d9"] ;
548 -> 550 ;
551 [label=<danceability_% &le; 64.0<br/>squared_error = 3754324623287168.0<br/>samples = 3<br/>value = 526570931.667>, fillcolor="#fbece2"] ;
547 -> 551 ;
552 [label=<valence_% &le; 46.0<br/>squared_error = 723043892092672.0<br/>samples = 2<br/>value = 551677855.2>, fillcolor="#fbebe0"] ;
551 -> 552 ;
553 [label=<squared_error = 0.0<br/>samples = 1<br/>value = 573633020.0>, fillcolor="#fbebdf"] ;
552 -> 553 ;
554 [label=<squared_error = -32.0<br/>samples = 1<br/>value = 518745108.0>, fillcolor="#fbede2"] ;
552 -> 554 ;
555 [label=<squared_error = 96.0<br/>samples = 1<br/>value = 401036314.0>, fillcolor="#fcf1e9"] ;
551 -> 555 ;
556 [label=<squared_error = -64.0<br/>samples = 1<br/>value = 95816024.0>, fillcolor="#fefcfa"] ;
546 -> 556 ;
557 [label=<acousticness_% &le; 59.5<br/>squared_error = 2.0195650294183256e+16<br/>samples = 2<br/>value = 207474189.0>, fillcolor="#fdf8f3"] ;
543 -> 557 ;
558 [label=<squared_error = 0.0<br/>samples = 1<br/>value = 65362788.0>, fillcolor="#fffdfb"] ;
557 -> 558 ;
559 [label=<squared_error = 0.0<br/>samples = 1<br/>value = 349585590.0>, fillcolor="#fcf3ec"] ;
557 -> 559 ;
560 [label=<speechiness_% &le; 5.5<br/>squared_error = 1.7471181300451917e+17<br/>samples = 2<br/>value = 1230004979.0>, fillcolor="#f6d3bb"] ;
542 -> 560 ;
561 [label=<squared_error = 0.0<br/>samples = 1<br/>value = 812019557.0>, fillcolor="#f9e2d2"] ;
560 -> 561 ;
562 [label=<squared_error = 0.0<br/>samples = 1<br/>value = 1647990401.0>, fillcolor="#f3c5a3"] ;
560 -> 562 ;
563 [label=<acousticness_% &le; 19.5<br/>squared_error = 1.83396065193066e+17<br/>samples = 12<br/>value = 1014712094.333>, fillcolor="#f8dbc7"] ;
541 -> 563 ;
564 [label=<acousticness_% &le; 9.5<br/>squared_error = 1.4157344120225946e+17<br/>samples = 8<br/>value = 840260637.333>, fillcolor="#f9e1d0"] ;
563 -> 564 ;
565 [label=<instrumentalness_% &le; 8.5<br/>squared_error = 9459032977153792.0<br/>samples = 2<br/>value = 1260351214.0>, fillcolor="#f6d2b9"] ;
564 -> 565 ;
566 [label=<squared_error = 0.0<br/>samples = 1<br/>value = 1357608774.0>, fillcolor="#f5cfb4"] ;
565 -> 566 ;
567 [label=<squared_error = 256.0<br/>samples = 1<br/>value = 1163093654.0>, fillcolor="#f7d6be"] ;
565 -> 567 ;
568 [label=<valence_% &le; 48.0<br/>squared_error = 7.527357586171315e+16<br/>samples = 6<br/>value = 630215349.0>, fillcolor="#fae9dc"] ;
564 -> 568 ;
569 [label=<danceability_% &le; 67.0<br/>squared_error = 3.4561251377066496e+16<br/>samples = 2<br/>value = 329981997.333>, fillcolor="#fdf3ed"] ;
568 -> 569 ;
570 [label=<squared_error = 0.0<br/>samples = 1<br/>value = 461437791.0>, fillcolor="#fcefe5"] ;
569 -> 570 ;
571 [label=<squared_error = 28.0<br/>samples = 1<br/>value = 67070410.0>, fillcolor="#fffdfb"] ;
569 -> 571 ;
572 [label=<valence_% &le; 51.5<br/>squared_error = 1.3166507717620992e+16<br/>samples = 4<br/>value = 810355360.0>, fillcolor="#f9e2d2"] ;
568 -> 572 ;
573 [label=<speechiness_% &le; 4.5<br/>squared_error = 3119294267662848.0<br/>samples = 2<br/>value = 943897634.5>, fillcolor="#f8decb"] ;
572 -> 573 ;
574 [label=<squared_error = 0.0<br/>samples = 1<br/>value = 888046992.0>, fillcolor="#f9e0ce"] ;
573 -> 574 ;
575 [label=<squared_error = 0.0<br/>samples = 1<br/>value = 999748277.0>, fillcolor="#f8dcc7"] ;
573 -> 575 ;
576 [label=<valence_% &le; 52.5<br/>squared_error = 49606596889344.0<br/>samples = 2<br/>value = 721327177.0>, fillcolor="#fae5d7"] ;
572 -> 576 ;
577 [label=<squared_error = 0.0<br/>samples = 1<br/>value = 711366595.0>, fillcolor="#fae6d7"] ;
576 -> 577 ;
578 [label=<squared_error = 64.0<br/>samples = 1<br/>value = 726307468.0>, fillcolor="#fae5d7"] ;
576 -> 578 ;
579 [label=<danceability_% &le; 54.5<br/>squared_error = 8.444144807814144e+16<br/>samples = 4<br/>value = 1363615008.333>, fillcolor="#f5cfb3"] ;
563 -> 579 ;
580 [label=<squared_error = 0.0<br/>samples = 1<br/>value = 2009094673.0>, fillcolor="#f0b88f"] ;
579 -> 580 ;
581 [label=<acousticness_% &le; 22.0<br/>squared_error = 1335178294203392.0<br/>samples = 3<br/>value = 1234519075.4>, fillcolor="#f6d3ba"] ;
579 -> 581 ;
582 [label=<squared_error = 0.0<br/>samples = 1<br/>value = 1167330737.0>, fillcolor="#f6d6be"] ;
581 -> 582 ;
583 [label=<energy_% &le; 69.5<br/>squared_error = 258262612456704.0<br/>samples = 2<br/>value = 1251316160.0>, fillcolor="#f6d3b9"] ;
581 -> 583 ;
584 [label=<squared_error = 256.0<br/>samples = 1<br/>value = 1260594497.0>, fillcolor="#f6d2b9"] ;
583 -> 584 ;
585 [label=<squared_error = -256.0<br/>samples = 1<br/>value = 1223481149.0>, fillcolor="#f6d4bb"] ;
583 -> 585 ;
586 [label=<speechiness_% &le; 30.0<br/>squared_error = 2.839575571466199e+17<br/>samples = 2<br/>value = 1811928263.667>, fillcolor="#f2bf9a"] ;
510 -> 586 ;
587 [label=<squared_error = 0.0<br/>samples = 1<br/>value = 2565529693.0>, fillcolor="#eca470"] ;
586 -> 587 ;
588 [label=<squared_error = 512.0<br/>samples = 1<br/>value = 1435127549.0>, fillcolor="#f5ccaf"] ;
586 -> 588 ;
589 [label=<acousticness_% &le; 64.5<br/>squared_error = 4.881967920519891e+17<br/>samples = 31<br/>value = 855558024.956>, fillcolor="#f9e1cf"] ;
411 -> 589 ;
590 [label=<liveness_% &le; 10.5<br/>squared_error = 6.94620837755689e+16<br/>samples = 2<br/>value = 1871601841.5>, fillcolor="#f1bd97"] ;
589 -> 590 ;
591 [label=<squared_error = 0.0<br/>samples = 1<br/>value = 1608045237.0>, fillcolor="#f3c6a6"] ;
590 -> 591 ;
592 [label=<squared_error = -512.0<br/>samples = 1<br/>value = 2135158446.0>, fillcolor="#efb388"] ;
590 -> 592 ;
593 [label=<energy_% &le; 57.5<br/>squared_error = 4.185063610421502e+17<br/>samples = 29<br/>value = 756431798.951>, fillcolor="#f9e4d5"] ;
589 -> 593 ;
594 [label=<energy_% &le; 55.5<br/>squared_error = 4.098022259299479e+17<br/>samples = 26<br/>value = 846563704.083>, fillcolor="#f9e1d0"] ;
593 -> 594 ;
595 [label=<acousticness_% &le; 92.5<br/>squared_error = 2.796218457359564e+17<br/>samples = 25<br/>value = 753981490.324>, fillcolor="#f9e4d5"] ;
594 -> 595 ;
596 [label=<valence_% &le; 40.5<br/>squared_error = 2.5553969129101005e+17<br/>samples = 23<br/>value = 705127953.812>, fillcolor="#fae6d8"] ;
595 -> 596 ;
597 [label=<energy_% &le; 26.5<br/>squared_error = 2.4471211773691853e+17<br/>samples = 20<br/>value = 781371158.321>, fillcolor="#f9e3d4"] ;
596 -> 597 ;
598 [label=<acousticness_% &le; 79.0<br/>squared_error = 519992429172306.0<br/>samples = 2<br/>value = 65288913.5>, fillcolor="#fffdfb"] ;
597 -> 598 ;
599 [label=<squared_error = 0.0<br/>samples = 1<br/>value = 88092256.0>, fillcolor="#fefcfa"] ;
598 -> 599 ;
600 [label=<squared_error = -1.0<br/>samples = 1<br/>value = 42485571.0>, fillcolor="#fffdfd"] ;
598 -> 600 ;
601 [label=<speechiness_% &le; 4.5<br/>squared_error = 2.21017825962491e+17<br/>samples = 18<br/>value = 836454407.923>, fillcolor="#f9e1d1"] ;
597 -> 601 ;
602 [label=<valence_% &le; 26.5<br/>squared_error = 1.3344254660864211e+17<br/>samples = 8<br/>value = 587872540.6>, fillcolor="#fbeade"] ;
601 -> 602 ;
603 [label=<danceability_% &le; 43.0<br/>squared_error = 9.556631476140083e+16<br/>samples = 6<br/>value = 469537291.75>, fillcolor="#fceee5"] ;
602 -> 603 ;
604 [label=<energy_% &le; 40.0<br/>squared_error = 615020161380352.0<br/>samples = 2<br/>value = 769388525.25>, fillcolor="#f9e4d4"] ;
603 -> 604 ;
605 [label=<squared_error = 128.0<br/>samples = 1<br/>value = 783706581.0>, fillcolor="#f9e3d3"] ;
604 -> 605 ;
606 [label=<squared_error = 128.0<br/>samples = 1<br/>value = 726434358.0>, fillcolor="#fae5d7"] ;
604 -> 606 ;
607 [label=<valence_% &le; 19.5<br/>squared_error = 1.0696084898478216e+16<br/>samples = 4<br/>value = 169686058.25>, fillcolor="#fef9f6"] ;
603 -> 607 ;
608 [label=<squared_error = 0.0<br/>samples = 1<br/>value = 323437194.0>, fillcolor="#fdf4ed"] ;
607 -> 608 ;
609 [label=<energy_% &le; 45.5<br/>squared_error = 3755041311564404.0<br/>samples = 3<br/>value = 118435679.667>, fillcolor="#fefbf8"] ;
607 -> 609 ;
610 [label=<acousticness_% &le; 90.0<br/>squared_error = 23973939749760.0<br/>samples = 2<br/>value = 161673734.0>, fillcolor="#fef9f6"] ;
609 -> 610 ;
611 [label=<squared_error = 0.0<br/>samples = 1<br/>value = 166570053.0>, fillcolor="#fef9f6"] ;
610 -> 611 ;
612 [label=<squared_error = 0.0<br/>samples = 1<br/>value = 156777415.0>, fillcolor="#fef9f6"] ;
610 -> 612 ;
613 [label=<squared_error = -1.0<br/>samples = 1<br/>value = 31959571.0>, fillcolor="#fffefd"] ;
609 -> 613 ;
614 [label=<energy_% &le; 42.5<br/>squared_error = 4882851589778944.0<br/>samples = 2<br/>value = 1061213536.0>, fillcolor="#f7d9c4"] ;
602 -> 614 ;
615 [label=<squared_error = 0.0<br/>samples = 1<br/>value = 991336132.0>, fillcolor="#f8dcc8"] ;
614 -> 615 ;
616 [label=<squared_error = 0.0<br/>samples = 1<br/>value = 1131090940.0>, fillcolor="#f7d7c0"] ;
614 -> 616 ;
617 [label=<energy_% &le; 47.0<br/>squared_error = 2.1299391603491494e+17<br/>samples = 10<br/>value = 991818075.0>, fillcolor="#f8dcc8"] ;
601 -> 617 ;
618 [label=<energy_% &le; 40.0<br/>squared_error = 1.5610881330146586e+17<br/>samples = 7<br/>value = 1121881433.917>, fillcolor="#f7d7c1"] ;
617 -> 618 ;
619 [label=<speechiness_% &le; 6.0<br/>squared_error = 5.727394941947533e+16<br/>samples = 5<br/>value = 949497812.778>, fillcolor="#f8ddca"] ;
618 -> 619 ;
620 [label=<acousticness_% &le; 84.0<br/>squared_error = 2.697043357833459e+16<br/>samples = 4<br/>value = 1014015475.75>, fillcolor="#f8dbc7"] ;
619 -> 620 ;
621 [label=<danceability_% &le; 46.5<br/>squared_error = 572592765773824.0<br/>samples = 2<br/>value = 1197015269.0>, fillcolor="#f6d5bc"] ;
620 -> 621 ;
622 [label=<squared_error = 0.0<br/>samples = 1<br/>value = 1230855859.0>, fillcolor="#f6d3bb"] ;
621 -> 622 ;
623 [label=<squared_error = 0.0<br/>samples = 1<br/>value = 1180094974.0>, fillcolor="#f6d5bd"] ;
621 -> 623 ;
624 [label=<valence_% &le; 19.0<br/>squared_error = 1.0659770709509888e+16<br/>samples = 2<br/>value = 904215599.8>, fillcolor="#f8dfcd"] ;
620 -> 624 ;
625 [label=<squared_error = 0.0<br/>samples = 1<br/>value = 777765388.0>, fillcolor="#f9e3d4"] ;
624 -> 625 ;
626 [label=<squared_error = 0.0<br/>samples = 1<br/>value = 988515741.0>, fillcolor="#f8dcc8"] ;
624 -> 626 ;
627 [label=<squared_error = -704.0<br/>samples = 1<br/>value = 433356509.0>, fillcolor="#fcf0e7"] ;
619 -> 627 ;
628 [label=<acousticness_% &le; 71.0<br/>squared_error = 9.60200509039667e+16<br/>samples = 2<br/>value = 1639032297.333>, fillcolor="#f3c5a4"] ;
618 -> 628 ;
629 [label=<squared_error = 0.0<br/>samples = 1<br/>value = 1200808494.0>, fillcolor="#f6d5bc"] ;
628 -> 629 ;
630 [label=<squared_error = 0.0<br/>samples = 1<br/>value = 1858144199.0>, fillcolor="#f1bd98"] ;
628 -> 630 ;
631 [label=<energy_% &le; 54.5<br/>squared_error = 1.806514962430348e+17<br/>samples = 3<br/>value = 601627998.25>, fillcolor="#fbeade"] ;
617 -> 631 ;
632 [label=<danceability_% &le; 65.5<br/>squared_error = 3055170138403240.0<br/>samples = 2<br/>value = 178397669.5>, fillcolor="#fef9f5"] ;
631 -> 632 ;
633 [label=<squared_error = 0.0<br/>samples = 1<br/>value = 233671263.0>, fillcolor="#fdf7f2"] ;
632 -> 633 ;
634 [label=<squared_error = 0.0<br/>samples = 1<br/>value = 123124076.0>, fillcolor="#fefbf8"] ;
632 -> 634 ;
635 [label=<squared_error = 0.0<br/>samples = 1<br/>value = 1024858327.0>, fillcolor="#f8dbc6"] ;
631 -> 635 ;
636 [label=<acousticness_% &le; 72.5<br/>squared_error = 5803237077394372.0<br/>samples = 3<br/>value = 171425522.25>, fillcolor="#fef9f5"] ;
596 -> 636 ;
637 [label=<squared_error = 0.0<br/>samples = 1<br/>value = 283332261.0>, fillcolor="#fdf5ef"] ;
636 -> 637 ;
638 [label=<valence_% &le; 44.0<br/>squared_error = 2171819135344324.0<br/>samples = 2<br/>value = 134123276.0>, fillcolor="#fefaf8"] ;
636 -> 638 ;
639 [label=<squared_error = 0.0<br/>samples = 1<br/>value = 68216992.0>, fillcolor="#fffdfb"] ;
638 -> 639 ;
640 [label=<squared_error = 0.0<br/>samples = 1<br/>value = 167076418.0>, fillcolor="#fef9f6"] ;
638 -> 640 ;
641 [label=<danceability_% &le; 52.5<br/>squared_error = 1.5762612794517504e+16<br/>samples = 2<br/>value = 1535638074.5>, fillcolor="#f4c9aa"] ;
595 -> 641 ;
642 [label=<squared_error = 0.0<br/>samples = 1<br/>value = 1410088830.0>, fillcolor="#f5cdb1"] ;
641 -> 642 ;
643 [label=<squared_error = 0.0<br/>samples = 1<br/>value = 1661187319.0>, fillcolor="#f3c4a3"] ;
641 -> 643 ;
644 [label=<squared_error = 2048.0<br/>samples = 1<br/>value = 2420461338.0>, fillcolor="#eda978"] ;
594 -> 644 ;
645 [label=<danceability_% &le; 59.0<br/>squared_error = 1549324395177494.0<br/>samples = 3<br/>value = 107482082.0>, fillcolor="#fefbf9"] ;
593 -> 645 ;
646 [label=<acousticness_% &le; 71.5<br/>squared_error = 3843202535339.0<br/>samples = 2<br/>value = 75367511.333>, fillcolor="#fefcfb"] ;
645 -> 646 ;
647 [label=<squared_error = 0.0<br/>samples = 1<br/>value = 73981293.0>, fillcolor="#fefcfb"] ;
646 -> 647 ;
648 [label=<squared_error = 0.0<br/>samples = 1<br/>value = 78139948.0>, fillcolor="#fefcfb"] ;
646 -> 648 ;
649 [label=<squared_error = 0.0<br/>samples = 1<br/>value = 155653938.0>, fillcolor="#fef9f6"] ;
645 -> 649 ;
650 [label=<valence_% &le; 56.5<br/>squared_error = 2.8524658201807568e+17<br/>samples = 35<br/>value = 442008473.333>, fillcolor="#fcefe6"] ;
410 -> 650 ;
651 [label=<energy_% &le; 43.5<br/>squared_error = 1.1601167790514028e+16<br/>samples = 7<br/>value = 141376355.071>, fillcolor="#fefaf7"] ;
650 -> 651 ;
652 [label=<energy_% &le; 34.5<br/>squared_error = 9129727042892688.0<br/>samples = 2<br/>value = 276345822.75>, fillcolor="#fdf5f0"] ;
651 -> 652 ;
653 [label=<squared_error = 0.0<br/>samples = 1<br/>value = 110849052.0>, fillcolor="#fefbf9"] ;
652 -> 653 ;
654 [label=<squared_error = 0.0<br/>samples = 1<br/>value = 331511413.0>, fillcolor="#fdf3ed"] ;
652 -> 654 ;
655 [label=<energy_% &le; 70.0<br/>squared_error = 2388360054517876.0<br/>samples = 5<br/>value = 87388568.0>, fillcolor="#fefcfa"] ;
651 -> 655 ;
656 [label=<speechiness_% &le; 5.5<br/>squared_error = 1563007940607947.0<br/>samples = 4<br/>value = 76944787.778>, fillcolor="#fefcfb"] ;
655 -> 656 ;
657 [label=<squared_error = 0.0<br/>samples = 1<br/>value = 50847624.0>, fillcolor="#fffdfc"] ;
656 -> 657 ;
658 [label=<liveness_% &le; 10.5<br/>squared_error = 1601281111618690.0<br/>samples = 3<br/>value = 109566242.5>, fillcolor="#fefbf9"] ;
656 -> 658 ;
659 [label=<squared_error = 0.0<br/>samples = 1<br/>value = 41924466.0>, fillcolor="#fffefd"] ;
658 -> 659 ;
660 [label=<valence_% &le; 55.5<br/>squared_error = 101525958568942.0<br/>samples = 2<br/>value = 132113501.333>, fillcolor="#fefaf8"] ;
658 -> 660 ;
661 [label=<squared_error = 0.0<br/>samples = 1<br/>value = 146363130.0>, fillcolor="#fefaf7"] ;
660 -> 661 ;
662 [label=<squared_error = -2.0<br/>samples = 1<br/>value = 124988687.0>, fillcolor="#fefbf8"] ;
660 -> 662 ;
663 [label=<squared_error = 12.0<br/>samples = 1<br/>value = 181382590.0>, fillcolor="#fef9f5"] ;
655 -> 663 ;
664 [label=<acousticness_% &le; 38.5<br/>squared_error = 3.326514608067392e+17<br/>samples = 28<br/>value = 533505204.978>, fillcolor="#fbece1"] ;
650 -> 664 ;
665 [label=<valence_% &le; 70.0<br/>squared_error = 4.379611810725134e+17<br/>samples = 17<br/>value = 715433549.179>, fillcolor="#fae6d7"] ;
664 -> 665 ;
666 [label=<energy_% &le; 72.5<br/>squared_error = 4.851926120994678e+17<br/>samples = 14<br/>value = 940565959.895>, fillcolor="#f8decb"] ;
665 -> 666 ;
667 [label=<acousticness_% &le; 26.5<br/>squared_error = 2.8680477247204928e+17<br/>samples = 12<br/>value = 777954643.118>, fillcolor="#f9e3d4"] ;
666 -> 667 ;
668 [label=<danceability_% &le; 73.0<br/>squared_error = 1.459253189025511e+17<br/>samples = 9<br/>value = 605071789.538>, fillcolor="#fbeadd"] ;
667 -> 668 ;
669 [label=<liveness_% &le; 4.5<br/>squared_error = 1.0718428783136525e+17<br/>samples = 8<br/>value = 542497849.083>, fillcolor="#fbece1"] ;
668 -> 669 ;
670 [label=<squared_error = 0.0<br/>samples = 1<br/>value = 1316855716.0>, fillcolor="#f5d0b6"] ;
669 -> 670 ;
671 [label=<energy_% &le; 71.0<br/>squared_error = 5.746086546340048e+16<br/>samples = 7<br/>value = 472101679.364>, fillcolor="#fceee5"] ;
669 -> 671 ;
672 [label=<acousticness_% &le; 16.0<br/>squared_error = 2.328539500813336e+16<br/>samples = 6<br/>value = 348824502.75>, fillcolor="#fcf3ec"] ;
671 -> 672 ;
673 [label=<energy_% &le; 64.5<br/>squared_error = 1206153555492064.0<br/>samples = 3<br/>value = 224636768.0>, fillcolor="#fdf7f3"] ;
672 -> 673 ;
674 [label=<squared_error = 0.0<br/>samples = 1<br/>value = 284249832.0>, fillcolor="#fdf5ef"] ;
673 -> 674 ;
675 [label=<valence_% &le; 64.0<br/>squared_error = 28774785336936.0<br/>samples = 2<br/>value = 204765746.667>, fillcolor="#fef8f4"] ;
673 -> 675 ;
676 [label=<squared_error = -8.0<br/>samples = 1<br/>value = 212351890.0>, fillcolor="#fdf7f3"] ;
675 -> 676 ;
677 [label=<squared_error = 0.0<br/>samples = 1<br/>value = 200972675.0>, fillcolor="#fef8f4"] ;
675 -> 677 ;
678 [label=<acousticness_% &le; 23.0<br/>squared_error = 1.451944953610192e+16<br/>samples = 3<br/>value = 473012237.5>, fillcolor="#fceee5"] ;
672 -> 678 ;
679 [label=<valence_% &le; 60.0<br/>squared_error = 2616246519040384.0<br/>samples = 2<br/>value = 537709647.667>, fillcolor="#fbece1"] ;
678 -> 679 ;
680 [label=<squared_error = 0.0<br/>samples = 1<br/>value = 501541661.0>, fillcolor="#fbede3"] ;
679 -> 680 ;
681 [label=<squared_error = 0.0<br/>samples = 1<br/>value = 610045621.0>, fillcolor="#fbe9dd"] ;
679 -> 681 ;
682 [label=<squared_error = -48.0<br/>samples = 1<br/>value = 278920007.0>, fillcolor="#fdf5ef"] ;
678 -> 682 ;
683 [label=<squared_error = 128.0<br/>samples = 1<br/>value = 800840817.0>, fillcolor="#f9e3d2"] ;
671 -> 683 ;
684 [label=<squared_error = 256.0<br/>samples = 1<br/>value = 1355959075.0>, fillcolor="#f5cfb4"] ;
668 -> 684 ;
685 [label=<acousticness_% &le; 29.0<br/>squared_error = 3.318283519084342e+17<br/>samples = 3<br/>value = 1339823917.25>, fillcolor="#f5d0b5"] ;
667 -> 685 ;
686 [label=<squared_error = 0.0<br/>samples = 1<br/>value = 1887039593.0>, fillcolor="#f1bc96"] ;
685 -> 686 ;
687 [label=<speechiness_% &le; 14.5<br/>squared_error = 6.476671224380954e+16<br/>samples = 2<br/>value = 792608241.5>, fillcolor="#f9e3d3"] ;
685 -> 687 ;
688 [label=<squared_error = 0.0<br/>samples = 1<br/>value = 1047101291.0>, fillcolor="#f7dac5"] ;
687 -> 688 ;
689 [label=<squared_error = 64.0<br/>samples = 1<br/>value = 538115192.0>, fillcolor="#fbece1"] ;
687 -> 689 ;
690 [label=<danceability_% &le; 61.0<br/>squared_error = 3.62621911562199e+16<br/>samples = 2<br/>value = 2322762152.5>, fillcolor="#eead7e"] ;
666 -> 690 ;
691 [label=<squared_error = 0.0<br/>samples = 1<br/>value = 2513188493.0>, fillcolor="#eda673"] ;
690 -> 691 ;
692 [label=<squared_error = 512.0<br/>samples = 1<br/>value = 2132335812.0>, fillcolor="#efb488"] ;
690 -> 692 ;
693 [label=<liveness_% &le; 9.0<br/>squared_error = 5358919857683232.0<br/>samples = 3<br/>value = 240154015.444>, fillcolor="#fdf7f2"] ;
665 -> 693 ;
694 [label=<squared_error = 0.0<br/>samples = 1<br/>value = 367316268.0>, fillcolor="#fcf2eb"] ;
693 -> 694 ;
695 [label=<speechiness_% &le; 6.0<br/>squared_error = 949952213958864.0<br/>samples = 2<br/>value = 203821943.286>, fillcolor="#fef8f4"] ;
693 -> 695 ;
696 [label=<squared_error = 0.0<br/>samples = 1<br/>value = 239411309.0>, fillcolor="#fdf7f2"] ;
695 -> 696 ;
697 [label=<squared_error = 0.0<br/>samples = 1<br/>value = 177129919.0>, fillcolor="#fef9f5"] ;
695 -> 697 ;
698 [label=<valence_% &le; 59.5<br/>squared_error = 3.726188335187664e+16<br/>samples = 11<br/>value = 250505558.444>, fillcolor="#fdf6f1"] ;
664 -> 698 ;
699 [label=<energy_% &le; 44.5<br/>squared_error = 1.7705762449113696e+17<br/>samples = 2<br/>value = 530855408.0>, fillcolor="#fbece1"] ;
698 -> 699 ;
700 [label=<squared_error = 0.0<br/>samples = 1<br/>value = 110073250.0>, fillcolor="#fefbf9"] ;
699 -> 700 ;
701 [label=<squared_error = 0.0<br/>samples = 1<br/>value = 951637566.0>, fillcolor="#f8ddca"] ;
699 -> 701 ;
702 [label=<valence_% &le; 73.0<br/>squared_error = 8734847845212865.0<br/>samples = 9<br/>value = 215461827.25>, fillcolor="#fdf7f3"] ;
698 -> 702 ;
703 [label=<liveness_% &le; 10.0<br/>squared_error = 6505470659583664.0<br/>samples = 7<br/>value = 235886902.214>, fillcolor="#fdf7f2"] ;
702 -> 703 ;
704 [label=<squared_error = 0.0<br/>samples = 1<br/>value = 476244795.0>, fillcolor="#fceee5"] ;
703 -> 704 ;
705 [label=<danceability_% &le; 60.0<br/>squared_error = 2220052232560832.0<br/>samples = 6<br/>value = 217397833.538>, fillcolor="#fdf7f3"] ;
703 -> 705 ;
706 [label=<acousticness_% &le; 75.5<br/>squared_error = 72354459184000.0<br/>samples = 2<br/>value = 175313502.0>, fillcolor="#fef9f5"] ;
705 -> 706 ;
707 [label=<squared_error = 0.0<br/>samples = 1<br/>value = 181328253.0>, fillcolor="#fef9f5"] ;
706 -> 707 ;
708 [label=<squared_error = 0.0<br/>samples = 1<br/>value = 163284000.0>, fillcolor="#fef9f6"] ;
706 -> 708 ;
709 [label=<liveness_% &le; 27.0<br/>squared_error = 1241648386046040.0<br/>samples = 4<br/>value = 253470117.714>, fillcolor="#fdf6f1"] ;
705 -> 709 ;
710 [label=<liveness_% &le; 16.5<br/>squared_error = 5928878264368.0<br/>samples = 2<br/>value = 292554958.667>, fillcolor="#fdf5ef"] ;
709 -> 710 ;
711 [label=<squared_error = 0.0<br/>samples = 1<br/>value = 295998468.0>, fillcolor="#fdf5ef"] ;
710 -> 711 ;
712 [label=<squared_error = 16.0<br/>samples = 1<br/>value = 290833204.0>, fillcolor="#fdf5ef"] ;
710 -> 712 ;
713 [label=<energy_% &le; 55.5<br/>squared_error = 163430477024048.0<br/>samples = 2<br/>value = 224156487.0>, fillcolor="#fdf7f3"] ;
709 -> 713 ;
714 [label=<squared_error = 0.0<br/>samples = 1<br/>value = 236940480.0>, fillcolor="#fdf7f2"] ;
713 -> 714 ;
715 [label=<squared_error = 0.0<br/>samples = 1<br/>value = 211372494.0>, fillcolor="#fdf8f3"] ;
713 -> 715 ;
716 [label=<valence_% &le; 74.5<br/>squared_error = 978201656002526.0<br/>samples = 2<br/>value = 72486302.5>, fillcolor="#fefcfb"] ;
702 -> 716 ;
717 [label=<squared_error = 0.0<br/>samples = 1<br/>value = 41210087.0>, fillcolor="#fffefd"] ;
716 -> 717 ;
718 [label=<squared_error = 0.0<br/>samples = 1<br/>value = 103762518.0>, fillcolor="#fefbf9"] ;
716 -> 718 ;
719 [label=<liveness_% &le; 19.5<br/>squared_error = 3.268933630330655e+17<br/>samples = 4<br/>value = 1090582818.889>, fillcolor="#f7d8c2"] ;
409 -> 719 ;
720 [label=<energy_% &le; 63.5<br/>squared_error = 2.233272856691968e+16<br/>samples = 2<br/>value = 589111402.8>, fillcolor="#fbeade"] ;
719 -> 720 ;
721 [label=<squared_error = 0.0<br/>samples = 1<br/>value = 663832097.0>, fillcolor="#fae8da"] ;
720 -> 721 ;
722 [label=<squared_error = -64.0<br/>samples = 1<br/>value = 290228626.0>, fillcolor="#fdf5ef"] ;
720 -> 722 ;
723 [label=<speechiness_% &le; 9.5<br/>squared_error = 324709119577600.0<br/>samples = 2<br/>value = 1717422089.0>, fillcolor="#f2c2a0"] ;
719 -> 723 ;
724 [label=<squared_error = 0.0<br/>samples = 1<br/>value = 1699402402.0>, fillcolor="#f3c3a1"] ;
723 -> 724 ;
725 [label=<squared_error = 512.0<br/>samples = 1<br/>value = 1735441776.0>, fillcolor="#f2c29f"] ;
723 -> 725 ;
726 [label=<valence_% &le; 64.5<br/>squared_error = 3.036483210911457e+16<br/>samples = 12<br/>value = 211815606.304>, fillcolor="#fdf8f3"] ;
408 -> 726 ;
727 [label=<danceability_% &le; 58.5<br/>squared_error = 1.1155261480843764e+16<br/>samples = 11<br/>value = 156140740.25>, fillcolor="#fef9f6"] ;
726 -> 727 ;
728 [label=<speechiness_% &le; 38.5<br/>squared_error = 4458801590128204.0<br/>samples = 6<br/>value = 95340710.5>, fillcolor="#fefcfa"] ;
727 -> 728 ;
729 [label=<energy_% &le; 36.5<br/>squared_error = 463253951997763.5<br/>samples = 5<br/>value = 58321071.0>, fillcolor="#fffdfc"] ;
728 -> 729 ;
730 [label=<squared_error = 0.0<br/>samples = 1<br/>value = 93587665.0>, fillcolor="#fefcfa"] ;
729 -> 730 ;
731 [label=<energy_% &le; 42.5<br/>squared_error = 138730841497226.0<br/>samples = 4<br/>value = 48244901.286>, fillcolor="#fffdfc"] ;
729 -> 731 ;
732 [label=<speechiness_% &le; 36.5<br/>squared_error = 4295837748168.0<br/>samples = 2<br/>value = 34847032.0>, fillcolor="#fffefd"] ;
731 -> 732 ;
733 [label=<squared_error = 0.0<br/>samples = 1<br/>value = 33381454.0>, fillcolor="#fffefd"] ;
732 -> 733 ;
734 [label=<squared_error = 0.0<br/>samples = 1<br/>value = 37778188.0>, fillcolor="#fffefd"] ;
732 -> 734 ;
735 [label=<speechiness_% &le; 37.0<br/>squared_error = 3959536225342.5<br/>samples = 2<br/>value = 58293303.25>, fillcolor="#fffdfc"] ;
731 -> 735 ;
736 [label=<squared_error = 0.0<br/>samples = 1<br/>value = 61739839.0>, fillcolor="#fffdfc"] ;
735 -> 736 ;
737 [label=<squared_error = 0.0<br/>samples = 1<br/>value = 57144458.0>, fillcolor="#fffdfc"] ;
735 -> 737 ;
738 [label=<squared_error = 0.0<br/>samples = 1<br/>value = 206399629.0>, fillcolor="#fdf8f4"] ;
728 -> 738 ;
739 [label=<energy_% &le; 49.0<br/>squared_error = 7337537750913784.0<br/>samples = 5<br/>value = 247340784.875>, fillcolor="#fdf6f1"] ;
727 -> 739 ;
740 [label=<speechiness_% &le; 38.5<br/>squared_error = 428690896341904.0<br/>samples = 2<br/>value = 318768601.0>, fillcolor="#fdf4ed"] ;
739 -> 740 ;
741 [label=<squared_error = 0.0<br/>samples = 1<br/>value = 298063749.0>, fillcolor="#fdf4ee"] ;
740 -> 741 ;
742 [label=<squared_error = -16.0<br/>samples = 1<br/>value = 339473453.0>, fillcolor="#fdf3ec"] ;
740 -> 742 ;
743 [label=<speechiness_% &le; 35.0<br/>squared_error = 4042518772712036.0<br/>samples = 3<br/>value = 175912968.75>, fillcolor="#fef9f5"] ;
739 -> 743 ;
744 [label=<squared_error = 0.0<br/>samples = 1<br/>value = 276259178.0>, fillcolor="#fdf5f0"] ;
743 -> 744 ;
745 [label=<speechiness_% &le; 38.0<br/>squared_error = 914753158796144.0<br/>samples = 2<br/>value = 142464232.333>, fillcolor="#fefaf7"] ;
743 -> 745 ;
746 [label=<squared_error = 0.0<br/>samples = 1<br/>value = 121077868.0>, fillcolor="#fefbf8"] ;
745 -> 746 ;
747 [label=<squared_error = 0.0<br/>samples = 1<br/>value = 185236961.0>, fillcolor="#fef8f5"] ;
745 -> 747 ;
748 [label=<squared_error = 0.0<br/>samples = 1<br/>value = 582981380.0>, fillcolor="#fbeadf"] ;
726 -> 748 ;
749 [label=<speechiness_% &le; 11.0<br/>squared_error = 1.0712714786143165e+18<br/>samples = 2<br/>value = 1826104366.667>, fillcolor="#f2be9a"] ;
407 -> 749 ;
750 [label=<squared_error = 0.0<br/>samples = 1<br/>value = 2557975762.0>, fillcolor="#eca571"] ;
749 -> 750 ;
751 [label=<squared_error = -576.0<br/>samples = 1<br/>value = 362361576.0>, fillcolor="#fcf2eb"] ;
749 -> 751 ;
752 [label=<liveness_% &le; 27.5<br/>squared_error = 9.463028273032733e+16<br/>samples = 27<br/>value = 305397505.809>, fillcolor="#fdf4ee"] ;
406 -> 752 ;
753 [label=<valence_% &le; 84.0<br/>squared_error = 2.196107722720037e+16<br/>samples = 21<br/>value = 215197930.231>, fillcolor="#fdf7f3"] ;
752 -> 753 ;
754 [label=<speechiness_% &le; 4.5<br/>squared_error = 5606954244995574.0<br/>samples = 9<br/>value = 103988685.389>, fillcolor="#fefbf9"] ;
753 -> 754 ;
755 [label=<acousticness_% &le; 26.0<br/>squared_error = 748334167107333.5<br/>samples = 2<br/>value = 22338595.2>, fillcolor="#fffefe"] ;
754 -> 755 ;
